svm_type c_svc
kernel_type rbf
gamma 1
nr_class 2
total_sv 6341
rho 1.09875
label 1 -1
probA -1.93913
probB 0.00058356
nr_sv 3002 3339
SV
5.992475805197196 1:1 2:1 3:0.156 4:0.365367 5:0.000773652 6:0.0487805 7:0.674068 8:0.292683 9:0.829268 10:0.704151 11:0.536585 12:0.436457 13:0.560976 14:0.783204 15:0.175 16:0.22534 17:0.228082 18:0.0243902 19:0.331651 20:0.1 21:0.658537 22:0.0731707 23:0.97561 24:0.097561 25:0.804878 26:0.510622 27:0.512195 28:0.396341 29:0.878049 30:1 31:0.926829 32:0.499603 33:0.634146 34:0.102655 35:0.0505952 36:0.175166 37:0.243902 38:0.443459 
90.5096679919 1:0.287187 2:1 3:0.147257 4:0.374595 5:0.00718391 6:0.00073692 7:0.0856286 8:0.604274 9:0.618276 10:0.465113 11:0.6986 12:0.235039 13:0.812085 14:0.787597 15:0.115782 16:0.397154 17:0.16895 18:0.0147384 19:0.206575 20:0.122419 21:0.401621 22:0.00147384 23:0.999263 24:0.0036846 25:1 26:0.346424 27:0.450258 28:0.404385 29:0.811349 30:0.997052 31:0.998526 32:0.371388 33:0.56448 34:0.0923591 35:0.141786 36:0.319814 37:0.371618 38:0.426074 
90.5096679919 1:0.498433 2:1 3:0.130818 4:0.340323 5:0.00585765 6:0.00470958 7:0.12685 8:0.491366 9:0.634223 10:0.519148 11:0.789639 12:0.20656 13:0.725275 14:0.707851 15:0.133648 16:0.336811 17:0.0892565 18:0.00156986 19:0.315271 20:0.125786 21:0.502355 22:0.0502355 23:0.993721 24:0.00313972 25:1 26:0.343596 27:0.529042 28:0.435636 29:0.766091 30:0.974882 31:0.99686 32:0.366168 33:0.44898 34:0.0903879 35:0.189334 36:0.199719 37:0.412649 38:0.331097 
90.5096679919 1:0.349693 2:1 3:0.147654 4:0.367281 5:0.00209991 6:0.00615385 7:0.228968 8:0.535385 9:0.741538 10:0.360302 11:0.772308 12:0.217004 13:0.803077 14:0.726889 15:0.0802469 16:0.344289 17:0.162692 18:0.0153846 19:0.315402 20:0.117284 21:0.486154 22:0.104615 23:0.996923 24:0.00307692 25:1 26:0.333797 27:0.526154 28:0.35 29:0.667692 30:0.984615 31:0.972308 32:0.361511 33:0.446154 34:0.17426 35:0.168651 36:0.167313 37:0.457143 38:0.408392 
90.5096679919 1:0.582011 2:1 3:0.147257 4:0.278871 5:0.00607869 6:0.00883392 7:0.200768 8:0.443463 9:0.687279 10:0.734389 11:0.750883 12:0.251069 13:0.664311 14:0.75107 15:0.0902655 16:0.214015 17:0.091502 18:0.00176678 19:0.234698 20:0.111504 21:0.383392 22:0.0229682 23:1 24:0.00530035 25:0.984099 26:0.450587 27:0.477032 28:0.30477 29:0.818021 30:0.996466 31:0.992933 32:0.312102 33:0.651943 34:0.212577 35:0.141488 36:0.402414 37:0.4947 38:0.314809 
90.5096679919 1:0.332696 2:1 3:0.105594 4:0.314131 5:0.00641026 6:0.0114833 7:0.213322 8:0.488995 9:0.726316 10:0.414137 11:0.785646 12:0.285067 13:0.724402 14:0.77808 15:0.126437 16:0.206292 17:0.164095 18:0.000956938 19:0.229214 20:0.119732 21:0.487081 22:0.00287081 23:1 24:0.00669856 25:0.989474 26:0.377003 27:0.500478 28:0.382775 29:0.742584 30:0.999043 31:0.988517 32:0.432154 33:0.50622 34:0.120944 35:0.115342 36:0.294538 37:0.38961 38:0.405394 
90.5096679919 1:0.212341 2:1 3:0.0794182 4:0.291695 5:0.00431034 6:0.000908265 7:0.141559 8:0.375114 9:0.748411 10:0.405632 11:0.797457 12:0.24571 13:0.713896 14:0.743163 15:0.0845455 16:0.255472 17:0.1668 18:0.00635786 19:0.310658 20:0.148182 21:0.455041 22:0.00363306 23:1 24:0.0027248 25:0.997275 26:0.214351 27:0.551317 28:0.443915 29:0.718438 30:0.990917 31:0.998183 32:0.437254 33:0.504995 34:0.0802574 35:0.230898 36:0.228305 37:0.47619 38:0.361655 
90.5096679919 1:0.13918 2:1 3:0.097221 4:0.289616 5:0.00806808 6:0.000953592 7:0.0598651 8:0.533058 9:0.767324 10:0.367776 11:0.761602 12:0.227524 13:0.792117 14:0.730632 15:0.116375 16:0.260063 17:0.134408 18:0.000635728 19:0.27097 20:0.0947536 21:0.47616 22:0.000317864 23:0.999364 24:0.00254291 25:0.999682 26:0.339386 27:0.512715 28:0.425938 29:0.718373 30:1 31:0.999046 32:0.375599 33:0.479339 34:0.136438 35:0.17471 36:0.258287 37:0.453183 38:0.297636 
90.5096679919 1:0.477099 2:1 3:0.114082 4:0.305416 5:0.0069076 6:0.00127389 7:0.436106 8:0.472611 9:0.704459 10:0.721432 11:0.727389 12:0.268186 13:0.671338 14:0.723396 15:0.119898 16:0.28508 17:0.143521 18:0.0127389 19:0.234512 20:0.117347 21:0.518471 22:0.00382166 23:1 24:0.0101911 25:0.994904 26:0.375796 27:0.470064 28:0.375796 29:0.831847 30:0.985987 31:0.998726 32:0.381056 33:0.570701 34:0.140103 35:0.11229 36:0.236562 37:0.425842 38:0.370585 
90.5096679919 1:0.387324 2:1 3:0.136874 4:0.336821 5:0.0121574 6:0.00939518 7:0.16498 8:0.449794 9:0.79037 10:0.476812 11:0.701116 12:0.275675 13:0.73576 14:0.771505 15:0.103995 16:0.236293 17:0.12567 18:0.000587199 19:0.26349 20:0.140423 21:0.613036 22:0.0017616 23:1 24:0.0023488 25:0.99589 26:0.327449 27:0.523782 28:0.357457 29:0.738696 30:0.998826 31:0.994715 32:0.415161 33:0.464474 34:0.124851 35:0.152796 36:0.257247 37:0.450466 38:0.412107 
90.5096679919 1:0.117612 2:1 3:0.096715 4:0.341326 5:0.00359195 6:0.0042245 7:0.0949972 8:0.538926 9:0.756186 10:0.606062 11:0.810501 12:0.287774 13:0.747133 14:0.720855 15:0.15942 16:0.282502 17:0.123652 18:0.0006035 19:0.282799 20:0.0911836 21:0.439348 22:0.0018105 23:0.993361 24:0.002414 25:0.999396 26:0.393969 27:0.566083 28:0.448099 29:0.681352 30:1 31:0.995775 32:0.43399 33:0.463488 34:0.135757 35:0.164984 36:0.219188 37:0.393999 38:0.288583 
6.815144052319801 1:0.716129 2:1 3:0.114434 4:0.358101 5:0.0081786 6:0.00807754 7:0.358535 8:0.576737 9:0.668821 10:0.519627 11:0.736672 12:0.246578 13:0.728595 14:0.772882 15:0.0841424 16:0.273636 17:0.186993 18:0.00161551 19:0.258537 20:0.171521 21:0.402262 22:0.0129241 23:1 24:0.0210016 25:0.991922 26:0.261348 27:0.505654 28:0.391761 29:0.831987 30:0.998384 31:0.972536 32:0.414227 33:0.518578 34:0.102987 35:0.122804 36:0.271825 37:0.445419 38:0.431781 
90.5096679919 1:0.528497 2:1 3:0.0762304 4:0.406451 5:0.00187887 6:0.0104167 7:0.268597 8:0.546875 9:0.6875 10:0.322599 11:0.802083 12:0.307018 13:0.78125 14:0.806609 15:0.151832 16:0.139012 17:0.148605 18:0.00520833 19:0.288733 20:0.13089 21:0.505208 22:0.0260417 23:0.994792 24:0.0416667 25:0.989583 26:0.366767 27:0.541667 28:0.364583 29:0.739583 30:1 31:0.895833 32:0.44391 33:0.442708 34:0.13974 35:0.164236 36:0.187027 37:0.46131 38:0.350379 
90.5096679919 1:0.365269 2:1 3:0.133387 4:0.302319 5:0.00337091 6:0.026 7:0.619355 8:0.42 9:0.514 10:0.39748 11:0.784 12:0.164211 13:0.688 14:0.682807 15:0.126253 16:0.271009 17:0.158454 18:0.002 19:0.169448 20:0.0961924 21:0.386 22:0.01 23:1 24:0.004 25:0.986 26:0.308323 27:0.49 28:0.47 29:0.8 30:0.978 31:0.996 32:0.584639 33:0.602 34:0.0843457 35:0.174396 36:0.398078 37:0.385714 38:0.349091 
90.5096679919 1:0.391185 2:1 3:0.156909 4:0.36292 5:0.00784704 6:0.00643382 7:0.0951846 8:0.414522 9:0.715993 10:0.739112 11:0.768382 12:0.228328 13:0.657169 14:0.805575 15:0.137075 16:0.25475 17:0.106312 18:0.00183824 19:0.299949 20:0.105796 21:0.409926 22:0.00367647 23:1 24:0.000919118 25:0.997243 26:0.412832 27:0.517463 28:0.413603 29:0.77114 30:0.994485 31:0.999081 32:0.4188 33:0.563419 34:0.134103 35:0.164772 36:0.237634 37:0.404412 38:0.307487 
90.5096679919 1:0.759146 2:1 3:0.0829448 4:0.266147 5:0.00458665 6:0.00917431 7:0.304572 8:0.492355 9:0.761468 10:0.579208 11:0.70948 12:0.10301 13:0.669725 14:0.800757 15:0.122699 16:0.335904 17:0.12438 18:0.00611621 19:0.310275 20:0.0828221 21:0.357798 22:0.0244648 23:0.990826 24:0.0030581 25:0.963303 26:0.355036 27:0.541284 28:0.424312 29:0.844037 30:1 31:0.981651 32:0.402476 33:0.510703 34:0.122808 35:0.161408 36:0.213352 37:0.454347 38:0.28357 
82.42793325890339 1:0.349125 2:1 3:0.128793 4:0.28621 5:0.00624447 6:0.00103093 7:0.237118 8:0.62268 9:0.593814 10:0.848339 11:0.787629 12:0.212697 13:0.721649 14:0.762936 15:0.111455 16:0.414853 17:0.159012 18:0.00412371 19:0.248015 20:0.142415 21:0.405155 22:0.0113402 23:0.997938 24:0.00721649 25:0.998969 26:0.276654 27:0.427835 28:0.430412 29:0.828866 30:0.981443 31:1 32:0.553634 33:0.549485 34:0.0730979 35:0.159774 36:0.315196 37:0.394698 38:0.425492 
90.5096679919 1:0.360515 2:1 3:0.126982 4:0.24494 5:0.00773652 6:0.000859107 7:0.0547124 8:0.50945 9:0.639175 10:0.683693 11:0.786942 12:0.163682 13:0.734536 14:0.749111 15:0.1092 16:0.29015 17:0.130744 18:0.00687285 19:0.293844 20:0.114359 21:0.359107 22:0.00171821 23:1 24:0.00257732 25:0.997423 26:0.380972 27:0.572165 28:0.341495 29:0.762027 30:0.993986 31:0.992268 32:0.394826 33:0.49055 34:0.153585 35:0.147044 36:0.230932 37:0.495827 38:0.32646 
90.5096679919 1:0.323956 2:1 3:0.141818 4:0.273275 5:0.00657604 6:0.00181653 7:0.295203 8:0.540418 9:0.672116 10:0.499432 11:0.698456 12:0.188346 13:0.762035 14:0.790012 15:0.122727 16:0.335656 17:0.128095 18:0.0027248 19:0.223256 20:0.137273 21:0.390554 22:0.0499546 23:1 24:0.000908265 25:0.986376 26:0.413143 27:0.465032 28:0.337193 29:0.817439 30:0.989101 31:0.999092 32:0.336566 33:0.583106 34:0.145583 35:0.117749 36:0.27583 37:0.442455 38:0.369912 
90.5096679919 1:0.349221 2:1 3:0.126061 4:0.344467 5:0.00701813 6:0.00183486 7:0.469177 8:0.548624 9:0.625688 10:0.454021 11:0.795413 12:0.194109 13:0.724771 14:0.747669 15:0.174472 16:0.278769 17:0.128458 18:0.000917431 19:0.306116 20:0.0991736 21:0.324771 22:0.0201835 23:1 24:0.00825688 25:0.999083 26:0.438266 27:0.554128 28:0.432339 29:0.797248 30:0.998165 31:0.989908 32:0.377543 33:0.504587 34:0.09238 35:0.153319 36:0.303086 37:0.325033 38:0.356964 
58.43412175130235 1:0.313322 2:1 3:0.123361 4:0.344467 5:0.00701813 6:0.00329218 7:0.438261 8:0.512757 9:0.651852 10:0.454021 11:0.790947 12:0.254711 13:0.734156 14:0.786874 15:0.182043 16:0.256848 17:0.131096 18:0.00164609 19:0.250518 20:0.0971993 21:0.367078 22:0.00658436 23:1 24:0.000823045 25:0.999177 26:0.446436 27:0.547325 28:0.430041 29:0.795885 30:0.998354 31:0.990947 32:0.377543 33:0.514403 34:0.0972431 35:0.150869 36:0.293859 37:0.326867 38:0.350168 
90.5096679919 1:0.204942 2:1 3:0.131703 4:0.40282 5:0.00519452 6:0.00218182 7:0.0880645 8:0.497455 9:0.746182 10:0.762917 11:0.722182 12:0.246507 13:0.808727 14:0.751946 15:0.12591 16:0.228454 17:0.106977 18:0.000727273 19:0.259402 20:0.0938865 21:0.493091 22:0.00145455 23:0.998545 24:0.00581818 25:1 26:0.375109 27:0.459636 28:0.391818 29:0.754909 30:0.994182 31:0.996364 32:0.404598 33:0.544727 34:0.124023 35:0.190008 36:0.317119 37:0.470649 38:0.290909 
90.5096679919 1:0.422111 2:1 3:0.069916 4:0.390946 5:0.00464191 6:0.011745 7:0.0402848 8:0.459732 9:0.61745 10:0.709046 11:0.825503 12:0.24373 13:0.736577 14:0.756716 15:0.119328 16:0.266972 17:0.117555 18:0.00167785 19:0.240434 20:0.0991597 21:0.409396 22:0.00671141 23:1 24:0.0033557 25:0.998322 26:0.309753 27:0.565436 28:0.436242 29:0.704698 30:0.989933 31:0.996644 32:0.432815 33:0.530201 34:0.124221 35:0.183673 36:0.315022 37:0.488974 38:0.265406 
9.065832366915243 1:0.346747 2:1 3:0.128439 4:0.324217 5:0.00746021 6:0.000856898 7:0.223909 8:0.438732 9:0.741217 10:0.449759 11:0.731791 12:0.271501 13:0.739503 14:0.746287 15:0.131218 16:0.252459 17:0.141709 18:0.00856898 19:0.202563 20:0.102058 21:0.461868 22:0.00342759 23:1 24:0.0102828 25:0.998286 26:0.407718 27:0.455013 28:0.393102 29:0.772922 30:0.992288 31:0.996572 32:0.368229 33:0.567266 34:0.15407 35:0.141458 36:0.334958 37:0.411311 38:0.333411 
90.5096679919 1:0.33121 2:1 3:0.146354 4:0.28364 5:0.00287356 6:0.00638298 7:0.165636 8:0.510638 9:0.66383 10:0.322599 11:0.791489 12:0.31131 13:0.765957 14:0.782292 15:0.134328 16:0.297044 17:0.134007 18:0.00425532 19:0.269283 20:0.140725 21:0.495745 22:0.0148936 23:0.997872 24:0.00212766 25:0.989362 26:0.392793 27:0.557447 28:0.364362 29:0.702128 30:1 31:0.993617 32:0.451084 33:0.470213 34:0.144461 35:0.127297 36:0.209561 37:0.410334 38:0.390716 
90.5096679919 1:0.808163 2:1 3:0.136955 4:0.338891 5:0.00364721 6:0.114754 7:0.212666 8:0.5 9:0.803279 10:0.728463 11:0.659836 12:0.306299 13:0.688525 14:0.718566 15:0.148148 16:0.332366 17:0.125148 18:0.00409836 19:0.111457 20:0.106996 21:0.479508 22:0.0983607 23:0.995902 24:0.0286885 25:1 26:0.421206 27:0.286885 28:0.338115 29:0.77459 30:0.983607 31:0.987705 32:0.429051 33:0.569672 34:0.139408 35:0.116598 36:0.449915 37:0.444965 38:0.357675 
90.5096679919 1:0.329735 2:1 3:0.153392 4:0.290428 5:0.00618921 6:0.00491159 7:0.150365 8:0.494106 9:0.694499 10:0.497451 11:0.791749 12:0.201634 13:0.736739 14:0.743528 15:0.123894 16:0.31462 17:0.115623 18:0.00392927 19:0.283585 20:0.109145 21:0.422397 22:0.0196464 23:0.995088 24:0.000982318 25:1 26:0.403828 27:0.535363 28:0.380648 29:0.719057 30:0.998035 31:0.989194 32:0.420291 33:0.524558 34:0.156455 35:0.157208 36:0.213661 37:0.450463 38:0.305412 
90.5096679919 1:0.383769 2:1 3:0.123366 4:0.295459 5:0.00513926 6:0.00413223 7:0.10549 8:0.488981 9:0.640496 10:0.702395 11:0.804408 12:0.188488 13:0.714876 14:0.790901 15:0.129655 16:0.349253 17:0.144015 18:0.00275482 19:0.206026 20:0.106207 21:0.42011 22:0.00137741 23:0.987603 24:0.00550964 25:1 26:0.330312 27:0.515152 28:0.389118 29:0.746556 30:0.995868 31:0.986226 32:0.453982 33:0.559229 34:0.101947 35:0.168883 36:0.284051 37:0.45061 38:0.363135 
54.90818358309545 1:0.846816 2:1 3:0.114957 4:0.23853 5:0.00906278 6:0.00344828 7:0.314596 8:0.537931 9:0.67069 10:0.679314 11:0.75 12:0.194192 13:0.760345 14:0.725495 15:0.145078 16:0.281416 17:0.126056 18:0.00517241 19:0.270511 20:0.139896 21:0.467241 22:0.0103448 23:0.998276 24:0.00172414 25:0.996552 26:0.390489 27:0.506897 28:0.409483 29:0.77069 30:1 31:0.993103 32:0.448054 33:0.5 34:0.138292 35:0.122337 36:0.268876 37:0.391626 38:0.351097 
90.5096679919 1:0.282692 2:1 3:0.108208 4:0.311155 5:0.00541556 6:0.00673725 7:0.118044 8:0.455245 9:0.709336 10:0.510887 11:0.740135 12:0.227952 13:0.761309 14:0.742466 15:0.145472 16:0.246016 17:0.149418 18:0.000962464 19:0.27282 20:0.106936 21:0.470645 22:0.00288739 23:1 24:0.00192493 25:0.999038 26:0.362694 27:0.503369 28:0.458373 29:0.795958 30:0.998075 31:0.98845 32:0.394085 33:0.538017 34:0.107798 35:0.159877 36:0.258715 37:0.367111 38:0.337737 
90.5096679919 1:0.362637 2:1 3:0.13167 4:0.291254 5:0.00729443 6:0.00183318 7:0.249953 8:0.522456 9:0.710357 10:0.369106 11:0.766269 12:0.258575 13:0.746104 14:0.749676 15:0.134862 16:0.268163 17:0.11532 18:0.00091659 19:0.239683 20:0.117431 21:0.460128 22:0.0119157 23:1 24:0.0109991 25:0.989918 26:0.408208 27:0.480293 28:0.36549 29:0.744271 30:0.996334 31:0.99725 32:0.402449 33:0.523373 34:0.15822 35:0.145751 36:0.28306 37:0.47008 38:0.298308 
90.5096679919 1:0.371287 2:1 3:0.117086 4:0.43742 5:0.00414456 6:0.00330579 7:0.334458 8:0.538843 9:0.664463 10:0.821294 11:0.798347 12:0.254023 13:0.775207 14:0.746848 15:0.100993 16:0.227368 17:0.1393 18:0.00165289 19:0.288724 20:0.120861 21:0.373554 22:0.00661157 23:0.986777 24:0.00495868 25:1 26:0.292562 27:0.54876 28:0.396694 29:0.717355 30:0.990083 31:0.991736 32:0.420954 33:0.533884 34:0.0900779 35:0.206067 36:0.213674 37:0.469894 38:0.363636 
90.5096679919 1:0.736082 2:1 3:0.12058 4:0.314703 5:0.00657604 6:0.00413223 7:0.505715 8:0.512397 9:0.727273 10:0.607564 11:0.780992 12:0.30448 13:0.667355 14:0.762713 15:0.10352 16:0.30754 17:0.149012 18:0.00206612 19:0.177211 20:0.10559 21:0.487603 22:0.0433884 23:0.997934 24:0.00619835 25:1 26:0.267395 27:0.506198 28:0.470041 29:0.758264 30:0.931818 31:0.960744 32:0.523066 33:0.491736 34:0.0743876 35:0.173888 36:0.256494 37:0.404368 38:0.364388 
90.5096679919 1:0.737864 2:1 3:0.14228 4:0.300403 5:0.00419982 6:0.00649351 7:0.355631 8:0.314935 9:0.727273 10:0.753127 11:0.766234 12:0.293917 13:0.655844 14:0.808016 15:0.0912052 16:0.219975 17:0.250948 18:0.0162338 19:0.258098 20:0.114007 21:0.512987 22:0.00324675 23:0.996753 24:0.0324675 25:0.980519 26:0.284248 27:0.480519 28:0.434253 29:0.769481 30:1 31:0.993506 32:0.456421 33:0.545455 34:0.0936266 35:0.11866 36:0.249831 37:0.352505 38:0.466352 
81.10974814517213 1:0.42616 2:1 3:0.152553 4:0.331524 5:0.00558134 6:0.0126761 7:0.14006 8:0.514085 9:0.552113 10:0.680273 11:0.708451 12:0.200148 13:0.657746 14:0.792924 15:0.118477 16:0.361461 17:0.130108 18:0.00140845 19:0.185624 20:0.102962 21:0.36338 22:0.0056338 23:1 24:0.0169014 25:0.988732 26:0.3592 27:0.380282 28:0.401408 29:0.826761 30:0.987324 31:0.990141 32:0.433514 33:0.670423 34:0.130309 35:0.171267 36:0.391604 37:0.426559 38:0.348271 
90.5096679919 1:0.435754 2:1 3:0.128299 4:0.271569 5:0.00431034 6:0.00186567 7:0.137062 8:0.548507 9:0.690299 10:0.758692 11:0.759328 12:0.278869 13:0.804104 14:0.793411 15:0.123364 16:0.337076 17:0.191371 18:0.00932836 19:0.232223 20:0.0747664 21:0.445896 22:0.0261194 23:0.981343 24:0.00559701 25:1 26:0.347978 27:0.498134 28:0.45709 29:0.753731 30:0.983209 31:0.972015 32:0.423884 33:0.481343 34:0.105533 35:0.14753 36:0.212469 37:0.378465 38:0.339213 
90.5096679919 1:0.621429 2:1 3:0.124402 4:0.322004 5:0.00480769 6:0.00477327 7:0.410999 8:0.544153 9:0.448687 10:0.728562 11:0.792363 12:0.153247 13:0.718377 14:0.788209 15:0.136364 16:0.29645 17:0.118831 18:0.00238663 19:0.35698 20:0.105263 21:0.293556 22:0.0071599 23:0.997613 24:0.00954654 25:1 26:0.404265 27:0.582339 28:0.346062 29:0.811456 30:0.995227 31:0.9642 32:0.394138 33:0.451074 34:0.169454 35:0.130725 36:0.205685 37:0.494374 38:0.299414 
90.5096679919 1:0.339096 2:1 3:0.17472 4:0.365072 5:0.00469717 6:0.00399467 7:0.376335 8:0.508655 9:0.656458 10:0.661969 11:0.802929 12:0.176607 13:0.719041 14:0.777056 15:0.161333 16:0.307555 17:0.158137 18:0.0133156 19:0.324518 20:0.076 21:0.360852 22:0.00133156 23:0.996005 24:0.00266312 25:0.985353 26:0.468837 27:0.60719 28:0.402796 29:0.753662 30:0.998668 31:1 32:0.443968 33:0.500666 34:0.162879 35:0.121429 36:0.210386 37:0.351912 38:0.336521 
90.5096679919 1:0.629412 2:1 3:0.180157 4:0.288385 5:0.00591291 6:0.0157171 7:0.41128 8:0.56778 9:0.681729 10:0.730743 11:0.834971 12:0.171647 13:0.738703 14:0.834488 15:0.106299 16:0.387225 17:0.207529 18:0.00785855 19:0.454147 20:0.104331 21:0.418468 22:0.00589391 23:0.998035 24:0.00196464 25:1 26:0.340262 27:0.626719 28:0.40275 29:0.689587 30:0.97446 31:0.990177 32:0.385221 33:0.365422 34:0.111142 35:0.1235 36:0.217692 37:0.348021 38:0.464369 
90.5096679919 1:0.610825 2:1 3:0.0862176 4:0.368886 5:0.00436561 6:0.00258398 7:0.247236 8:0.465116 9:0.705426 10:0.793255 11:0.777778 12:0.255678 13:0.617571 14:0.726162 15:0.121762 16:0.294436 17:0.0945418 18:0.0258398 19:0.381092 20:0.124352 21:0.44186 22:0.0490956 23:1 24:0.0103359 25:0.98708 26:0.314745 27:0.550388 28:0.400517 29:0.803618 30:0.971576 31:0.979328 32:0.391957 33:0.395349 34:0.114356 35:0.220207 36:0.198832 37:0.494647 38:0.305379 
90.5096679919 1:0.125326 2:1 3:0.105704 4:0.33994 5:0.00972591 6:0.000474834 7:0.0430017 8:0.542735 9:0.763533 10:0.364844 11:0.749288 12:0.243915 13:0.780864 14:0.742338 15:0.120636 16:0.283934 17:0.108086 18:0.000712251 19:0.276891 20:0.0999763 21:0.480769 22:0.000237417 23:0.999763 24:0.000949668 25:0.999288 26:0.327597 27:0.507597 28:0.438925 29:0.710589 30:1 31:0.996676 32:0.4143 33:0.47792 34:0.11677 35:0.203294 36:0.235302 37:0.462285 38:0.278425 
90.5096679919 1:0.363755 2:1 3:0.0951634 4:0.306487 5:0.00513926 6:0.00913838 7:0.484448 8:0.597911 9:0.569191 10:0.47503 11:0.776762 12:0.14429 13:0.733681 14:0.736086 15:0.103268 16:0.452968 17:0.108658 18:0.00261097 19:0.293584 20:0.0888889 21:0.317232 22:0.00391645 23:0.988251 24:0.00130548 25:1 26:0.367725 27:0.583551 28:0.383486 29:0.657963 30:0.992167 31:0.998695 32:0.287584 33:0.385117 34:0.17713 35:0.154762 36:0.223678 37:0.499814 38:0.272965 
90.5096679919 1:0.233577 2:1 3:0.122054 4:0.326677 5:0.00176835 6:0.00487805 7:0.53204 8:0.456098 9:0.809756 10:0.332552 11:0.819512 12:0.238768 13:0.680488 14:0.786495 15:0.134474 16:0.267904 17:0.138795 18:0.00243902 19:0.313793 20:0.117359 21:0.470732 22:0.0195122 23:0.997561 24:0.00731707 25:0.990244 26:0.385287 27:0.595122 28:0.353659 29:0.678049 30:0.970732 31:1 32:0.353562 33:0.373171 34:0.133025 35:0.116282 36:0.167659 37:0.477352 38:0.32816 
90.5096679919 1:0.298992 2:1 3:0.116723 4:0.34066 5:0.00491821 6:0.00336323 7:0.0805696 8:0.488789 9:0.711883 10:0.692217 11:0.737668 12:0.247817 13:0.682735 14:0.771445 15:0.13468 16:0.26009 17:0.131974 18:0.00112108 19:0.235697 20:0.112233 21:0.44843 22:0.00224215 23:0.991031 24:0.0044843 25:1 26:0.352054 27:0.539238 28:0.410594 29:0.779148 30:0.996637 31:0.997758 32:0.403851 33:0.516816 34:0.126734 35:0.118112 36:0.284098 37:0.414798 38:0.356706 
6.367710074572268 1:0.534104 2:1 3:0.190406 4:0.455051 5:0.00851017 6:0.025463 7:0.11158 8:0.517361 9:0.641204 10:0.609319 11:0.789352 12:0.238791 13:0.685185 14:0.795824 15:0.128621 16:0.349312 17:0.148002 18:0.00115741 19:0.165855 20:0.104287 21:0.439815 22:0.0185185 23:1 24:0.0162037 25:0.996528 26:0.414128 27:0.430556 28:0.376157 29:0.790509 30:0.990741 31:0.998843 32:0.361601 33:0.578704 34:0.126088 35:0.132497 36:0.292118 37:0.390212 38:0.378788 
90.5096679919 1:0.270588 2:1 3:0.141756 4:0.295963 5:0.003813 6:0.0196335 7:0.104366 8:0.520942 9:0.679319 10:0.680771 11:0.801047 12:0.217691 13:0.748691 14:0.762464 15:0.133683 16:0.292916 17:0.160757 18:0.0013089 19:0.247803 20:0.0904325 21:0.413613 22:0.0039267 23:0.997382 24:0.052356 25:0.98822 26:0.39609 27:0.5 28:0.41394 29:0.735602 30:1 31:0.998691 32:0.502794 33:0.531414 34:0.139923 35:0.145884 36:0.28738 37:0.385191 38:0.347454 
90.5096679919 1:0.327892 2:1 3:0.136006 4:0.317313 5:0.00851017 6:0.00639205 7:0.293049 8:0.514205 9:0.768466 10:0.75129 11:0.760653 12:0.242972 13:0.735795 14:0.72609 15:0.146411 16:0.252992 17:0.125361 18:0.000710227 19:0.290467 20:0.120114 21:0.466619 22:0.00142045 23:1 24:0.0142045 25:0.997159 26:0.420386 27:0.506392 28:0.395952 29:0.735085 30:0.99858 31:0.99929 32:0.395681 33:0.509233 34:0.138624 35:0.145277 36:0.223703 37:0.403815 38:0.326705 
90.5096679919 1:0.546174 2:1 3:0.200847 4:0.294453 5:0.00762599 6:0.001321 7:0.217351 8:0.420079 9:0.639366 10:0.665444 11:0.828269 12:0.335118 13:0.721268 14:0.801448 15:0.104497 16:0.234601 17:0.182358 18:0.0171731 19:0.25424 20:0.101852 21:0.505945 22:0.00528402 23:0.996037 24:0.00396301 25:1 26:0.389696 27:0.501982 28:0.39465 29:0.768824 30:0.998679 31:0.997358 32:0.519759 33:0.527081 34:0.0923351 35:0.115111 36:0.220916 37:0.343461 38:0.43473 
90.5096679919 1:0.581081 2:1 3:0.155294 4:0.322215 5:0.00475243 6:0.00451467 7:0.0659547 8:0.356659 9:0.616253 10:0.686353 11:0.819413 12:0.242367 13:0.58465 14:0.787318 15:0.108597 16:0.208554 17:0.112378 18:0.00225734 19:0.314029 20:0.149321 21:0.44921 22:0.00677201 23:1 24:0.020316 25:0.990971 26:0.339401 27:0.643341 28:0.3386 29:0.799097 30:0.993228 31:0.979684 32:0.430321 33:0.51693 34:0.13006 35:0.139652 36:0.247809 37:0.490164 38:0.377591 
90.5096679919 1:0.384689 2:1 3:0.135609 4:0.32473 5:0.00740495 6:0.00287356 7:0.200862 8:0.476054 9:0.686782 10:0.686073 11:0.732759 12:0.274249 13:0.756705 14:0.779328 15:0.123682 16:0.240905 17:0.140926 18:0.00383142 19:0.235445 20:0.130393 21:0.507663 22:0.00191571 23:0.997126 24:0.000957854 25:0.999042 26:0.39924 27:0.450192 28:0.380747 29:0.792146 30:1 31:0.992337 32:0.435993 33:0.552682 34:0.124997 35:0.131945 36:0.31644 37:0.411877 38:0.35876 
90.5096679919 1:0.355685 2:1 3:0.153924 4:0.372704 5:0.00674182 6:0.00194553 7:0.124602 8:0.444553 9:0.747082 10:0.386876 11:0.758755 12:0.198648 13:0.719844 14:0.771727 15:0.138267 16:0.260632 17:0.156941 18:0.00875486 19:0.297106 20:0.0925024 21:0.463035 22:0.000972763 23:0.999027 24:0.00389105 25:1 26:0.407305 27:0.509728 28:0.403696 29:0.761673 30:0.991245 31:0.997082 32:0.424721 33:0.547665 34:0.134941 35:0.142869 36:0.281444 37:0.386326 38:0.350195 
90.5096679919 1:0.455235 2:1 3:0.148798 4:0.318869 5:0.00552608 6:0.0410334 7:0.498595 8:0.424012 9:0.75228 10:0.665598 11:0.75076 12:0.236762 13:0.735562 14:0.721272 15:0.155251 16:0.207494 17:0.134234 18:0.00151976 19:0.275006 20:0.0989346 21:0.463526 22:0.00303951 23:0.986322 24:0.0319149 25:1 26:0.436759 27:0.484802 28:0.398936 29:0.759878 30:0.987842 31:0.99848 32:0.441614 33:0.544073 34:0.132811 35:0.124755 36:0.300932 37:0.388624 38:0.326057 
90.5096679919 1:0.121622 2:1 3:0.141871 4:0.257378 5:0.00397878 6:0.00056338 7:0.0748548 8:0.493521 9:0.833239 10:0.754312 11:0.742535 12:0.2894 13:0.677746 14:0.758437 15:0.124014 16:0.237697 17:0.129141 18:0.00225352 19:0.274606 20:0.127959 21:0.574085 22:0.00112676 23:0.999437 24:0.00338028 25:0.997746 26:0.372067 27:0.510423 28:0.371127 29:0.731268 30:0.992676 31:1 32:0.366178 33:0.455211 34:0.134829 35:0.1677 36:0.217911 37:0.456338 38:0.342125 
90.5096679919 1:0.397695 2:1 3:0.0844058 4:0.282165 5:0.002542 6:0.0202312 7:0.254918 8:0.442197 9:0.702312 10:0.444167 11:0.797688 12:0.179495 13:0.641618 14:0.764491 15:0.0985507 16:0.311525 17:0.141036 18:0.00289017 19:0.311375 20:0.127536 21:0.433526 22:0.0375723 23:0.976879 24:0.00867052 25:1 26:0.297035 27:0.549133 28:0.426301 29:0.742775 30:0.99422 31:0.99711 32:0.378222 33:0.520231 34:0.121996 35:0.158385 36:0.263907 37:0.433526 38:0.362585 
90.5096679919 1:0.267255 2:1 3:0.0936334 4:0.378995 5:0.00613395 6:0.00160643 7:0.105584 8:0.571084 9:0.751004 10:0.632962 11:0.753414 12:0.292539 13:0.743775 14:0.738097 15:0.107717 16:0.296833 17:0.152381 18:0.00240964 19:0.281448 20:0.106913 21:0.547791 22:0.000803213 23:0.995984 24:0.00722892 25:1 26:0.324083 27:0.497189 28:0.426707 29:0.748594 30:0.99759 31:0.999197 32:0.289021 33:0.436948 34:0.138634 35:0.152111 36:0.212611 37:0.441767 38:0.325666 
90.5096679919 1:0.355623 2:1 3:0.141482 4:0.360738 5:0.00646552 6:0.00507099 7:0.188308 8:0.503043 9:0.728195 10:0.729467 11:0.786004 12:0.254083 13:0.709939 14:0.794038 15:0.129949 16:0.229047 17:0.131729 18:0.0010142 19:0.317188 20:0.0944162 21:0.517241 22:0.0040568 23:1 24:0.0141988 25:0.998986 26:0.440097 27:0.595335 28:0.395538 29:0.739351 30:0.993915 31:0.997972 32:0.308496 33:0.426978 34:0.156327 35:0.131496 36:0.245568 37:0.408577 38:0.302416 
90.5096679919 1:0.729452 2:1 3:0.103643 4:0.305999 5:0.00784704 6:0.00343053 7:0.527825 8:0.555746 9:0.740995 10:0.37914 11:0.744425 12:0.341248 13:0.787307 14:0.742674 15:0.140893 16:0.244752 17:0.151532 18:0.0188679 19:0.30859 20:0.123711 21:0.536878 22:0.00171527 23:0.998285 24:0.0154374 25:1 26:0.437448 27:0.506003 28:0.379503 29:0.696398 30:0.996569 31:0.955403 32:0.383715 33:0.425386 34:0.148162 35:0.123445 36:0.184781 37:0.382259 38:0.361765 
90.5096679919 1:0.402439 2:1 3:0.147843 4:0.228008 5:0.00303935 6:0.00488998 7:0.175567 8:0.511002 9:0.777506 10:0.727847 11:0.760391 12:0.200746 13:0.713936 14:0.738238 15:0.159314 16:0.301188 17:0.121743 18:0.00244499 19:0.301773 20:0.112745 21:0.486553 22:0.00733496 23:1 24:0.0122249 25:0.99511 26:0.460683 27:0.459658 28:0.354523 29:0.743276 30:0.997555 31:0.992665 32:0.399366 33:0.537897 34:0.150963 35:0.121528 36:0.210713 37:0.426126 38:0.320071 
90.5096679919 1:0.394161 2:1 3:0.152269 4:0.320219 5:0.00497347 6:0.00438596 7:0.147086 8:0.516082 9:0.72076 10:0.568549 11:0.719298 12:0.240074 13:0.688596 14:0.762043 15:0.139092 16:0.339181 17:0.157324 18:0.00292398 19:0.26914 20:0.0878477 21:0.409357 22:0.00146199 23:0.997076 24:0.0190058 25:1 26:0.397897 27:0.498538 28:0.405702 29:0.809942 30:0.99269 31:0.995614 32:0.450907 33:0.596491 34:0.130761 35:0.134822 36:0.242994 37:0.392648 38:0.348219 
90.5096679919 1:0.299862 2:1 3:0.19855 4:0.345067 5:0.0120469 6:0.000917431 7:0.304853 8:0.549083 9:0.701835 10:0.759805 11:0.775688 12:0.234186 13:0.779358 14:0.793965 15:0.137678 16:0.286303 17:0.138168 18:0.00183486 19:0.277328 20:0.112437 21:0.488073 22:0.000458716 23:1 24:0.00137615 25:0.996789 26:0.439139 27:0.522018 28:0.368693 29:0.715138 30:0.999541 31:0.998624 32:0.463109 33:0.465596 34:0.131911 35:0.127707 36:0.232491 37:0.358453 38:0.406172 
90.5096679919 1:0.639148 2:1 3:0.152737 4:0.407392 5:0.00884173 6:0.00266667 7:0.23131 8:0.616 9:0.624 10:0.736859 11:0.764 12:0.21193 13:0.82 14:0.797598 15:0.110814 16:0.265534 17:0.166469 18:0.00133333 19:0.319372 20:0.11215 21:0.396 22:0.004 23:0.996 24:0.008 25:1 26:0.380645 27:0.521333 28:0.366667 29:0.782667 30:0.998667 31:0.977333 32:0.418814 33:0.482667 34:0.143909 35:0.140505 36:0.232554 37:0.394286 38:0.419394 
90.5096679919 1:0.253102 2:1 3:0.108657 4:0.384291 5:0.00375774 6:0.00496894 7:0.16929 8:0.489441 9:0.69441 10:0.341501 11:0.678261 12:0.317751 13:0.688199 14:0.763299 15:0.123134 16:0.300951 17:0.136168 18:0.00248447 19:0.209195 20:0.0858209 21:0.467081 22:0.0161491 23:0.996273 24:0.00124224 25:1 26:0.36646 27:0.427329 28:0.408385 29:0.831056 30:0.998758 31:0.997516 32:0.30547 33:0.619876 34:0.149386 35:0.152289 36:0.312253 37:0.44898 38:0.302654 
90.5096679919 1:0.399725 2:1 3:0.166171 4:0.383549 5:0.0053603 6:0.00137552 7:0.213135 8:0.492435 9:0.694635 10:0.867819 11:0.822558 12:0.301166 13:0.69326 14:0.744302 15:0.134986 16:0.214629 17:0.167553 18:0.00550206 19:0.241711 20:0.106061 21:0.456671 22:0.00275103 23:1 24:0.00412655 25:0.997249 26:0.382216 27:0.489684 28:0.421252 29:0.770289 30:0.977992 31:0.995873 32:0.44367 33:0.543329 34:0.11029 35:0.112898 36:0.297772 37:0.351739 38:0.392647 
90.5096679919 1:0.212963 2:1 3:0.135232 4:0.336686 5:0.002542 6:0.0123648 7:0.200019 8:0.51932 9:0.629057 10:0.356719 11:0.774343 12:0.174083 13:0.721793 14:0.764481 15:0.120743 16:0.322086 17:0.0863056 18:0.0015456 19:0.245732 20:0.116099 21:0.369397 22:0.00927357 23:1 24:0.0108192 25:0.998454 26:0.453009 27:0.537867 28:0.305255 29:0.758887 30:0.996909 31:0.995363 32:0.388026 33:0.496136 34:0.209759 35:0.14411 36:0.306048 37:0.523294 38:0.275397 
66.08343542081532 1:0.688995 2:1 3:0.190918 4:0.423597 5:0.00265252 6:0.00961538 7:0.325276 8:0.423077 9:0.788462 10:0.463096 11:0.822115 12:0.177126 13:0.591346 14:0.770808 15:0.111111 16:0.276378 17:0.0881477 18:0.00480769 19:0.392241 20:0.130435 21:0.326923 22:0.0144231 23:0.995192 24:0.0192308 25:1 26:0.558158 27:0.581731 28:0.264423 29:0.8125 30:0.860577 31:0.966346 32:0.350432 33:0.634615 34:0.247959 35:0.141764 36:0.177572 37:0.467033 38:0.305944 
90.5096679919 1:0.379518 2:1 3:0.109379 4:0.270704 5:0.00812334 6:0.00172265 7:0.130785 8:0.48062 9:0.72093 10:0.637287 11:0.776055 12:0.294664 13:0.697674 14:0.759271 15:0.137069 16:0.24669 17:0.156424 18:0.00258398 19:0.210817 20:0.0991379 21:0.497847 22:0.0163652 23:0.998277 24:0.000861326 25:1 26:0.401628 27:0.505599 28:0.38652 29:0.788975 30:0.994832 31:0.996555 32:0.481401 33:0.515935 34:0.154867 35:0.115148 36:0.265993 37:0.424511 38:0.332002 
90.5096679919 1:0.186335 2:1 3:0.187718 4:0.353832 5:0.00331565 6:0.00207254 7:0.113266 8:0.492228 9:0.653886 10:0.352014 11:0.830052 12:0.205072 13:0.729534 14:0.766868 15:0.129668 16:0.242542 17:0.166146 18:0.00103627 19:0.333846 20:0.063278 21:0.396891 22:0.00829016 23:1 24:0.00414508 25:0.993782 26:0.408257 27:0.590674 28:0.455959 29:0.759585 30:0.997927 31:0.987565 32:0.548673 33:0.499482 34:0.109683 35:0.13541 36:0.311513 37:0.325685 38:0.350447 
90.5096679919 1:0.323129 2:1 3:0.174909 4:0.398082 5:0.00524978 6:0.0102157 7:0.119824 8:0.547106 9:0.648127 10:0.867647 11:0.757094 12:0.272418 13:0.692395 14:0.75169 15:0.114773 16:0.30645 17:0.175093 18:0.00113507 19:0.242201 20:0.0931818 21:0.379115 22:0.0227015 23:0.998865 24:0.0045403 25:1 26:0.369412 27:0.549376 28:0.407208 29:0.796822 30:0.986379 31:0.996595 32:0.388693 33:0.528944 34:0.11782 35:0.124188 36:0.230582 37:0.363224 38:0.41069 
90.5096679919 1:0.331707 2:1 3:0.0984013 4:0.379914 5:0.00375774 6:0.00162866 7:0.361345 8:0.333876 9:0.71987 10:0.674492 11:0.76873 12:0.392594 13:0.736156 14:0.684426 15:0.133768 16:0.208988 17:0.150484 18:0.00325733 19:0.160133 20:0.0783034 21:0.469055 22:0.0179153 23:1 24:0.0260586 25:0.996743 26:0.337869 27:0.343648 28:0.441775 29:0.7557 30:0.988599 31:0.993485 32:0.502228 33:0.583062 34:0.1122 35:0.158471 36:0.394348 37:0.404839 38:0.337578 
90.5096679919 1:0.488372 2:1 3:0.127607 4:0.324258 5:0.00734969 6:0.00735294 7:0.226625 8:0.546569 9:0.740196 10:0.437047 11:0.685049 12:0.263158 13:0.726716 14:0.76119 15:0.120245 16:0.330861 17:0.133087 18:0.00122549 19:0.192275 20:0.123926 21:0.47549 22:0.0134804 23:1 24:0.00490196 25:0.993873 26:0.384843 27:0.404412 28:0.355392 29:0.810049 30:0.997549 31:0.998775 32:0.42345 33:0.595588 34:0.153667 35:0.125402 36:0.294213 37:0.465686 38:0.340909 
90.5096679919 1:0.378004 2:1 3:0.160817 4:0.31493 5:0.00956012 6:0.00291545 7:0.172944 8:0.526239 9:0.695335 10:0.56018 11:0.797376 12:0.236305 13:0.774781 14:0.780624 15:0.136397 16:0.267112 17:0.166362 18:0.00145773 19:0.205841 20:0.0940919 21:0.448251 22:0.000728863 23:0.997813 24:0.00947522 25:1 26:0.403673 27:0.55102 28:0.411808 29:0.717201 30:0.999271 31:0.991254 32:0.516256 33:0.508746 34:0.139269 35:0.113664 36:0.302857 37:0.360267 38:0.375033 
90.5096679919 1:0.651316 2:1 3:0.09163 4:0.34735 5:0.00547082 6:0.0043956 7:0.111673 8:0.402198 9:0.69011 10:0.593042 11:0.797802 12:0.333141 13:0.641758 14:0.724289 15:0.110132 16:0.196285 17:0.118339 18:0.00879121 19:0.34023 20:0.123348 21:0.525275 22:0.0021978 23:0.973626 24:0.0263736 25:0.995604 26:0.313719 27:0.575824 28:0.39011 29:0.773626 30:1 31:0.986813 32:0.376072 33:0.459341 34:0.110795 35:0.171623 36:0.191665 37:0.486656 38:0.331668 
90.5096679919 1:0.384334 2:1 3:0.128094 4:0.34507 5:0.00967065 6:0.00586081 7:0.100431 8:0.492308 9:0.717949 10:0.623877 11:0.751648 12:0.259109 13:0.720879 14:0.792105 15:0.121701 16:0.250433 17:0.145663 18:0.000732601 19:0.289655 20:0.138563 21:0.479853 22:0.0124542 23:0.99707 24:0.0014652 25:1 26:0.389011 27:0.504029 28:0.360806 29:0.775824 30:0.999267 31:0.986813 32:0.35579 33:0.517949 34:0.153531 35:0.120182 36:0.212711 37:0.415489 38:0.39294 
90.5096679919 1:0.595611 2:1 3:0.100188 4:0.318316 5:0.0104996 6:0.00104603 7:0.219693 8:0.497908 9:0.688285 10:0.666149 11:0.767782 12:0.204801 13:0.694561 14:0.765427 15:0.114136 16:0.304958 17:0.110392 18:0.00627615 19:0.228671 20:0.165445 21:0.435146 22:0.0271967 23:0.995816 24:0.00209205 25:1 26:0.376265 27:0.42364 28:0.321653 29:0.787657 30:0.986402 31:0.993724 32:0.340475 33:0.619247 34:0.174137 35:0.105959 36:0.367033 37:0.475194 38:0.386078 
90.5096679919 1:0.293194 2:1 3:0.13689 4:0.341425 5:0.00928382 6:0.00116414 7:0.125913 8:0.577416 9:0.720023 10:0.66643 11:0.778813 12:0.219962 13:0.789872 14:0.756811 15:0.120559 16:0.298763 17:0.144645 18:0.00291036 19:0.327553 20:0.106581 21:0.46915 22:0.00174622 23:0.990105 24:0.000582072 25:1 26:0.401029 27:0.546566 28:0.393626 29:0.681607 30:0.995925 31:0.996508 32:0.37854 33:0.430733 34:0.155447 35:0.154998 36:0.209017 37:0.409114 38:0.341835 
90.5096679919 1:0.225679 2:1 3:0.13427 4:0.340657 5:0.00734969 6:0.000565931 7:0.0613641 8:0.591964 9:0.715337 10:0.499975 11:0.786644 12:0.217437 13:0.791171 14:0.754503 15:0.121178 16:0.309649 17:0.14178 18:0.00792303 19:0.325573 20:0.101359 21:0.45614 22:0.00679117 23:0.99717 24:0.00565931 25:0.998868 26:0.407142 27:0.550085 28:0.403226 29:0.675156 30:1 31:0.988681 32:0.363792 33:0.432937 34:0.158691 35:0.152416 36:0.207866 37:0.405045 38:0.327211 
90.5096679919 1:0.496296 2:1 3:0.12099 4:0.303946 5:0.00740495 6:0.00247219 7:0.111954 8:0.508035 9:0.704574 10:0.73628 11:0.756489 12:0.257628 13:0.718171 14:0.790211 15:0.116337 16:0.291849 17:0.121694 18:0.00741656 19:0.218504 20:0.118812 21:0.49691 22:0.0173053 23:0.99382 24:0.00123609 25:1 26:0.388173 27:0.447466 28:0.361557 29:0.809642 30:0.987639 31:0.992583 32:0.383719 33:0.537701 34:0.161351 35:0.166564 36:0.298027 37:0.476779 38:0.314642 
90.5096679919 1:0.396117 2:1 3:0.109474 4:0.278644 5:0.00375774 6:0.00194553 7:0.522578 8:0.447471 9:0.593385 10:0.505006 11:0.807393 12:0.212984 13:0.649805 14:0.705364 15:0.0779727 16:0.333528 17:0.175866 18:0.0077821 19:0.201462 20:0.0896686 21:0.38716 22:0.0175097 23:1 24:0.040856 25:0.992218 26:0.292519 27:0.449416 28:0.474222 29:0.772374 30:0.990272 31:0.945525 32:0.565286 33:0.601167 34:0.132071 35:0.169637 36:0.301405 37:0.391884 38:0.350195 
90.5096679919 1:0.398919 2:1 3:0.153239 4:0.314987 5:0.00679708 6:0.00865801 7:0.155424 8:0.457792 9:0.691558 10:0.678807 11:0.741342 12:0.193666 13:0.700216 14:0.792546 15:0.11701 16:0.254415 17:0.124104 18:0.00757576 19:0.25357 20:0.114843 21:0.469697 22:0.0021645 23:1 24:0.00108225 25:0.998918 26:0.399595 27:0.498918 28:0.367965 29:0.806277 30:0.993506 31:0.997835 32:0.393781 33:0.566017 34:0.140136 35:0.1491 36:0.325336 37:0.42517 38:0.360094 
90.5096679919 1:0.363636 2:1 3:0.127347 4:0.326502 5:0.00132626 6:0.00507614 7:0.279277 8:0.451777 9:0.761421 10:0.481924 11:0.781726 12:0.283195 13:0.746193 14:0.841961 15:0.132653 16:0.302233 17:0.165502 18:0.0253807 19:0.292024 20:0.142857 21:0.497462 22:0.0152284 23:0.994924 24:0.0304569 25:0.954315 26:0.36712 27:0.522843 28:0.380711 29:0.685279 30:1 31:0.979695 32:0.445989 33:0.482234 34:0.10475 35:0.108418 36:0.223944 37:0.326323 38:0.498385 
90.5096679919 1:0.365363 2:1 3:0.109474 4:0.293851 5:0.00602343 6:0.00223714 7:0.267379 8:0.451902 9:0.659955 10:0.378606 11:0.772931 12:0.229601 13:0.719239 14:0.756247 15:0.0951848 16:0.296252 17:0.106705 18:0.0100671 19:0.243359 20:0.133259 21:0.493289 22:0.00111857 23:0.996644 24:0.0033557 25:1 26:0.359782 27:0.49217 28:0.321588 29:0.771812 30:0.989933 31:0.985459 32:0.327441 33:0.559284 34:0.166685 35:0.163174 36:0.258215 37:0.541707 38:0.317267 
90.5096679919 1:0.297748 2:1 3:0.128588 4:0.311983 5:0.00657604 6:0.00500835 7:0.129942 8:0.464107 9:0.742905 10:0.679966 11:0.755426 12:0.298744 13:0.655259 14:0.763864 15:0.130326 16:0.226218 17:0.123642 18:0.000834725 19:0.178113 20:0.0793651 21:0.511686 22:0.00250417 23:0.999165 24:0.00166945 25:0.989149 26:0.430529 27:0.520868 28:0.388147 29:0.827212 30:0.994992 31:1 32:0.419958 33:0.508347 34:0.161229 35:0.121733 36:0.298886 37:0.437634 38:0.285324 
90.5096679919 1:0.630162 2:1 3:0.146162 4:0.391871 5:0.00646552 6:0.0143885 7:0.192243 8:0.444245 9:0.667266 10:0.650759 11:0.751799 12:0.248012 13:0.683453 14:0.773787 15:0.120721 16:0.192016 17:0.169863 18:0.00179856 19:0.301001 20:0.0828829 21:0.442446 22:0.00719424 23:1 24:0.0125899 25:0.980216 26:0.379961 27:0.521583 28:0.415917 29:0.789568 30:0.978417 31:0.996403 32:0.400011 33:0.566547 34:0.144272 35:0.120335 36:0.252803 37:0.372559 38:0.376063 
21.19650722618702 1:0.830189 2:1 3:0.177722 4:0.354812 5:0.00486295 6:0.022082 7:0.486228 8:0.504732 9:0.728707 10:0.373974 11:0.719243 12:0.358625 13:0.760252 14:0.806737 15:0.196203 16:0.265543 17:0.115485 18:0.00630915 19:0.145183 20:0.085443 21:0.498423 22:0.00315457 23:0.996845 24:0.0567823 25:0.987382 26:0.498321 27:0.416404 28:0.378549 29:0.776025 30:1 31:0.984227 32:0.492947 33:0.539432 34:0.162429 35:0.134494 36:0.307469 37:0.387562 38:0.298251 
90.5096679919 1:0.774481 2:1 3:0.155224 4:0.281396 5:0.00480769 6:0.0625 7:0.378865 8:0.535714 9:0.717262 10:0.483472 11:0.702381 12:0.272556 13:0.764881 14:0.70169 15:0.158209 16:0.296355 17:0.0635453 18:0.00892857 19:0.177443 20:0.0925373 21:0.529762 22:0.00595238 23:0.997024 24:0.00297619 25:1 26:0.521121 27:0.479167 28:0.349702 29:0.815476 30:0.991071 31:0.994048 32:0.459122 33:0.458333 34:0.186924 35:0.126866 36:0.31451 37:0.446429 38:0.243506 
90.5096679919 1:0.360534 2:1 3:0.117619 4:0.390005 5:0.00447613 6:0.00742942 7:0.0979014 8:0.509658 9:0.742942 10:0.667235 11:0.729569 12:0.231485 13:0.728083 14:0.760711 15:0.126488 16:0.285237 17:0.113136 18:0.00297177 19:0.296852 20:0.0922619 21:0.496285 22:0.00445765 23:0.998514 24:0.00148588 25:0.992571 26:0.381776 27:0.534918 28:0.38633 29:0.781575 30:0.991085 31:1 32:0.31646 33:0.447251 34:0.172619 35:0.156604 36:0.189035 37:0.477606 38:0.283669 
35.45304659737651 1:1 3:0.131646 4:0.438465 5:0.00149204 6:0.025 7:0.605958 8:0.575 9:0.8625 10:0.410527 11:0.75 12:0.315789 13:0.7125 14:0.859278 15:0.0506329 16:0.230973 17:0.0641581 18:0.0125 19:0.22227 20:0.126582 21:0.4625 22:0.0375 23:0.9625 24:0.0875 25:1 26:0.547177 27:0.55 28:0.203125 29:0.6 30:0.9375 31:0.9875 32:0.294635 33:0.4875 34:0.259886 35:0.0896624 36:0.38474 37:0.517857 38:0.340909 
90.5096679919 1:0.591549 2:1 3:0.147518 4:0.32729 5:0.00309461 6:0.00706714 7:0.318437 8:0.54417 9:0.773852 10:0.742152 11:0.777385 12:0.130184 13:0.759717 14:0.679882 15:0.117021 16:0.337346 17:0.122219 18:0.0459364 19:0.354819 20:0.102837 21:0.363958 22:0.0282686 23:0.996466 24:0.00353357 25:0.982332 26:0.39006 27:0.607774 28:0.379859 29:0.685512 30:1 31:0.989399 32:0.376898 33:0.452297 34:0.127409 35:0.125591 36:0.181267 37:0.434124 38:0.340508 
90.5096679919 1:0.179771 2:1 3:0.144915 4:0.258172 5:0.00956012 6:0.002079 7:0.35207 8:0.522869 9:0.725572 10:0.360338 11:0.72869 12:0.220301 13:0.772349 14:0.755119 15:0.136568 16:0.252191 17:0.145467 18:0.0010395 19:0.259863 20:0.119584 21:0.483714 22:0.000693001 23:1 24:0.0003465 25:0.997921 26:0.418762 27:0.470547 28:0.369456 29:0.765419 30:0.99896 31:0.999307 32:0.444042 33:0.521483 34:0.145532 35:0.110836 36:0.276935 37:0.40392 38:0.36666 
90.5096679919 1:0.424615 2:1 3:0.150864 4:0.377593 5:0.005084 6:0.00616333 7:0.179033 8:0.456086 9:0.59322 10:0.867873 11:0.802773 12:0.231936 13:0.707242 14:0.783404 15:0.112654 16:0.29104 17:0.184593 18:0.00770416 19:0.283655 20:0.125 21:0.392912 22:0.00154083 23:1 24:0.00308166 25:0.998459 26:0.346041 27:0.608629 28:0.406394 29:0.819723 30:0.987673 31:0.993837 32:0.420118 33:0.553159 34:0.10614 35:0.132734 36:0.251356 37:0.365397 38:0.431433 
90.5096679919 1:0.239425 2:1 3:0.133014 4:0.384004 5:0.00552608 6:0.00159744 7:0.200393 8:0.527955 9:0.670927 10:0.793924 11:0.813099 12:0.195897 13:0.734824 14:0.774654 15:0.136691 16:0.264017 17:0.168545 18:0.000798722 19:0.289899 20:0.0967226 21:0.345048 22:0.00559105 23:0.999201 24:0.00638978 25:1 26:0.372436 27:0.60623 28:0.446286 29:0.758786 30:0.997604 31:0.992013 32:0.429325 33:0.500799 34:0.114061 35:0.138318 36:0.317134 37:0.352579 38:0.364508 
58.75284445611129 1:0.641079 2:1 3:0.186333 4:0.25071 5:0.00569187 6:0.004158 7:0.569983 8:0.476091 9:0.70894 10:0.817693 11:0.785863 12:0.196958 13:0.698545 14:0.827687 15:0.147917 16:0.300922 17:0.0929224 18:0.002079 19:0.217459 20:0.06875 21:0.444906 22:0.00623701 23:1 24:0.014553 25:0.987526 26:0.672658 27:0.538462 28:0.319647 29:0.794179 30:0.993763 31:0.952183 32:0.404551 33:0.557173 34:0.224558 35:0.0737847 36:0.230364 37:0.35046 38:0.2646 
90.5096679919 1:0.416141 2:1 3:0.118331 4:0.306819 5:0.00607869 6:0.0214646 7:0.314315 8:0.515152 9:0.631313 10:0.629261 11:0.729798 12:0.269803 13:0.734848 14:0.709125 15:0.127686 16:0.287745 17:0.0961155 18:0.00252525 19:0.19414 20:0.118837 21:0.435606 22:0.00505051 23:1 24:0.00126263 25:0.996212 26:0.379684 27:0.450758 28:0.366162 29:0.814394 30:0.97096 31:0.998737 32:0.43832 33:0.583333 34:0.147948 35:0.186774 36:0.330333 37:0.505051 38:0.280073 
90.5096679919 1:0.219842 2:1 3:0.111512 4:0.389616 5:0.00718391 6:0.00112803 7:0.049466 8:0.496334 9:0.700508 10:0.707128 11:0.769882 12:0.203639 13:0.733785 14:0.757269 15:0.134876 16:0.258808 17:0.129287 18:0.000564016 19:0.254857 20:0.0981941 21:0.434292 22:0.00169205 23:1 24:0.00225606 25:0.998872 26:0.399323 27:0.518895 28:0.398336 29:0.774394 30:0.999436 31:0.99718 32:0.401548 33:0.50705 34:0.157574 35:0.147903 36:0.296277 37:0.432681 38:0.306619 
90.5096679919 1:0.341207 2:1 3:0.120316 4:0.389616 5:0.00718391 6:0.00175131 7:0.044688 8:0.485114 9:0.677758 10:0.707128 11:0.71366 12:0.214766 13:0.749562 14:0.733062 15:0.142857 16:0.287649 17:0.14126 18:0.00350263 19:0.228063 20:0.0911481 21:0.43345 22:0.00262697 23:0.996497 24:0.000875657 25:1 26:0.401644 27:0.464098 28:0.40937 29:0.781961 30:0.998249 31:0.989492 32:0.401548 33:0.56042 34:0.154747 35:0.127708 36:0.308152 37:0.409057 38:0.318421 
90.5096679919 1:0.174565 2:1 3:0.0886967 4:0.286874 5:0.0053603 6:0.00360144 7:0.0779464 8:0.460984 9:0.761705 10:0.66415 11:0.791717 12:0.214191 13:0.732293 14:0.722096 15:0.15015 16:0.278511 17:0.129072 18:0.00060024 19:0.276876 20:0.0966967 21:0.496399 22:0.00120048 23:1 24:0.00180072 25:0.997599 26:0.389556 27:0.542017 28:0.436675 29:0.714886 30:0.9994 31:0.9988 32:0.508848 33:0.504802 34:0.143655 35:0.153761 36:0.230321 37:0.415881 38:0.281567 
90.5096679919 1:0.334099 2:1 3:0.14122 4:0.267108 5:0.0053603 6:0.00229885 7:0.433296 8:0.555172 9:0.712644 10:0.718564 11:0.751724 12:0.214156 13:0.8 14:0.816041 15:0.133487 16:0.238348 17:0.10032 18:0.00114943 19:0.270511 20:0.0943613 21:0.403448 22:0.00344828 23:0.993103 24:0.00574713 25:1 26:0.398146 27:0.487356 28:0.403736 29:0.749425 30:0.998851 31:0.997701 32:0.429743 33:0.508046 34:0.131124 35:0.183983 36:0.300717 37:0.431856 38:0.30094 
90.5096679919 1:0.508584 2:1 3:0.127484 4:0.264133 5:0.00873121 6:0.00107411 7:0.037849 8:0.561762 9:0.657358 10:0.820634 11:0.808808 12:0.20917 13:0.707841 14:0.762768 15:0.0956989 16:0.404665 17:0.0980999 18:0.00429646 19:0.211218 20:0.127957 21:0.41783 22:0.00214823 23:1 24:0.0150376 25:0.998926 26:0.380236 27:0.450054 28:0.353115 29:0.794844 30:0.997852 31:0.994629 32:0.358075 33:0.564984 34:0.139081 35:0.145801 36:0.275503 37:0.47261 38:0.339811 
90.5096679919 1:0.20241 2:1 3:0.125604 4:0.325479 5:0.00309461 6:0.00120627 7:0.174724 8:0.535585 9:0.775633 10:0.376181 11:0.739445 12:0.194273 13:0.784077 14:0.787445 15:0.134058 16:0.29843 17:0.102839 18:0.00603136 19:0.281367 20:0.118357 21:0.513872 22:0.0193004 23:0.993969 24:0.00482509 25:0.997587 26:0.491303 27:0.494572 28:0.284982 29:0.717732 30:0.998794 31:1 32:0.290115 33:0.447527 34:0.231841 35:0.0806591 36:0.148513 37:0.511804 38:0.282926 
27.59278148216029 1:0.672414 2:1 3:0.096 4:0.28142 5:0.00646552 6:0.00191939 7:0.354413 8:0.514395 9:0.654511 10:0.667253 11:0.71785 12:0.222245 13:0.756238 14:0.741006 15:0.155769 16:0.360573 17:0.103319 18:0.00383877 19:0.216824 20:0.132692 21:0.380038 22:0.0364683 23:0.998081 24:0.00959693 25:0.988484 26:0.325119 27:0.441459 28:0.417466 29:0.800384 30:1 31:0.963532 32:0.469166 33:0.554702 34:0.0769912 35:0.206273 36:0.244186 37:0.466137 38:0.307102 
90.5096679919 1:0.324074 2:1 3:0.154551 4:0.352782 5:0.00386826 6:0.0015456 7:0.338954 8:0.476043 9:0.675425 10:0.68135 11:0.732612 12:0.211502 13:0.741886 14:0.775177 15:0.136223 16:0.211022 17:0.128674 18:0.00927357 19:0.310398 20:0.108359 21:0.414219 22:0.00463679 23:0.998454 24:0.00618238 25:1 26:0.438301 27:0.531685 28:0.347759 29:0.800618 30:0.98609 31:0.992272 32:0.404135 33:0.525502 34:0.146196 35:0.145677 36:0.264819 37:0.437183 38:0.337221 
24.08083682176482 1:0.639676 2:1 3:0.0562923 4:0.424054 5:0.00873121 6:0.0027027 7:0.284242 8:0.458108 9:0.57027 10:0.723359 11:0.689189 12:0.294452 13:0.764865 14:0.787663 15:0.101488 16:0.135948 17:0.148145 18:0.00135135 19:0.210609 20:0.169147 21:0.433784 22:0.00405405 23:0.995946 24:0.00810811 25:1 26:0.223758 27:0.421622 28:0.432432 29:0.837838 30:0.998649 31:0.948649 32:0.341128 33:0.678378 34:0.0708444 35:0.182115 36:0.36741 37:0.415058 38:0.447174 
90.5096679919 1:0.343731 2:1 3:0.146162 4:0.284927 5:0.0105548 6:0.00480192 7:0.287708 8:0.537815 9:0.72509 10:0.789084 11:0.801921 12:0.199027 13:0.741297 14:0.812317 15:0.0996997 16:0.29638 17:0.161948 18:0.00120048 19:0.330242 20:0.139339 21:0.417167 22:0.00060024 23:0.9994 24:0.00240096 25:0.9988 26:0.375847 27:0.521609 28:0.358643 29:0.737695 30:0.998199 31:1 32:0.459818 33:0.4994 34:0.146738 35:0.116688 36:0.21862 37:0.416738 38:0.407072 
90.5096679919 1:0.208103 2:1 3:0.13807 4:0.381231 5:0.00624447 6:0.00307125 7:0.156174 8:0.554668 9:0.683661 10:0.43531 11:0.763514 12:0.209492 13:0.756143 14:0.776632 15:0.129687 16:0.249701 17:0.126479 18:0.000614251 19:0.263422 20:0.12354 21:0.398649 22:0.00184275 23:1 24:0.00798526 25:0.988329 26:0.390465 27:0.492629 28:0.373925 29:0.748771 30:0.996314 31:0.999386 32:0.310109 33:0.517199 34:0.14701 35:0.134962 36:0.317623 37:0.43173 38:0.351798 
90.5096679919 1:0.394958 2:1 3:0.120636 4:0.327091 5:0.00779178 6:0.0130841 7:0.199644 8:0.534579 9:0.706542 10:0.379782 11:0.73271 12:0.307919 13:0.734579 14:0.78854 15:0.101964 16:0.254239 17:0.109999 18:0.00186916 19:0.222881 20:0.127222 21:0.449533 22:0.000934579 23:0.994393 24:0.0102804 25:0.999065 26:0.348628 27:0.469159 28:0.351636 29:0.825234 30:1 31:0.996262 32:0.349169 33:0.52243 34:0.149805 35:0.156187 36:0.285739 37:0.497997 38:0.339847 
90.5096679919 1:0.468654 2:1 3:0.139238 4:0.332513 5:0.00839965 6:0.00308642 7:0.23234 8:0.471193 9:0.717078 10:0.770047 11:0.694444 12:0.297812 13:0.692387 14:0.767353 15:0.121524 16:0.258749 17:0.160772 18:0.00205761 19:0.178634 20:0.106076 21:0.512346 22:0.0102881 23:1 24:0.00102881 25:0.997942 26:0.403359 27:0.446502 28:0.358796 29:0.82716 30:0.995885 31:0.996914 32:0.36702 33:0.56893 34:0.144837 35:0.122971 36:0.306103 37:0.393886 38:0.409652 
90.5096679919 1:0.436 2:1 3:0.15016 4:0.402731 5:0.00602343 6:0.00267023 7:0.13828 8:0.500668 9:0.76769 10:0.718085 11:0.786382 12:0.245942 13:0.695594 14:0.765715 15:0.129679 16:0.279594 17:0.121969 18:0.00400534 19:0.344935 20:0.11631 21:0.510013 22:0.00534045 23:1 24:0.00133511 25:0.998665 26:0.431974 27:0.575434 28:0.375501 29:0.728972 30:0.991989 31:0.99733 32:0.298349 33:0.397864 34:0.16057 35:0.135281 36:0.230125 37:0.413885 38:0.332565 
90.5096679919 1:0.729545 2:1 3:0.128219 4:0.298057 5:0.00591291 6:0.00455581 7:0.305977 8:0.519362 9:0.765376 10:0.684227 11:0.76082 12:0.242177 13:0.758542 14:0.763991 15:0.143836 16:0.266575 17:0.134234 18:0.0136674 19:0.297829 20:0.109589 21:0.492027 22:0.00683371 23:0.997722 24:0.0022779 25:0.984055 26:0.437872 27:0.523918 28:0.387244 29:0.726651 30:1 31:0.995444 32:0.405402 33:0.469248 34:0.178123 35:0.131686 36:0.205662 37:0.406769 38:0.318907 
90.5096679919 1:0.541401 2:1 3:0.155224 4:0.349322 5:0.00469717 6:0.00212766 7:0.206202 8:0.42766 9:0.7 10:0.63915 11:0.734043 12:0.163494 13:0.738298 14:0.720563 15:0.127932 16:0.257729 17:0.105909 18:0.00425532 19:0.278185 20:0.115139 21:0.442553 22:0.0212766 23:1 24:0.00851064 25:0.997872 26:0.384695 27:0.555319 28:0.401596 29:0.774468 30:0.995745 31:0.989362 32:0.460044 33:0.56383 34:0.0941185 35:0.198497 36:0.299061 37:0.419453 38:0.332689 
90.5096679919 1:0.243243 2:1 3:0.117 4:0.314642 5:0.00431034 6:0.00208117 7:0.095653 8:0.430801 9:0.755463 10:0.342659 11:0.775234 12:0.261789 13:0.69615 14:0.778175 15:0.128125 16:0.199755 17:0.149943 18:0.00104058 19:0.251426 20:0.103125 21:0.509886 22:0.00312175 23:0.997919 24:0.0145682 25:0.994797 26:0.404015 27:0.50052 28:0.395421 29:0.757544 30:1 31:0.998959 32:0.373009 33:0.505723 34:0.137942 35:0.150732 36:0.301066 37:0.410287 38:0.334878 
90.5096679919 1:0.548458 2:1 3:0.179469 4:0.398373 5:0.00458665 6:0.00441501 7:0.465898 8:0.490066 9:0.701987 10:0.760936 11:0.768212 12:0.25793 13:0.662252 14:0.801696 15:0.119469 16:0.224345 17:0.16596 18:0.00883002 19:0.314024 20:0.117257 21:0.461369 22:0.00220751 23:0.986755 24:0.0397351 25:1 26:0.378124 27:0.527594 28:0.391832 29:0.799117 30:0.997792 31:0.988962 32:0.313452 33:0.518764 34:0.136268 35:0.120891 36:0.242338 37:0.37843 38:0.405378 
90.5096679919 1:0.388013 2:1 3:0.142466 4:0.326332 5:0.00679708 6:0.0284211 7:0.134345 8:0.471579 9:0.743158 10:0.467068 11:0.742105 12:0.250416 13:0.689474 14:0.785322 15:0.124341 16:0.302562 17:0.133522 18:0.00210526 19:0.249933 20:0.0948367 21:0.505263 22:0.00105263 23:0.997895 24:0.0189474 25:1 26:0.396672 27:0.490526 28:0.389474 29:0.783158 30:0.998947 31:0.992632 32:0.359151 33:0.523158 34:0.140623 35:0.168473 36:0.234354 37:0.427068 38:0.329187 
90.5096679919 1:0.340161 2:1 3:0.112762 4:0.314859 5:0.00856543 6:0.000732064 7:0.130223 8:0.570278 9:0.778184 10:0.718157 11:0.753294 12:0.265084 13:0.787701 14:0.773467 15:0.113553 16:0.299848 17:0.123278 18:0.00585652 19:0.27566 20:0.0879121 21:0.552709 22:0.00146413 23:0.997804 24:0.00732064 25:1 26:0.363647 27:0.475842 28:0.406296 29:0.706442 30:0.998536 31:0.995608 32:0.3869 33:0.399707 34:0.14665 35:0.163832 36:0.223822 37:0.454926 38:0.300812 
90.5096679919 1:0.290689 2:1 3:0.124579 4:0.30302 5:0.00707339 6:0.00227273 7:0.111954 8:0.544697 9:0.678788 10:0.725757 11:0.741667 12:0.218501 13:0.74697 14:0.793235 15:0.117513 16:0.287745 17:0.152939 18:0.00151515 19:0.278135 20:0.142532 21:0.407576 22:0.000757576 23:1 24:0.00454545 25:0.996212 26:0.359018 27:0.509091 28:0.372159 29:0.8 30:0.997727 31:0.988636 32:0.400936 33:0.52803 34:0.136199 35:0.143462 36:0.257271 37:0.426407 38:0.391185 
71.26580383278302 1:0.547297 2:1 3:0.164706 4:0.38666 5:0.00447613 6:0.013544 7:0.603897 8:0.458239 9:0.668172 10:0.343509 11:0.756208 12:0.175835 13:0.638826 14:0.723361 15:0.0995475 16:0.282706 17:0.0848571 18:0.00225734 19:0.18889 20:0.108597 21:0.476298 22:0.0406321 23:1 24:0.00677201 25:0.988713 26:0.532731 27:0.469526 28:0.282167 29:0.837472 30:0.986456 31:0.979684 32:0.363088 33:0.670429 34:0.225283 35:0.100733 36:0.370555 37:0.490164 38:0.274985 
90.5096679919 1:0.26281 2:1 3:0.110381 4:0.275517 5:0.00292882 6:0.00165563 7:0.0443133 8:0.5 9:0.751656 10:0.566894 11:0.768212 12:0.205647 13:0.705298 14:0.755145 15:0.147595 16:0.314423 17:0.131125 18:0.00496689 19:0.268421 20:0.0895522 21:0.443709 22:0.00331126 23:0.996689 24:0.0115894 25:1 26:0.346614 27:0.538079 28:0.453228 29:0.745033 30:0.983444 31:0.993377 32:0.533285 33:0.506623 34:0.0987393 35:0.198018 36:0.242904 37:0.409177 38:0.307044 
90.5096679919 1:0.258621 2:1 3:0.092 4:0.349665 5:0.00248674 6:0.00383877 7:0.229155 8:0.49904 9:0.675624 10:0.483562 11:0.756238 12:0.210122 13:0.735125 14:0.773735 15:0.178846 16:0.250234 17:0.107218 18:0.0345489 19:0.263 20:0.115385 21:0.387716 22:0.00191939 23:0.998081 24:0.0191939 25:0.992322 26:0.405486 27:0.510557 28:0.415067 29:0.779271 30:0.982726 31:1 32:0.477234 33:0.579655 34:0.132267 35:0.163462 36:0.299324 37:0.414039 38:0.300122 
39.04377467924777 1:0.410898 2:1 3:0.101388 4:0.37778 5:0.00513926 6:0.00147493 7:0.155331 8:0.556047 9:0.646018 10:0.674094 11:0.685841 12:0.251514 13:0.777286 14:0.7324 15:0.110783 16:0.381549 17:0.142247 18:0.00442478 19:0.226783 20:0.115214 21:0.415929 22:0.0147493 23:0.99705 24:0.0162242 25:1 26:0.300362 27:0.458702 28:0.449853 29:0.80531 30:0.979351 31:0.986726 32:0.368966 33:0.585546 34:0.110691 35:0.177868 36:0.236065 37:0.43405 38:0.324484 
90.5096679919 1:0.323204 2:1 3:0.0635556 4:0.311734 5:0.00215517 6:0.00831025 7:0.209481 8:0.360111 9:0.861496 10:0.680726 11:0.842105 12:0.390728 13:0.584488 14:0.758427 15:0.130556 16:0.213272 17:0.154871 18:0.00554017 19:0.263667 20:0.155556 21:0.626039 22:0.00277008 23:0.99446 24:0.0249307 25:1 26:0.35323 27:0.534626 28:0.387812 29:0.689751 30:0.966759 31:0.99723 32:0.440115 33:0.484765 34:0.13117 35:0.163029 36:0.230205 37:0.459042 38:0.33241 
90.5096679919 1:0.2448 2:1 3:0.0901445 4:0.359242 5:0.0028183 6:0.00320513 7:0.117201 8:0.274038 9:0.741987 10:0.72934 11:0.677885 12:0.323887 13:0.732372 14:0.815274 15:0.094703 16:0.118448 17:0.133424 18:0.00160256 19:0.365421 20:0.216693 21:0.483974 22:0.00480769 23:0.988782 24:0.00641026 25:0.998397 26:0.280604 27:0.525641 28:0.334535 29:0.810897 30:0.983974 31:1 32:0.366129 33:0.528846 34:0.0955695 35:0.1072 36:0.235119 37:0.528846 38:0.390443 
80.1821135399111 1:0.403886 2:1 3:0.14599 4:0.256209 5:0.0107206 6:0.000694444 7:0.113079 8:0.466667 9:0.777083 10:0.69361 11:0.739583 12:0.267544 13:0.661806 14:0.78936 15:0.116053 16:0.248795 17:0.13314 18:0.00138889 19:0.23825 20:0.113968 21:0.511111 22:0.00277778 23:0.994444 24:0.00972222 25:0.996528 26:0.389897 27:0.495833 28:0.374132 29:0.765972 30:0.999306 31:1 32:0.434682 33:0.547222 34:0.127694 35:0.156814 36:0.280005 37:0.423611 38:0.362374 
90.5096679919 1:0.424779 2:1 3:0.102143 4:0.312842 5:0.00176835 6:0.0222222 7:0.438074 8:0.36 9:0.782222 10:0.815341 11:0.808889 12:0.318129 13:0.493333 14:0.783749 15:0.09375 16:0.196185 17:0.0995597 18:0.00444444 19:0.260332 20:0.209821 21:0.591111 22:0.00888889 23:0.991111 24:0.0444444 25:1 26:0.321434 27:0.595556 28:0.272222 29:0.662222 30:0.995556 31:0.986667 32:0.431194 33:0.475556 34:0.14665 35:0.103901 36:0.273593 37:0.584127 38:0.371717 
90.5096679919 1:0.378531 2:1 3:0.0904348 4:0.360828 5:0.00370248 6:0.00188679 7:0.0627693 8:0.526415 9:0.696226 10:0.607627 11:0.790566 12:0.250248 13:0.767925 14:0.696139 15:0.119093 16:0.265353 17:0.218453 18:0.0113208 19:0.31774 20:0.0850662 21:0.511321 22:0.0415094 23:1 24:0.00754717 25:0.990566 26:0.283688 27:0.541509 28:0.516509 29:0.711321 30:0.998113 31:0.992453 32:0.463357 33:0.437736 34:0.100908 35:0.170245 36:0.21681 37:0.363881 38:0.332762 
90.5096679919 1:0.298763 2:1 3:0.133758 4:0.310088 5:0.00933908 6:0.0053066 7:0.233277 8:0.607311 9:0.757075 10:0.643032 11:0.724646 12:0.223436 13:0.790094 14:0.781627 15:0.113864 16:0.315954 17:0.142336 18:0.000589623 19:0.269512 20:0.119764 21:0.510024 22:0.0123821 23:0.99941 24:0.00235849 25:0.998231 26:0.322067 27:0.457547 28:0.391362 29:0.745283 30:0.997052 31:1 32:0.532305 33:0.490566 34:0.107803 35:0.18865 36:0.233506 37:0.441375 38:0.379503 
90.5096679919 1:0.328947 2:1 3:0.0975953 4:0.338753 5:0.00414456 6:0.0146413 7:0.477703 8:0.692533 9:0.695461 10:0.768065 11:0.778917 12:0.352932 13:0.844802 14:0.80569 15:0.0718475 16:0.431361 17:0.217009 18:0.00146413 19:0.257283 20:0.164223 21:0.522694 22:0.00292826 23:0.998536 24:0.0102489 25:1 26:0.217352 27:0.464129 28:0.397145 29:0.715959 30:0.995608 31:0.989751 32:0.358982 33:0.398243 34:0.073755 35:0.13502 36:0.172748 37:0.374399 38:0.556369 
90.5096679919 1:0.237947 2:1 3:0.0876131 4:0.328786 5:0.0028183 6:0.00155763 7:0.104834 8:0.535826 9:0.694704 10:0.704929 11:0.747664 12:0.232825 13:0.758567 14:0.764335 15:0.109204 16:0.374163 17:0.115445 18:0.00623053 19:0.229724 20:0.0967239 21:0.481308 22:0.0109034 23:0.996885 24:0.0264798 25:0.998442 26:0.37353 27:0.496885 28:0.383567 29:0.775701 30:0.989097 31:1 32:0.301954 33:0.448598 34:0.150539 35:0.179964 36:0.238115 37:0.500668 38:0.266214 
90.5096679919 1:0.398259 2:1 3:0.10434 4:0.316638 5:0.00674182 6:0.0152505 7:0.363781 8:0.481481 9:0.676471 10:0.392667 11:0.762527 12:0.269465 13:0.706972 14:0.789326 15:0.126499 16:0.301926 17:0.128232 18:0.00108932 19:0.205094 20:0.0785169 21:0.497821 22:0.0108932 23:1 24:0.0130719 25:0.991285 26:0.387694 27:0.444444 28:0.420752 29:0.779956 30:0.998911 31:0.990196 32:0.44229 33:0.513072 34:0.14665 35:0.156696 36:0.264876 37:0.431061 38:0.287186 
17.18609645808916 1:0.83427 2:1 3:0.20565 4:0.320208 5:0.00547082 6:0.0056338 7:0.827337 8:0.532394 9:0.726761 10:0.314646 11:0.670423 12:0.355819 13:0.802817 14:0.737472 15:0.141243 16:0.277602 17:0.0973609 18:0.0084507 19:0.220981 20:0.0847458 21:0.605634 22:0.0225352 23:0.997183 24:0.0028169 25:1 26:0.557565 27:0.467606 28:0.309859 29:0.721127 30:0.994366 31:0.991549 32:0.381802 33:0.419718 34:0.20299 35:0.137207 36:0.234095 37:0.410463 38:0.31242 
90.5096679919 1:0.0702827 2:1 3:0.0858497 4:0.341792 5:0.005084 6:0.000509424 7:0.0486228 8:0.509934 9:0.755222 10:0.424633 11:0.746561 12:0.237285 13:0.697147 14:0.742882 15:0.122293 16:0.230359 17:0.132749 18:0.00152827 19:0.278412 20:0.102675 21:0.46867 22:0.000764137 23:0.999491 24:0.000254712 25:0.997198 26:0.320436 27:0.497198 28:0.445428 29:0.774325 30:0.999236 31:1 32:0.391321 33:0.510188 34:0.112463 35:0.179951 36:0.27544 37:0.44611 38:0.296392 
90.5096679919 1:0.339676 2:1 3:0.111039 4:0.318216 5:0.00657604 6:0.00190476 7:0.230467 8:0.433333 9:0.780952 10:0.740388 11:0.749524 12:0.236591 13:0.695238 14:0.777605 15:0.149666 16:0.23855 17:0.116928 18:0.00285714 19:0.236092 20:0.0867493 21:0.502857 22:0.000952381 23:1 24:0.00380952 25:0.999048 26:0.411459 27:0.471429 28:0.428571 29:0.771429 30:0.980952 31:0.995238 32:0.455989 33:0.587619 34:0.140918 35:0.164953 36:0.330266 37:0.404082 38:0.287446 
90.5096679919 1:0.252259 2:1 3:0.0868476 4:0.345331 5:0.00668656 6:0.00069541 7:0.109144 8:0.417246 9:0.803894 10:0.623425 11:0.71975 12:0.270844 13:0.666203 14:0.759313 15:0.118998 16:0.249142 17:0.167892 18:0.00764951 19:0.287316 20:0.12039 21:0.521558 22:0.00278164 23:1 24:0.00347705 25:0.996523 26:0.32294 27:0.495828 28:0.415508 29:0.770515 30:0.995132 31:0.997914 32:0.382307 33:0.541725 34:0.120728 35:0.138019 36:0.230452 37:0.413272 38:0.379315 
36.19425876521201 1:0.329764 2:1 3:0.111508 4:0.368814 5:0.00851017 6:0.000714286 7:0.244613 8:0.410714 9:0.763571 10:0.388496 11:0.734286 12:0.317293 13:0.742143 14:0.766556 15:0.10579 16:0.222174 17:0.137672 18:0.0121429 19:0.271207 20:0.115082 21:0.562143 22:0.00357143 23:1 24:0.0257143 25:0.998571 26:0.34394 27:0.479286 28:0.392857 29:0.765714 30:0.999286 31:0.995714 32:0.266001 33:0.515 34:0.147488 35:0.142491 36:0.234508 37:0.45102 38:0.344156 
90.5096679919 1:0.399828 2:1 3:0.089578 4:0.31283 5:0.00856543 6:0.00172117 7:0.173599 8:0.555938 9:0.679002 10:0.662775 11:0.716867 12:0.254552 13:0.772806 14:0.721801 15:0.109388 16:0.320686 17:0.102156 18:0.00860585 19:0.272746 20:0.111972 21:0.475904 22:0.000860585 23:0.997418 24:0.00516351 25:1 26:0.32594 27:0.479346 28:0.410929 29:0.809811 30:0.999139 31:0.994836 32:0.393064 33:0.518072 34:0.141471 35:0.191748 36:0.24634 37:0.490534 38:0.284775 
88.58385019855204 1:0.344086 2:1 3:0.108489 4:0.273182 5:0.00353669 6:0.00359066 7:0.441634 8:0.425494 9:0.710952 10:0.667434 11:0.786355 12:0.190872 13:0.603232 14:0.782679 15:0.143885 16:0.281978 17:0.13127 18:0.00718133 19:0.302338 20:0.0665468 21:0.429084 22:0.00179533 23:1 24:0.0341113 25:0.987433 26:0.403197 27:0.470377 28:0.464542 29:0.764811 30:0.998205 31:0.964093 32:0.436965 33:0.601436 34:0.158783 35:0.147418 36:0.263401 37:0.387279 38:0.264403 
90.5096679919 1:0.335895 2:1 3:0.137294 4:0.282996 5:0.0056366 6:0.00769231 7:0.298108 8:0.504396 9:0.671429 10:0.67726 11:0.797802 12:0.233661 13:0.738462 14:0.746001 15:0.107811 16:0.252689 17:0.140513 18:0.0010989 19:0.270115 20:0.118812 21:0.453846 22:0.0021978 23:0.998901 24:0.00989011 25:0.994505 26:0.40156 27:0.568132 28:0.342033 29:0.742857 30:0.995604 31:1 32:0.400158 33:0.471429 34:0.162622 35:0.129132 36:0.282988 37:0.458399 38:0.353646 
90.5096679919 1:0.257359 2:1 3:0.117405 4:0.282996 5:0.0056366 6:0.00589226 7:0.101649 8:0.51936 9:0.675926 10:0.67726 11:0.755892 12:0.205564 13:0.787037 14:0.746723 15:0.128054 16:0.274783 17:0.122122 18:0.000841751 19:0.277342 20:0.116259 21:0.408249 22:0.0016835 23:1 24:0.00757576 25:0.999158 26:0.421337 27:0.542088 28:0.348274 29:0.759259 30:0.997475 31:0.98064 32:0.400158 33:0.491582 34:0.167776 35:0.133841 36:0.26772 37:0.46176 38:0.321396 
90.5096679919 1:0.32097 2:1 3:0.122003 4:0.303331 5:0.00414456 6:0.01 7:0.0749485 8:0.458571 9:0.732857 10:0.725839 11:0.715714 12:0.233083 13:0.717143 14:0.750864 15:0.130186 16:0.250771 17:0.120368 18:0.00428571 19:0.316782 20:0.0844063 21:0.471429 22:0.00285714 23:0.997143 24:0.00142857 25:0.992857 26:0.41871 27:0.528571 28:0.407143 29:0.815714 30:0.998571 31:1 32:0.410113 33:0.518571 34:0.158608 35:0.156346 36:0.208126 37:0.414286 38:0.298701 
90.5096679919 1:0.508475 2:1 3:0.0976623 4:0.373772 5:0.00939434 6:0.00199601 7:0.108488 8:0.476048 9:0.687625 10:0.713452 11:0.717565 12:0.222712 13:0.728543 14:0.717577 15:0.10989 16:0.269443 17:0.110383 18:0.00698603 19:0.259928 20:0.116883 21:0.453094 22:0.000998004 23:0.999002 24:0.00798403 25:1 26:0.412176 27:0.471058 28:0.341816 29:0.855289 30:0.989022 31:0.997006 32:0.344464 33:0.62475 34:0.203054 35:0.136471 36:0.266221 37:0.494725 38:0.297587 
90.5096679919 1:0.463455 2:1 3:0.104 4:0.286684 5:0.00513926 6:0.00166389 7:0.0728874 8:0.43594 9:0.708819 10:0.696894 11:0.71381 12:0.283738 13:0.660566 14:0.715218 15:0.153333 16:0.244254 17:0.108128 18:0.00665557 19:0.295867 20:0.0833333 21:0.489185 22:0.0349418 23:1 24:0.0116473 25:0.991681 26:0.326177 27:0.494176 28:0.490849 29:0.788686 30:0.973378 31:0.995008 32:0.392073 33:0.562396 34:0.0855457 35:0.199008 36:0.213389 37:0.427858 38:0.248071 
90.5096679919 1:0.439314 2:1 3:0.129312 4:0.356562 5:0.00613395 6:0.00264201 7:0.103804 8:0.529723 9:0.73712 10:0.629741 11:0.735799 12:0.266982 13:0.686922 14:0.731191 15:0.146825 16:0.368852 17:0.103247 18:0.00528402 19:0.205879 20:0.111111 21:0.515192 22:0.001321 23:0.990753 24:0.00660502 25:1 26:0.374611 27:0.431968 28:0.401255 29:0.81638 30:0.98679 31:0.998679 32:0.347727 33:0.505945 34:0.118135 35:0.172666 36:0.252089 37:0.439706 38:0.317041 
90.5096679919 1:0.474903 2:1 3:0.105214 4:0.368721 5:0.00226569 6:0.0348837 7:0.295765 8:0.604651 9:0.678295 10:0.740813 11:0.782946 12:0.236638 13:0.848837 14:0.768592 15:0.0817121 16:0.322289 17:0.0946645 18:0.00387597 19:0.259467 20:0.190661 21:0.449612 22:0.0155039 23:0.996124 24:0.0465116 25:1 26:0.331958 27:0.465116 28:0.266473 29:0.643411 30:0.992248 31:0.988372 32:0.36526 33:0.527132 34:0.147791 35:0.161432 36:0.250529 37:0.59247 38:0.359408 
90.5096679919 1:0.413245 2:1 3:0.185073 4:0.34885 5:0.00574713 6:0.00265252 7:0.388327 8:0.435013 9:0.709549 10:0.708096 11:0.807692 12:0.212202 13:0.651194 14:0.817186 15:0.0703851 16:0.289993 17:0.140006 18:0.00132626 19:0.280222 20:0.179283 21:0.428382 22:0.104775 23:0.992042 24:0.00397878 25:1 26:0.333191 27:0.525199 28:0.295093 29:0.748011 30:0.990716 31:0.998674 32:0.416907 33:0.61008 34:0.128148 35:0.110194 36:0.317045 37:0.452823 38:0.494333 
45.99025185778853 1:0.688776 2:1 3:0.0745392 4:0.422698 5:0.00746021 6:0.00340716 7:0.407251 8:0.603066 9:0.620102 10:0.672438 11:0.705281 12:0.281539 13:0.770017 14:0.790762 15:0.0989761 16:0.295548 17:0.24564 18:0.00170358 19:0.17819 20:0.117747 21:0.431005 22:0.011925 23:0.996593 24:0.00511073 25:1 26:0.236687 27:0.468484 28:0.44506 29:0.850085 30:0.998296 31:0.991482 32:0.37222 33:0.551959 34:0.0648162 35:0.132964 36:0.309365 37:0.328547 38:0.52656 
90.5096679919 1:0.37963 2:1 3:0.160991 4:0.322015 5:0.00453139 6:0.00618238 7:0.561551 8:0.550232 9:0.678516 10:0.613943 11:0.822257 12:0.219637 13:0.839258 14:0.831707 15:0.116099 16:0.304633 17:0.15535 18:0.00309119 19:0.303931 20:0.147059 21:0.460587 22:0.0015456 23:0.998454 24:0.00463679 25:0.990726 26:0.391235 27:0.567233 28:0.324575 29:0.64915 30:1 31:0.989181 32:0.358844 33:0.438949 34:0.15573 35:0.119048 36:0.222004 37:0.415103 38:0.444007 
90.5096679919 1:0.377049 2:1 3:0.142466 4:0.342259 5:0.005084 6:0.0136799 7:0.255574 8:0.474692 9:0.682627 10:0.741483 11:0.751026 12:0.201598 13:0.696306 14:0.719454 15:0.128767 16:0.282266 17:0.166635 18:0.00273598 19:0.273299 20:0.117808 21:0.458276 22:0.00136799 23:0.997264 24:0.00683995 25:1 26:0.390539 27:0.467852 28:0.377907 29:0.812585 30:0.998632 31:0.99316 32:0.342689 33:0.595075 34:0.157498 35:0.121983 36:0.279301 37:0.412351 38:0.370601 
90.5096679919 1:0.283981 2:1 3:0.107877 4:0.278883 5:0.00646552 6:0.00161943 7:0.208076 8:0.466397 9:0.766802 10:0.354747 11:0.721457 12:0.236096 13:0.731174 14:0.776215 15:0.163695 16:0.23274 17:0.123221 18:0.000809717 19:0.250696 20:0.10859 21:0.476113 22:0.00566802 23:0.991903 24:0.00404858 25:1 26:0.419172 27:0.479352 28:0.40081 29:0.795951 30:0.99919 31:0.978947 32:0.418798 33:0.548988 34:0.148908 35:0.160724 36:0.296577 37:0.408329 38:0.315053 
90.5096679919 1:0.300227 2:1 3:0.113713 4:0.272592 5:0.00729443 6:0.00227618 7:0.241334 8:0.461305 9:0.716237 10:0.460237 11:0.766313 12:0.245987 13:0.742033 14:0.732948 15:0.137434 16:0.245344 17:0.137777 18:0.000758725 19:0.222211 20:0.11921 21:0.502276 22:0.0030349 23:0.994689 24:0.00151745 25:1 26:0.378335 27:0.5 28:0.393589 29:0.757967 30:0.999241 31:0.997724 32:0.440517 33:0.511381 34:0.124714 35:0.155205 36:0.316822 37:0.408628 38:0.364188 
90.5096679919 1:0.235988 2:1 3:0.116808 4:0.381449 5:0.00442087 6:0.0127953 7:0.134907 8:0.511811 9:0.730315 10:0.741853 11:0.755906 12:0.235184 13:0.702756 14:0.732044 15:0.135961 16:0.227336 17:0.158796 18:0.000984252 19:0.22855 20:0.100493 21:0.473425 22:0.00688976 23:0.99311 24:0.00295276 25:1 26:0.389637 27:0.495079 28:0.433071 29:0.78937 30:0.982283 31:0.998031 32:0.369978 33:0.500984 34:0.141593 35:0.136582 36:0.316073 37:0.382452 38:0.329277 
90.5096679919 1:0.230523 2:1 3:0.155722 4:0.308996 5:0.00397878 6:0.00106838 7:0.192337 8:0.519231 9:0.784188 10:0.711344 11:0.747863 12:0.257535 13:0.723291 14:0.791898 15:0.126203 16:0.267605 17:0.142026 18:0.00213675 19:0.235792 20:0.101604 21:0.50641 22:0.00534188 23:0.994658 24:0.00747863 25:0.997863 26:0.414806 27:0.470085 28:0.387286 29:0.745726 30:1 31:0.998932 32:0.417963 33:0.507479 34:0.163589 35:0.142857 36:0.265263 37:0.399878 38:0.34965 
90.5096679919 1:0.236531 2:1 3:0.115099 4:0.300316 5:0.00331565 6:0.00263158 7:0.119636 8:0.577632 9:0.664474 10:0.58964 11:0.736842 12:0.146814 13:0.756579 14:0.760277 15:0.14361 16:0.414672 17:0.157597 18:0.00131579 19:0.320675 20:0.0685112 21:0.326316 22:0.00526316 23:1 24:0.0210526 25:0.993421 26:0.375637 27:0.505263 28:0.476974 29:0.785526 30:0.996053 31:0.998684 32:0.405455 33:0.451316 34:0.127135 35:0.150652 36:0.237594 37:0.370301 38:0.294258 
90.5096679919 1:0.375626 2:1 3:0.160268 4:0.365343 5:0.00414456 6:0.00501672 7:0.0979951 8:0.525084 9:0.665552 10:0.562759 11:0.802676 12:0.251716 13:0.707358 14:0.74845 15:0.123953 16:0.281528 17:0.132443 18:0.00668896 19:0.327086 20:0.107203 21:0.411371 22:0.00167224 23:0.996656 24:0.00334448 25:1 26:0.385101 27:0.540134 28:0.374164 29:0.737458 30:0.976589 31:0.998328 32:0.358078 33:0.508361 34:0.13928 35:0.122039 36:0.219606 37:0.425227 38:0.364853 
90.5096679919 1:0.56135 2:1 3:0.14918 4:0.312653 5:0.0101127 6:0.00716479 7:0.159078 8:0.400205 9:0.67349 10:0.671162 11:0.796315 12:0.27043 13:0.674514 14:0.749421 15:0.110656 16:0.162861 17:0.110094 18:0.0122825 19:0.307262 20:0.118852 21:0.440123 22:0.00102354 23:1 24:0.00204708 25:0.997953 26:0.446099 27:0.57523 28:0.332651 29:0.773797 30:0.991812 31:0.998976 32:0.409098 33:0.531218 34:0.173546 35:0.146187 36:0.32764 37:0.438661 38:0.349865 
90.5096679919 1:0.230609 2:1 3:0.175978 4:0.308911 5:0.00613395 6:0.000693001 7:0.0751358 8:0.573805 9:0.572419 10:0.582537 11:0.774082 12:0.229784 13:0.751906 14:0.768183 15:0.145631 16:0.367793 17:0.130754 18:0.002772 19:0.179766 20:0.0970874 21:0.40194 22:0.004851 23:1 24:0.002079 25:0.999307 26:0.40887 27:0.440055 28:0.40887 29:0.799723 30:0.996535 31:0.997228 32:0.478145 33:0.586972 34:0.103936 35:0.141049 36:0.278712 37:0.3663 38:0.36666 
90.5096679919 1:0.682692 3:0.161032 4:0.308285 5:0.00392352 6:0.00643087 7:0.462151 8:0.327974 9:0.800643 10:0.319487 11:0.78135 12:0.348621 13:0.633441 14:0.773976 15:0.1 16:0.184845 17:0.14388 18:0.00321543 19:0.19507 20:0.141935 21:0.569132 22:0.0096463 23:1 24:0.0160772 25:0.996785 26:0.446738 27:0.549839 28:0.309486 29:0.749196 30:0.942122 31:0.993569 32:0.438489 33:0.514469 34:0.188752 35:0.107719 36:0.395874 37:0.427193 38:0.397545 
90.5096679919 1:0.378354 2:1 3:0.126738 4:0.2735 5:0.00779178 6:0.0170098 7:0.105209 8:0.472695 9:0.735004 10:0.379484 11:0.738585 12:0.24596 13:0.690242 14:0.768465 15:0.113799 16:0.271112 17:0.170766 18:0.000895255 19:0.226613 20:0.116487 21:0.52462 22:0.0161146 23:0.997314 24:0.00716204 25:0.999105 26:0.364629 27:0.465533 28:0.393912 29:0.785139 30:0.998209 31:1 32:0.403031 33:0.535363 34:0.116821 35:0.124221 36:0.273716 37:0.422049 38:0.35973 
90.5096679919 1:0.303216 2:1 3:0.134194 4:0.3409 5:0.00364721 6:0.00920245 7:0.136406 8:0.467791 9:0.719325 10:0.588364 11:0.757669 12:0.31805 13:0.68865 14:0.745993 15:0.127496 16:0.275531 17:0.144814 18:0.00153374 19:0.224596 20:0.102919 21:0.493865 22:0.0214724 23:1 24:0.00613497 25:0.996933 26:0.414506 27:0.483129 28:0.381518 29:0.81135 30:0.998466 31:0.993865 32:0.408481 33:0.570552 34:0.143496 35:0.149221 36:0.278524 37:0.411919 38:0.343001 
90.5096679919 1:0.364162 2:1 3:0.128494 4:0.356949 5:0.00696286 6:0.0154291 7:0.0812254 8:0.499518 9:0.623915 10:0.694162 11:0.78785 12:0.189819 13:0.75217 14:0.769689 15:0.135135 16:0.295987 17:0.167319 18:0.00675024 19:0.250147 20:0.101351 21:0.3973 22:0.00096432 23:0.996143 24:0.00289296 25:1 26:0.412947 27:0.487946 28:0.385728 29:0.773385 30:0.988428 31:0.992285 32:0.383724 33:0.601736 34:0.13575 35:0.109395 36:0.307693 37:0.387106 38:0.369948 
90.5096679919 1:0.334737 2:1 3:0.100928 4:0.361967 5:0.00585765 6:0.00105374 7:0.252576 8:0.519494 9:0.714436 10:0.450944 11:0.713383 12:0.250679 13:0.721812 14:0.784329 15:0.133966 16:0.381846 17:0.142217 18:0.0052687 19:0.232562 20:0.142405 21:0.54373 22:0.0179136 23:0.989463 24:0.00316122 25:1 26:0.312859 27:0.492097 28:0.381981 29:0.809273 30:0.981033 31:0.997893 32:0.387687 33:0.47313 34:0.102871 35:0.146235 36:0.246493 37:0.43956 38:0.404253 
90.5096679919 1:0.469529 2:1 3:0.141556 4:0.274407 5:0.00624447 6:0.0166436 7:0.166105 8:0.431345 9:0.647712 10:0.78247 11:0.740638 12:0.204394 13:0.676838 14:0.773506 15:0.125 16:0.209296 17:0.139384 18:0.00277393 19:0.269836 20:0.116667 21:0.404993 22:0.00138696 23:1 24:0.00554785 25:0.994452 26:0.422352 27:0.503467 28:0.351942 29:0.834951 30:0.988904 31:0.984743 32:0.41695 33:0.618585 34:0.169666 35:0.125083 36:0.362862 37:0.416089 38:0.373219 
90.5096679919 1:0.287456 2:1 3:0.116364 4:0.281366 5:0.00303935 6:0.0017452 7:0.214727 8:0.497382 9:0.774869 10:0.445127 11:0.760908 12:0.310462 13:0.722513 14:0.744032 15:0.136364 16:0.279479 17:0.138232 18:0.0104712 19:0.206275 20:0.104895 21:0.504363 22:0.008726 23:1 24:0.0157068 25:0.998255 26:0.35208 27:0.474695 28:0.453752 29:0.745201 30:0.987784 31:0.993019 32:0.454579 33:0.544503 34:0.10768 35:0.175137 36:0.281113 37:0.39641 38:0.317309 
90.5096679919 1:0.349548 2:1 3:0.0966893 4:0.304695 5:0.00569187 6:0.00679502 7:0.126288 8:0.442809 9:0.747452 10:0.839535 11:0.822197 12:0.278953 13:0.668177 14:0.753191 15:0.14059 16:0.283667 17:0.149411 18:0.00339751 19:0.229807 20:0.0997732 21:0.570781 22:0.00226501 23:0.994337 24:0.0011325 25:1 26:0.37073 27:0.469989 28:0.462911 29:0.773499 30:0.996602 31:0.997735 32:0.534056 33:0.532276 34:0.101258 35:0.153736 36:0.267241 37:0.364019 38:0.327396 
90.5096679919 1:0.292735 2:1 3:0.121655 4:0.290559 5:0.00757073 6:0.00142552 7:0.25801 8:0.426942 9:0.707056 10:0.683431 11:0.753386 12:0.256593 13:0.674982 14:0.774754 15:0.121255 16:0.226821 17:0.15473 18:0.000712758 19:0.283301 20:0.109843 21:0.511048 22:0.00427655 23:1 24:0.00285103 25:0.999287 26:0.378475 27:0.52459 28:0.402708 29:0.782609 30:0.998574 31:0.993585 32:0.42169 33:0.515324 34:0.123742 35:0.147239 36:0.254483 37:0.404236 38:0.356379 
29.63465742846676 1:0.927114 2:1 3:0.140293 4:0.297924 5:0.00585765 6:0.00584795 7:0.201237 8:0.447368 9:0.77193 10:0.689348 11:0.789474 12:0.280086 13:0.593567 14:0.659022 15:0.108504 16:0.288154 17:0.118909 18:0.0116959 19:0.180446 20:0.13783 21:0.54386 22:0.00292398 23:0.982456 24:0.00877193 25:1 26:0.328334 27:0.461988 28:0.358187 29:0.769006 30:0.979532 31:0.994152 32:0.472491 33:0.567251 34:0.1445 35:0.127601 36:0.269993 37:0.501253 38:0.345561 
90.5096679919 1:0.163072 2:1 3:0.138954 4:0.375756 5:0.010168 6:0.000591017 7:0.0613641 8:0.504137 9:0.755319 10:0.665598 11:0.740544 12:0.149621 13:0.736111 14:0.750743 15:0.139226 16:0.273322 17:0.12675 18:0.00177305 19:0.284985 20:0.126515 21:0.445035 22:0.00147754 23:0.997045 24:0.000295508 25:0.999409 26:0.376258 27:0.499704 28:0.400044 29:0.757388 30:0.999704 31:1 32:0.451681 33:0.528073 34:0.113791 35:0.139687 36:0.287418 37:0.412023 38:0.352461 
90.5096679919 1:0.206278 2:1 3:0.161017 4:0.375756 5:0.010168 6:0.00261682 7:0.136406 8:0.522617 9:0.751776 10:0.665598 11:0.735701 12:0.149139 13:0.76785 14:0.7619 15:0.140987 16:0.268246 17:0.120552 18:0.000747664 19:0.300303 20:0.12902 21:0.426542 22:0.000373832 23:0.999252 24:0.00149533 25:1 26:0.399144 27:0.495327 28:0.381308 29:0.740561 30:0.999626 31:0.998879 32:0.451681 33:0.522243 34:0.11709 35:0.136233 36:0.290725 37:0.408545 38:0.362277 
90.5096679919 1:0.316498 2:1 3:0.105287 4:0.230671 5:0.00519452 6:0.00337079 7:0.0787896 8:0.519101 9:0.775281 10:0.417159 11:0.758427 12:0.326434 13:0.701124 14:0.758489 15:0.15973 16:0.284896 17:0.12657 18:0.00224719 19:0.283236 20:0.109111 21:0.568539 22:0.0224719 23:1 24:0.0011236 25:0.996629 26:0.40203 27:0.522472 28:0.45927 29:0.755056 30:0.998876 31:0.997753 32:0.489274 33:0.441573 34:0.121246 35:0.132037 36:0.224792 37:0.354735 38:0.314607 
90.5096679919 1:0.399254 2:1 3:0.108928 4:0.302245 5:0.00591291 6:0.00249066 7:0.202736 8:0.455791 9:0.728518 10:0.755091 11:0.745953 12:0.259553 13:0.69863 14:0.772156 15:0.143392 16:0.218605 17:0.103645 18:0.00124533 19:0.295687 20:0.0997506 21:0.481943 22:0.00373599 23:1 24:0.0124533 25:0.992528 26:0.428996 27:0.519303 28:0.358032 29:0.797011 30:0.997509 31:0.998755 32:0.416249 33:0.537983 34:0.165118 35:0.170333 36:0.261924 37:0.475004 38:0.28303 
90.5096679919 1:0.477273 2:1 3:0.119829 4:0.328609 5:0.0123784 6:0.00142146 7:0.213041 8:0.472637 9:0.734186 10:0.823203 11:0.756219 12:0.327685 13:0.73774 14:0.741623 15:0.127312 16:0.199911 17:0.130497 18:0.0021322 19:0.254246 20:0.142959 21:0.509595 22:0.000710732 23:1 24:0.00355366 25:0.996446 26:0.38822 27:0.51457 28:0.356254 29:0.759773 30:0.991471 31:0.998579 32:0.351583 33:0.460554 34:0.151135 35:0.135304 36:0.251571 37:0.438623 38:0.370873 
29.84700838647276 1:0.708155 2:1 3:0.183793 4:0.335951 5:0.00607869 6:0.00215054 7:0.6187 8:0.535484 9:0.668817 10:0.718374 11:0.804301 12:0.203735 13:0.748387 14:0.854125 15:0.103448 16:0.306861 17:0.216285 18:0.00430108 19:0.283426 20:0.133621 21:0.415054 22:0.0215054 23:0.997849 24:0.00860215 25:0.995699 26:0.40111 27:0.578495 28:0.330645 29:0.739785 30:1 31:0.989247 32:0.499282 33:0.507527 34:0.14823 35:0.109041 36:0.284625 37:0.344086 38:0.516129 
90.5096679919 1:0.658385 2:1 3:0.151351 4:0.322776 5:0.00585765 6:0.0829876 7:0.368559 8:0.456432 9:0.645228 10:0.735167 11:0.69917 12:0.281721 13:0.630705 14:0.783536 15:0.0706861 16:0.313076 17:0.111697 18:0.00207469 19:0.247389 20:0.176715 21:0.435685 22:0.0186722 23:0.993776 24:0.0145228 25:0.997925 26:0.25271 27:0.495851 28:0.329357 29:0.825726 30:0.970954 31:1 32:0.380684 33:0.636929 34:0.0917705 35:0.161989 36:0.229886 37:0.569057 38:0.373444 
90.5096679919 1:0.867188 2:1 3:0.188346 4:0.346077 5:0.0040893 6:0.0156863 7:0.355349 8:0.447059 9:0.760784 10:0.698749 11:0.74902 12:0.255934 13:0.682353 14:0.71011 15:0.102362 16:0.221412 17:0.175601 18:0.0117647 19:0.299437 20:0.137795 21:0.494118 22:0.00392157 23:0.996078 24:0.00784314 25:0.976471 26:0.358254 27:0.478431 28:0.318627 29:0.815686 30:1 31:0.984314 32:0.386162 33:0.576471 34:0.145495 35:0.119516 36:0.273593 37:0.42577 38:0.470588 
90.5096679919 1:0.307432 2:1 3:0.107991 4:0.328467 5:0.00502874 6:0.00338219 7:0.0620199 8:0.499436 9:0.765502 10:0.57339 11:0.804961 12:0.206491 13:0.714769 14:0.747459 15:0.151242 16:0.258084 17:0.151025 18:0.0191657 19:0.299524 20:0.0970655 21:0.46336 22:0.0011274 23:1 24:0.00225479 25:0.997745 26:0.34331 27:0.547914 28:0.48478 29:0.710259 30:0.987599 31:0.99549 32:0.539404 33:0.483653 34:0.11007 35:0.177026 36:0.261409 37:0.363988 38:0.32182 
90.5096679919 1:0.222381 2:1 3:0.160343 4:0.362075 5:0.00574713 6:0.00356633 7:0.104366 8:0.485735 9:0.693295 10:0.834142 11:0.774608 12:0.159922 13:0.715407 14:0.762344 15:0.138473 16:0.257735 17:0.1628 18:0.000713267 19:0.34468 20:0.0906495 21:0.321683 22:0.0021398 23:0.997147 24:0.0042796 25:0.999287 26:0.382817 27:0.57204 28:0.435984 29:0.766762 30:0.987874 31:1 32:0.446243 33:0.500713 34:0.126029 35:0.142288 36:0.289058 37:0.363766 38:0.355337 
90.5096679919 1:0.63285 2:1 3:0.0604847 4:0.29587 5:0.00723917 6:0.0016129 7:0.283118 8:0.595161 9:0.667742 10:0.665353 11:0.758065 12:0.229202 13:0.835484 14:0.728469 15:0.124394 16:0.352669 17:0.162126 18:0.00322581 19:0.256433 20:0.130856 21:0.462903 22:0.0177419 23:0.998387 24:0.0145161 25:0.990323 26:0.319251 27:0.493548 28:0.419355 29:0.735484 30:1 31:0.993548 32:0.424011 33:0.490323 34:0.127697 35:0.148761 36:0.211814 37:0.435484 38:0.348974 
33.01728306859011 1:0.184615 2:1 3:0.150881 4:0.228833 5:0.00066313 6:0.0154639 7:0.795953 8:0.484536 9:0.783505 10:0.741274 11:0.737113 12:0.287575 13:0.706186 14:0.845964 15:0.139896 16:0.275157 17:0.0735325 18:0.00515464 19:0.19949 20:0.165803 21:0.582474 22:0.0103093 23:0.994845 24:0.0257732 25:1 26:0.44147 27:0.463918 28:0.296392 29:0.768041 30:0.974227 31:0.953608 32:0.426489 33:0.494845 34:0.154248 35:0.152048 36:0.243272 37:0.478645 38:0.356139 
90.5096679919 1:0.233088 2:1 3:0.139504 4:0.28041 5:0.00641026 6:0.00603217 7:0.114203 8:0.495979 9:0.676944 10:0.625289 11:0.733914 12:0.258925 13:0.744638 14:0.740667 15:0.134138 16:0.253885 17:0.0965427 18:0.000670241 19:0.201904 20:0.0871898 21:0.404826 22:0.00938338 23:0.997319 24:0.00201072 25:0.99933 26:0.405647 27:0.463807 28:0.409685 29:0.792895 30:0.997989 31:1 32:0.445524 33:0.604558 34:0.145961 35:0.176456 36:0.338324 37:0.443317 38:0.270534 
3.486066595180662 1:1 2:1 3:0.144277 4:0.249652 5:0.00641026 6:0.00576369 7:0.83249 8:0.587896 9:0.688761 10:0.330607 11:0.832853 12:0.133475 13:0.746398 14:0.870401 15:0.205202 16:0.437836 17:0.216803 18:0.00288184 19:0.376793 20:0.0924855 21:0.293948 22:0.00864553 23:0.997118 24:0.0144092 25:1 26:0.532026 27:0.622478 28:0.360231 29:0.717579 30:0.991354 31:0.982709 32:0.62317 33:0.420749 34:0.154279 35:0.0731145 36:0.215839 37:0.251132 38:0.466335 
90.5096679919 1:0.573937 2:1 3:0.157926 4:0.403056 5:0.011439 6:0.000925069 7:0.143058 8:0.489362 9:0.754857 10:0.84671 11:0.740981 12:0.342763 13:0.766883 14:0.810309 15:0.05 16:0.265896 17:0.0891679 18:0.00647549 19:0.250609 20:0.210185 21:0.53654 22:0.00555042 23:0.99445 24:0.0212766 25:1 26:0.327475 27:0.478261 28:0.209297 29:0.756707 30:0.992599 31:0.99815 32:0.231869 33:0.458834 34:0.164438 35:0.112434 36:0.19931 37:0.578829 38:0.464217 
60.27064626961304 1:1 2:1 3:0.0685714 4:0.341398 5:0.00171309 6:0.0217391 7:0.580851 8:0.445652 9:0.804348 10:0.597756 11:0.684783 12:0.457666 13:0.728261 14:0.792298 15:0.10989 16:0.290112 17:0.133675 18:0.0108696 19:0.238756 20:0.0989011 21:0.565217 22:0.0326087 23:0.98913 24:0.108696 25:0.945652 26:0.455119 27:0.391304 28:0.380435 29:0.815217 30:1 31:0.956522 32:0.400357 33:0.51087 34:0.236896 35:0.133438 36:0.133823 37:0.403727 38:0.316206 
90.5096679919 1:0.488372 2:1 3:0.111276 4:0.354391 5:0.00657604 6:0.0260274 7:0.098932 8:0.439726 9:0.735616 10:0.455966 11:0.7 12:0.22062 13:0.654795 14:0.798 15:0.108368 16:0.248903 17:0.12932 18:0.00136986 19:0.239285 20:0.115226 21:0.489041 22:0.00821918 23:0.994521 24:0.00958904 25:1 26:0.393681 27:0.476712 28:0.363014 29:0.80274 30:0.99726 31:0.991781 32:0.311072 33:0.657534 34:0.146449 35:0.130479 36:0.327468 37:0.440313 38:0.353674 
90.5096679919 1:0.425026 2:1 3:0.0517306 4:0.358624 5:0.00757073 6:0.00207039 7:0.193461 8:0.543478 9:0.677019 10:0.766989 11:0.742236 12:0.259344 13:0.774327 14:0.768523 15:0.0673575 16:0.268858 17:0.212194 18:0.00310559 19:0.271781 20:0.128497 21:0.42236 22:0.0010352 23:0.99793 24:0.00414079 25:1 26:0.238396 27:0.535197 28:0.419255 29:0.832298 30:0.978261 31:0.998965 32:0.35307 33:0.483437 34:0.110633 35:0.147853 36:0.24428 37:0.46436 38:0.38961 
90.5096679919 1:0.317016 2:1 3:0.0874086 4:0.368563 5:0.00751547 6:0.00933126 7:0.0835675 8:0.560653 9:0.749611 10:0.727006 11:0.695956 12:0.261112 13:0.769829 14:0.766291 15:0.0910506 16:0.24187 17:0.182229 18:0.00233281 19:0.192766 20:0.121401 21:0.479005 22:0.00544323 23:0.995334 24:0.000777605 25:1 26:0.284152 27:0.482115 28:0.416991 29:0.803266 30:0.989114 31:0.998445 32:0.468642 33:0.506998 34:0.115836 35:0.118121 36:0.293591 37:0.426572 38:0.397285 
90.5096679919 1:0.222465 2:1 3:0.106842 4:0.238948 5:0.00375774 6:0.00327511 7:0.0780401 8:0.507642 9:0.781659 10:0.593476 11:0.755459 12:0.363135 13:0.694323 14:0.744848 15:0.163934 16:0.264482 17:0.127405 18:0.0131004 19:0.286616 20:0.102732 21:0.590611 22:0.0010917 23:1 24:0.00545852 25:0.996725 26:0.415551 27:0.526201 28:0.462609 29:0.75 30:0.998908 31:0.997817 32:0.437573 33:0.434498 34:0.125654 35:0.134921 36:0.215051 37:0.349345 38:0.303692 
90.5096679919 1:0.250923 2:1 3:0.14106 4:0.238948 5:0.00375774 6:0.00123153 7:0.104459 8:0.465517 9:0.726601 10:0.593476 11:0.777094 12:0.228157 13:0.700739 14:0.771939 15:0.130703 16:0.233881 17:0.144993 18:0.00246305 19:0.287257 20:0.131936 21:0.508621 22:0.00615764 23:0.997537 24:0.00369458 25:0.996305 26:0.412522 27:0.534483 28:0.381773 29:0.753695 30:1 31:0.988916 32:0.437573 33:0.504926 34:0.118983 35:0.116038 36:0.262811 37:0.387051 38:0.376176 
90.5096679919 1:0.40274 2:1 3:0.14 4:0.313396 5:0.00541556 6:0.00274348 7:0.069421 8:0.474623 9:0.762689 10:0.39016 11:0.758573 12:0.24547 13:0.666667 14:0.720336 15:0.133242 16:0.256285 17:0.128105 18:0.00685871 19:0.236744 20:0.0837912 21:0.475995 22:0.00137174 23:0.989026 24:0.00411523 25:1 26:0.402053 27:0.536351 28:0.375514 29:0.770919 30:0.986283 31:0.997257 32:0.476924 33:0.518519 34:0.14806 35:0.184867 36:0.27866 37:0.460513 38:0.301783 
90.5096679919 1:0.328638 2:1 3:0.133878 4:0.351942 5:0.00386826 6:0.00940439 7:0.0839423 8:0.416928 9:0.749216 10:0.737719 11:0.77116 12:0.206237 13:0.644201 14:0.744526 15:0.103611 16:0.220434 17:0.152771 18:0.0015674 19:0.265593 20:0.10832 21:0.420063 22:0.0031348 23:1 24:0.00783699 25:0.995298 26:0.372889 27:0.5 28:0.411442 29:0.793103 30:0.984326 31:0.996865 32:0.359762 33:0.601881 34:0.165988 35:0.131849 36:0.337703 37:0.405284 38:0.347677 
90.5096679919 1:0.272727 2:1 3:0.137647 4:0.283233 5:0.00342617 6:0.00293686 7:0.361533 8:0.497797 9:0.632893 10:0.43692 11:0.740088 12:0.268954 13:0.69163 14:0.732999 15:0.114706 16:0.373839 17:0.137147 18:0.00440529 19:0.234999 20:0.104412 21:0.491924 22:0.00146843 23:1 24:0.0161527 25:0.994126 26:0.313012 27:0.371512 28:0.396476 29:0.838473 30:0.982379 31:0.988253 32:0.579317 33:0.610866 34:0.0935971 35:0.159226 36:0.244064 37:0.457311 38:0.360433 
90.5096679919 1:0.373057 2:1 3:0.136075 4:0.330904 5:0.0066313 6:0.00726141 7:0.0718568 8:0.443983 9:0.71473 10:0.686516 11:0.764523 12:0.220572 13:0.724066 14:0.729444 15:0.0903427 16:0.297103 17:0.104212 18:0.00207469 19:0.258239 20:0.140187 21:0.38278 22:0.00414938 23:0.996888 24:0.00103734 25:1 26:0.343528 27:0.520747 28:0.357884 29:0.788382 30:0.998963 31:0.981328 32:0.278847 33:0.542531 34:0.121523 35:0.163922 36:0.323544 37:0.474215 38:0.3659 
90.5096679919 1:0.223496 2:1 3:0.143862 4:0.521485 5:0.00143678 6:0.00287356 7:0.49213 8:0.390805 9:0.637931 10:0.956742 11:0.721264 12:0.172414 13:0.681034 14:0.778015 15:0.123919 16:0.277286 17:0.160673 18:0.00574713 19:0.291551 20:0.0720461 21:0.491379 22:0.0373563 23:1 24:0.0258621 25:0.985632 26:0.393771 27:0.428161 28:0.427443 29:0.798851 30:0.991379 31:0.997126 32:0.0829533 33:0.640805 34:0.168626 35:0.145808 36:0.274183 37:0.385878 38:0.329154 
90.5096679919 1:0.353627 2:1 3:0.113455 4:0.323342 5:0.00502874 6:0.00518807 7:0.110643 8:0.448768 9:0.73022 10:0.773268 11:0.697795 12:0.240289 13:0.741894 14:0.780303 15:0.128571 16:0.230341 17:0.136915 18:0.00389105 19:0.24691 20:0.102597 21:0.438392 22:0.00259403 23:0.997406 24:0.00129702 25:1 26:0.367809 27:0.468223 28:0.413424 29:0.798962 30:0.993515 31:0.996109 32:0.374211 33:0.570687 34:0.159982 35:0.174784 36:0.331346 37:0.422457 38:0.327792 
90.5096679919 1:0.429952 2:1 3:0.164653 4:0.25898 5:0.00491821 6:0.00322581 7:0.26691 8:0.475806 9:0.622581 10:0.330281 11:0.793548 12:0.213922 13:0.745161 14:0.796346 15:0.137318 16:0.304653 17:0.0900702 18:0.00645161 19:0.236188 20:0.108239 21:0.451613 22:0.0193548 23:0.972581 24:0.0016129 25:1 26:0.426691 27:0.520968 28:0.362903 29:0.75 30:0.985484 31:0.995161 32:0.447455 33:0.51129 34:0.131013 35:0.179822 36:0.238291 37:0.451613 38:0.307918 
90.5096679919 1:0.246407 2:1 3:0.145514 4:0.297856 5:0.00442087 6:0.00822199 7:0.265318 8:0.554985 9:0.631038 10:0.456961 11:0.802672 12:0.298588 13:0.684481 14:0.697458 15:0.0987654 16:0.353437 17:0.132448 18:0.00102775 19:0.21285 20:0.143004 21:0.42446 22:0.00513875 23:0.993834 24:0.036999 25:1 26:0.293406 27:0.476876 28:0.385406 29:0.792395 30:0.998972 31:0.997945 32:0.475245 33:0.550874 34:0.0866018 35:0.175938 36:0.257284 37:0.46836 38:0.381202 
90.5096679919 1:0.301527 2:1 3:0.119388 4:0.288909 5:0.00436561 6:0.0140127 7:0.333989 8:0.482803 9:0.724841 10:0.705119 11:0.797452 12:0.246731 13:0.640764 14:0.798493 15:0.0867347 16:0.275926 17:0.177139 18:0.00254777 19:0.297137 20:0.127551 21:0.549045 22:0.00127389 23:1 24:0.0089172 25:0.991083 26:0.288514 27:0.53121 28:0.425159 29:0.765605 30:0.992357 31:0.996178 32:0.51503 33:0.459873 34:0.100822 35:0.132942 36:0.239176 37:0.427662 38:0.379849 
90.5096679919 1:0.592105 2:1 3:0.154074 4:0.372164 5:0.00414456 6:0.0211082 7:0.545531 8:0.612137 9:0.641161 10:0.516994 11:0.812665 12:0.188863 13:0.722955 14:0.75478 15:0.0634921 16:0.390034 17:0.12336 18:0.00791557 19:0.298062 20:0.174603 21:0.419525 22:0.0844327 23:0.994723 24:0.00263852 25:1 26:0.351519 27:0.511873 28:0.323219 29:0.770449 30:0.868074 31:0.992084 32:0.278039 33:0.440633 34:0.157513 35:0.155266 36:0.197615 37:0.501319 38:0.37419 
90.5096679919 1:0.491086 2:1 3:0.151948 4:0.279312 5:0.0111627 6:0.00162206 7:0.249391 8:0.552311 9:0.746148 10:0.714429 11:0.731549 12:0.236479 13:0.722628 14:0.740211 15:0.163149 16:0.377983 17:0.123421 18:0.00567721 19:0.204445 20:0.108766 21:0.47283 22:0.0121655 23:0.99189 24:0.00081103 25:1 26:0.432201 27:0.386861 28:0.408556 29:0.767234 30:0.985401 31:0.995134 32:0.53542 33:0.524736 34:0.112487 35:0.132238 36:0.266271 37:0.38466 38:0.321463 
32.81063219889669 1:0.472103 2:1 3:0.13429 4:0.295174 5:0.00607869 6:0.00716332 7:0.25801 8:0.389685 9:0.706304 10:0.7378 11:0.702006 12:0.283517 13:0.660458 14:0.819045 15:0.116212 16:0.201486 17:0.177434 18:0.0100287 19:0.241264 20:0.097561 21:0.517192 22:0.00143266 23:0.997135 24:0.00573066 25:1 26:0.411729 27:0.467049 28:0.402937 29:0.789398 30:0.987106 31:0.998567 32:0.415505 33:0.621777 34:0.13108 35:0.123403 36:0.311614 37:0.37454 38:0.362073 
90.5096679919 1:0.557875 2:1 3:0.12654 4:0.334529 5:0.0108311 6:0.00569801 7:0.372775 8:0.408357 9:0.74264 10:0.856102 11:0.744539 12:0.323887 13:0.683761 14:0.767577 15:0.109316 16:0.196926 17:0.127194 18:0.00189934 19:0.244359 20:0.129278 21:0.517569 22:0.00379867 23:1 24:0.000949668 25:0.987654 26:0.435591 27:0.483381 28:0.338319 29:0.818613 30:0.996201 31:0.993352 32:0.358361 33:0.560304 34:0.16296 35:0.127931 36:0.272814 37:0.438204 38:0.35224 
90.5096679919 1:0.407821 2:1 3:0.077757 4:0.348819 5:0.00403404 6:0.0149254 7:0.327431 8:0.44403 9:0.643657 10:0.674347 11:0.699627 12:0.214061 13:0.76306 14:0.708895 15:0.125234 16:0.275789 17:0.0871591 18:0.00186567 19:0.220514 20:0.0859813 21:0.33209 22:0.0130597 23:0.98694 24:0.0335821 25:1 26:0.273411 27:0.492537 28:0.41278 29:0.79291 30:0.964552 31:0.998134 32:0.397014 33:0.610075 34:0.0978579 35:0.238318 36:0.356028 37:0.554371 38:0.251018 
90.5096679919 1:0.345738 2:1 3:0.120144 4:0.402495 5:0.00530504 6:0.00240385 7:0.15505 8:0.43149 9:0.635817 10:0.751725 11:0.802885 12:0.223937 13:0.722356 14:0.790458 15:0.0938628 16:0.301055 17:0.146382 18:0.015625 19:0.236351 20:0.111913 21:0.439904 22:0.0576923 23:0.995192 24:0.00120192 25:1 26:0.320254 27:0.550481 28:0.422175 29:0.762019 30:0.998798 31:0.973558 32:0.437159 33:0.55649 34:0.122296 35:0.18996 36:0.25526 37:0.442995 38:0.334353 
90.5096679919 1:0.399671 2:1 3:0.126997 4:0.379386 5:0.00447613 6:0.00823723 7:0.139498 8:0.476112 9:0.691928 10:0.680563 11:0.724876 12:0.258389 13:0.69028 14:0.75978 15:0.123762 16:0.275663 17:0.112076 18:0.00164745 19:0.24814 20:0.0990099 21:0.46458 22:0.00494234 23:0.998353 24:0.0131796 25:1 26:0.410746 27:0.448105 28:0.389209 29:0.825371 30:0.973641 31:0.995058 32:0.387655 33:0.594728 34:0.138906 35:0.17366 36:0.240014 37:0.43069 38:0.311517 
90.5096679919 1:0.346069 2:1 3:0.104077 4:0.372102 5:0.00867595 6:0.00294118 7:0.0928424 8:0.655147 9:0.738235 10:0.721876 11:0.731618 12:0.312693 13:0.773529 14:0.738131 15:0.0897719 16:0.320796 17:0.161864 18:0.00147059 19:0.186122 20:0.131714 21:0.521324 22:0.0132353 23:1 24:0.000735294 25:0.999265 26:0.292481 27:0.477206 28:0.412684 29:0.744853 30:0.994118 31:0.991912 32:0.395386 33:0.457353 34:0.107263 35:0.204764 36:0.255739 37:0.432773 38:0.387701 
14.2714966344367 1:0.367865 2:1 3:0.141017 4:0.324986 5:0.00641026 6:0.00634921 7:0.476485 8:0.550265 9:0.732275 10:0.340451 11:0.716402 12:0.292955 13:0.691005 14:0.781533 15:0.133475 16:0.292213 17:0.138524 18:0.00529101 19:0.213623 20:0.0858051 21:0.440212 22:0.0010582 23:1 24:0.0031746 25:0.992593 26:0.424953 27:0.444444 28:0.390212 29:0.819048 30:0.98836 31:0.997884 32:0.410878 33:0.534392 34:0.151155 35:0.138279 36:0.29965 37:0.40514 38:0.329004 
90.5096679919 1:0.560364 2:1 3:0.121096 4:0.287493 5:0.00906278 6:0.0114025 7:0.174349 8:0.428734 9:0.709236 10:0.667859 11:0.694413 12:0.373282 13:0.733181 14:0.749788 15:0.119863 16:0.230593 17:0.128448 18:0.0022805 19:0.172938 20:0.150685 21:0.597491 22:0.00912201 23:0.996579 24:0.00114025 25:1 26:0.332034 27:0.427594 28:0.387685 29:0.797035 30:0.992018 31:0.99886 32:0.446987 33:0.561003 34:0.110155 35:0.150169 36:0.304166 37:0.451214 38:0.362807 
70.0231182373291 1:0.813743 2:1 3:0.222722 4:0.32666 5:0.00828912 6:0.00362319 7:0.647461 8:0.445652 9:0.84058 10:0.704748 11:0.646739 12:0.352784 13:0.746377 14:0.762193 15:0.119782 16:0.215724 17:0.189494 18:0.0108696 19:0.195173 20:0.0998185 21:0.628623 22:0.00543478 23:0.998188 24:0.00181159 25:1 26:0.382714 27:0.436594 28:0.387228 29:0.713768 30:0.985507 31:0.994565 32:0.529884 33:0.461957 34:0.109921 35:0.10468 36:0.260211 37:0.292443 38:0.517128 
90.5096679919 1:0.291188 2:1 3:0.130499 4:0.323367 5:0.00419982 6:0.00383632 7:0.110549 8:0.575448 9:0.794118 10:0.789093 11:0.705882 12:0.2746 13:0.764706 14:0.742437 15:0.0870679 16:0.262544 17:0.159648 18:0.00511509 19:0.286239 20:0.121639 21:0.457801 22:0.0102302 23:0.998721 24:0.00127877 25:0.992327 26:0.367503 27:0.494885 28:0.359655 29:0.765985 30:0.997442 31:1 32:0.330387 33:0.496164 34:0.149842 35:0.138635 36:0.216478 37:0.420168 38:0.409207 
90.5096679919 1:0.501129 2:1 3:0.12263 4:0.270598 5:0.0040893 6:0.00226244 7:0.144651 8:0.533937 9:0.714932 10:0.664141 11:0.778281 12:0.278638 13:0.658371 14:0.777079 15:0.120181 16:0.366956 17:0.112633 18:0.00452489 19:0.179851 20:0.138322 21:0.436652 22:0.0633484 23:0.997738 24:0.0248869 25:0.99095 26:0.331557 27:0.486425 28:0.384615 29:0.78733 30:0.979638 31:1 32:0.498067 33:0.49095 34:0.0907832 35:0.222573 36:0.304078 37:0.488041 38:0.320856 
52.82597930332105 1:0.40367 2:1 3:0.121227 4:0.287148 5:0.00486295 6:0.00306279 7:0.298295 8:0.448698 9:0.548239 10:0.382596 11:0.785605 12:0.177319 13:0.742726 14:0.76739 15:0.122699 16:0.323842 17:0.116606 18:0.00153139 19:0.323564 20:0.130368 21:0.277182 22:0.0137825 23:0.995406 24:0.0229709 25:1 26:0.323519 27:0.546708 28:0.384763 29:0.761103 30:0.998469 31:0.972435 32:0.417338 33:0.58193 34:0.129106 35:0.189344 36:0.29538 37:0.479107 38:0.339691 
90.5096679919 1:0.631188 2:1 3:0.155224 4:0.317822 5:0.00469717 6:0.00496278 7:0.0659547 8:0.456576 9:0.652605 10:0.473872 11:0.769231 12:0.389186 13:0.682382 14:0.736898 15:0.149254 16:0.259821 17:0.063041 18:0.00248139 19:0.285502 20:0.0920398 21:0.540943 22:0.0521092 23:0.992556 24:0.0421836 25:1 26:0.429761 27:0.486352 28:0.384615 29:0.833747 30:0.995037 31:0.883375 32:0.397651 33:0.51861 34:0.15577 35:0.198857 36:0.216397 37:0.475009 38:0.243627 
90.5096679919 1:0.463576 2:1 3:0.147583 4:0.387566 5:0.00386826 6:0.00442478 7:0.163669 8:0.438053 9:0.661504 10:0.483562 11:0.79646 12:0.381928 13:0.665929 14:0.738706 15:0.13082 16:0.249824 17:0.0966498 18:0.00221239 19:0.166616 20:0.0909091 21:0.528761 22:0.0353982 23:0.988938 24:0.0110619 25:1 26:0.408436 27:0.477876 28:0.356748 29:0.789823 30:0.960177 31:0.99115 32:0.433394 33:0.548673 34:0.152503 35:0.161546 36:0.279192 37:0.505689 38:0.265487 
90.5096679919 1:0.346334 2:1 3:0.123693 4:0.269127 5:0.0040893 6:0.0125 7:0.248735 8:0.467187 9:0.648438 10:0.610396 11:0.835938 12:0.222039 13:0.653125 14:0.75119 15:0.104851 16:0.325608 17:0.182434 18:0.0015625 19:0.245151 20:0.0985915 21:0.448437 22:0.015625 23:1 24:0.00625 25:0.996875 26:0.28251 27:0.476562 28:0.455078 29:0.757812 30:0.990625 31:0.998437 32:0.645503 33:0.546875 34:0.0658662 35:0.134604 36:0.310998 37:0.388393 38:0.392045 
90.5096679919 1:0.356952 2:1 3:0.0864343 4:0.304522 5:0.00491821 6:0.00937082 7:0.139029 8:0.433735 9:0.705489 10:0.733258 11:0.745649 12:0.245191 13:0.70415 14:0.726807 15:0.128686 16:0.248735 17:0.115502 18:0.00267738 19:0.252043 20:0.0965147 21:0.495315 22:0.00133869 23:0.997323 24:0.0254351 25:1 26:0.392365 27:0.460509 28:0.40328 29:0.804552 30:0.987952 31:0.998661 32:0.395799 33:0.589023 34:0.166505 35:0.128862 36:0.284306 37:0.455154 38:0.277474 
90.5096679919 1:0.142731 2:1 3:0.194598 4:0.321758 5:0.00298408 6:0.00176367 7:0.110736 8:0.424162 9:0.710758 10:0.569328 11:0.843915 12:0.240416 13:0.621693 14:0.760292 15:0.153575 16:0.210017 17:0.142258 18:0.00440917 19:0.299773 20:0.0935569 21:0.462963 22:0.0114638 23:0.999118 24:0.000881834 25:1 26:0.421261 27:0.59612 28:0.42769 29:0.771605 30:0.994709 31:0.995591 32:0.526615 33:0.530864 34:0.0996649 35:0.149151 36:0.27866 37:0.333837 38:0.368767 
90.5096679919 1:0.550544 2:1 3:0.110328 4:0.359642 5:0.00652078 6:0.00311526 7:0.338673 8:0.422118 9:0.71028 10:0.657246 11:0.739875 12:0.275455 13:0.654206 14:0.799369 15:0.099844 16:0.233452 17:0.137585 18:0.00155763 19:0.278601 20:0.148206 21:0.579439 22:0.0046729 23:0.993769 24:0.00778816 25:1 26:0.349814 27:0.475078 28:0.334891 29:0.839564 30:0.998442 31:0.933022 32:0.256886 33:0.546729 34:0.150539 35:0.131027 36:0.24291 37:0.47174 38:0.396488 
90.5096679919 1:0.374541 2:1 3:0.183755 4:0.43459 5:0.0056366 6:0.00490196 7:0.151302 8:0.563725 9:0.567402 10:0.878812 11:0.810049 12:0.190918 13:0.738971 14:0.776836 15:0.122699 16:0.353505 17:0.201496 18:0.00367647 19:0.324304 20:0.133742 21:0.316176 22:0.00980392 23:0.997549 24:0.00122549 25:0.990196 26:0.333531 27:0.568627 28:0.410539 29:0.776961 30:0.998775 31:1 32:0.39526 33:0.557598 34:0.0932081 35:0.106778 36:0.304272 37:0.336134 38:0.474599 
90.5096679919 1:0.34629 2:1 3:0.176812 4:0.436281 5:0.00541556 6:0.00235849 7:0.356567 8:0.550708 9:0.558962 10:0.876831 11:0.817217 12:0.172542 13:0.804245 14:0.781539 15:0.12987 16:0.358324 17:0.187899 18:0.00471698 19:0.328101 20:0.120425 21:0.288915 22:0.00353774 23:0.982311 24:0.00117925 25:0.998821 26:0.370321 27:0.596698 28:0.411262 29:0.758255 30:1 31:0.991745 32:0.410074 33:0.554245 34:0.10423 35:0.109912 36:0.297629 37:0.341981 38:0.430961 
90.5096679919 1:0.818182 2:1 3:0.137674 4:0.336397 5:0.00845491 6:0.00178571 7:0.104272 8:0.607143 9:0.7375 10:0.734344 11:0.7125 12:0.216165 13:0.796429 14:0.793483 15:0.0822898 16:0.383123 17:0.175901 18:0.0142857 19:0.289511 20:0.143113 21:0.451786 22:0.0160714 23:0.998214 24:0.00357143 25:0.980357 26:0.367051 27:0.480357 28:0.361607 29:0.726786 30:1 31:0.983929 32:0.409592 33:0.535714 34:0.134057 35:0.119474 36:0.225348 37:0.390306 38:0.444805 
90.5096679919 1:0.448148 2:1 3:0.164752 4:0.322001 5:0.00668656 6:0.00247219 7:0.215571 8:0.501854 9:0.742892 10:0.58765 11:0.718171 12:0.197775 13:0.716934 14:0.749641 15:0.128713 16:0.300732 17:0.16184 18:0.0111248 19:0.250828 20:0.115099 21:0.46848 22:0.00370828 23:1 24:0.00123609 25:0.998764 26:0.378763 27:0.469716 28:0.39555 29:0.787392 30:0.995056 31:0.996292 32:0.39512 33:0.57602 34:0.129589 35:0.136507 36:0.28915 37:0.383189 38:0.393303 
59.59269147429662 1:0.4 2:1 3:0.105438 4:0.359069 5:0.00641026 6:0.00460299 7:0.0784148 8:0.524741 9:0.634062 10:0.322572 11:0.78481 12:0.146569 13:0.710012 14:0.729275 15:0.126728 16:0.274061 17:0.112114 18:0.00345224 19:0.303321 20:0.125576 21:0.310702 22:0.0023015 23:0.98504 24:0.00115075 25:1 26:0.361372 27:0.545455 28:0.389816 29:0.797468 30:0.988493 31:0.996548 32:0.461684 33:0.52359 34:0.137189 35:0.160879 36:0.311688 37:0.455367 38:0.326394 
90.5096679919 1:0.36918 2:1 3:0.120178 4:0.258949 5:0.00613395 6:0.0099889 7:0.201237 8:0.45283 9:0.698113 10:0.592011 11:0.81576 12:0.24651 13:0.680355 14:0.787884 15:0.115556 16:0.297369 17:0.165571 18:0.00110988 19:0.283261 20:0.101111 21:0.45838 22:0.00332963 23:0.99889 24:0.0110988 25:1 26:0.340088 27:0.557159 28:0.414817 29:0.758047 30:0.974473 31:0.993341 32:0.465869 33:0.513873 34:0.118623 35:0.150661 36:0.224325 37:0.42651 38:0.347089 
90.5096679919 1:0.463291 2:1 3:0.134619 4:0.294838 5:0.00674182 6:0.00380228 7:0.200675 8:0.509506 9:0.782003 10:0.670085 11:0.68948 12:0.241478 13:0.740177 14:0.747485 15:0.138325 16:0.25371 17:0.132501 18:0.00633714 19:0.193552 20:0.107868 21:0.520913 22:0.00253485 23:0.998733 24:0.00126743 25:0.99493 26:0.407662 27:0.397972 28:0.394487 29:0.785805 30:1 31:0.992395 32:0.434444 33:0.555133 34:0.149814 35:0.136119 36:0.334189 37:0.405577 38:0.338749 
