svm_type c_svc
kernel_type rbf
gamma 0.125
nr_class 2
total_sv 9428
rho 72.9939
label 0 1
probA -1.48398
probB 0.157284
nr_sv 4709 4719
SV
16284 1:0.0582915 2:0.483067 3:0.160099 4:1 
16284 1:0.039196 2:0.634087 3:0.838342 4:1 
16284 1:0.157789 2:0.663505 3:0.37295 4:1 
16284 1:0.0452261 2:0.681094 3:0.231683 
16284 1:0.0623116 2:0.733412 3:0.477288 
16284 1:0.0914573 2:0.649952 3:0.675923 
16284 1:0.148744 2:0.299972 3:0.622753 4:1 
16284 1:0.0824121 2:0.354773 3:0.31687 4:1 
16284 1:0.0753769 2:0.66923 3:0.121035 4:1 
16284 1:0.0623116 2:0.591116 3:0.303072 4:1 
16284 1:0.0944724 2:0.249103 3:0.144888 4:1 
16284 1:0.168844 2:0.310388 3:0.4732 4:1 
16284 1:0.112563 2:0.267485 3:0.346494 4:1 
16284 1:0.110553 2:0.211477 3:0.592909 4:1 
16284 1:0.0271357 2:0.702476 3:0.851294 4:1 
16284 1:0.0743719 2:0.687267 3:0.316797 4:1 
16284 1:0.0874372 2:0.50569 3:0.543692 4:1 
16284 1:0.124623 2:0.382984 3:0.734311 4:1 
16284 1:0.0271357 2:0.299593 3:0.629837 
16284 1:0.0994975 2:0.583253 3:0.104903 4:1 
16284 1:0.130653 2:0.169196 3:0.553526 4:1 
16284 1:0.0603015 2:0.6743 3:0.128879 4:1 
16284 1:0.108543 2:0.308249 3:0.682958 4:1 
16284 1:0.211055 2:0.322734 3:0.559357 4:1 
16284 1:0.081407 2:0.773969 3:0.303342 4:1 
16284 1:0.0904523 2:0.561905 3:0.605947 4:1 
16284 1:0.0964824 2:0.427611 3:0.629334 4:1 
16284 1:0.0723618 2:0.412022 3:0.476932 
16284 1:0.0582915 2:0.709098 3:0.568319 
16284 1:0.0532663 2:0.579701 3:0.864405 4:1 
16284 1:0.0673367 2:0.966616 3:0.064943 
16284 1:0.0824121 2:0.460546 3:0.74725 4:1 
16284 1:0.0733668 2:0.595944 3:0.154599 4:1 
16284 1:0.104523 2:0.637226 3:0.54654 4:1 
16284 1:0.0703518 2:0.49431 3:0.281195 4:1 
16284 1:0.0532663 2:0.706718 3:0.46495 
16284 1:0.0532663 2:0.617637 3:0.598495 4:1 
16284 1:0.0743719 2:0.526969 3:0.282926 4:1 
16284 1:0.0572864 2:0.720927 3:0.613877 4:1 
16284 1:0.60603 2:0.790109 3:0.597746 4:1 
16284 1:0.120603 2:0.836391 3:0.130156 4:1 
16284 1:0.0703518 2:0.625569 3:0.713146 4:1 
16284 1:0.0924623 2:0.539937 3:0.735649 4:1 
16284 1:0.18392 2:0.524728 3:0.621636 4:1 
16284 1:0.146734 2:0.345013 3:0.703226 4:1 
16284 1:0.078392 2:0.786488 3:0.723814 4:1 
16284 1:0.038191 2:0.723445 3:0.706222 4:1 
16284 1:0.0502513 2:0.80418 3:0.461501 
16284 1:0.110553 2:0.541868 3:0.66237 
16284 1:0.117588 2:0.764312 3:0.673345 4:1 
16284 1:0.0321608 2:0.861636 3:0.277033 
16284 1:0.0914573 2:0.33746 3:0.440962 4:1 
16284 1:0.0954774 2:0.256587 3:0.264204 4:1 
16284 1:0.0673367 2:0.855152 3:0.742192 4:1 
16284 1:0.229146 2:0.340116 3:0.588391 4:1 
16284 1:0.0894472 2:0.582667 3:0.663413 4:1 
16284 1:0.139698 2:0.442095 3:0.522638 4:1 
16284 1:0.0582915 2:0.689371 3:0.828202 4:1 
16284 1:0.0904523 2:0.462202 3:0.55166 4:1 
16284 1:0.041206 2:0.681094 3:0.683707 4:1 
16284 1:0.115578 2:0.293178 3:0.612994 4:1 
16284 1:0.0974874 2:0.554214 3:0.295288 4:1 
16284 1:0.0753769 2:0.581425 3:0.198954 4:1 
16284 1:0.0834171 2:0.493034 3:0.55085 4:1 
16284 1:0.0633166 2:0.588081 3:0.589901 4:1 
16284 1:0.079397 2:0.746965 3:0.236434 4:1 
16284 1:0.0552764 2:0.701235 3:0.657005 4:1 
16284 1:0.0422111 2:0.632122 3:0.177802 4:1 
16284 1:0.0824121 2:0.483412 3:0.553342 4:1 
16284 1:0.110553 2:0.64164 3:0.531784 4:1 
16284 1:0.122613 2:0.206132 3:0.644348 4:1 
16284 1:0.0984925 2:0.835012 3:0.477374 
16284 1:0.111558 2:0.269692 3:0.581406 4:1 
16284 1:0.0924623 2:0.51007 3:0.666126 4:1 
16284 1:0.21608 2:0.674852 3:0.592295 4:1 
16284 1:0.145729 2:0.34053 3:0.414322 4:1 
16284 1:0.079397 2:0.383191 3:0.182147 4:1 
16284 1:0.0954774 2:0.556249 3:0.503143 4:1 
16284 1:0.0603015 2:0.640019 3:0.528347 4:1 
16284 1:0.120603 2:0.268278 3:0.137964 4:1 
16284 1:0.078392 2:0.253863 3:0.139597 4:1 
16284 1:0.107538 2:0.420713 3:0.864958 4:1 
16284 1:0.121608 2:0.29542 3:0.550506 4:1 
16284 1:0.108543 2:0.665885 3:0.173492 4:1 
16284 1:0.0894472 2:0.469548 3:0.882047 4:1 
16284 1:0.079397 2:0.49431 3:0.360821 4:1 
16284 1:0.134673 2:0.474928 3:0.751743 4:1 
16284 1:0.0984925 2:0.484791 3:0.69904 4:1 
16284 1:0.0974874 2:0.289695 3:0.246489 4:1 
16284 1:0.332663 2:0.443199 3:0.84685 4:1 
16284 1:0.0442211 2:0.840254 3:0.475361 4:1 
16284 1:0.0854271 2:0.368637 3:0.298898 4:1 
16284 1:0.0562814 2:0.638916 3:0.474993 4:1 
16284 1:0.0824121 2:0.322941 3:0.230689 4:1 
16284 1:0.234171 2:0.689785 3:0.17461 4:1 
16284 1:0.0673367 2:0.644399 3:0.623146 
16284 1:0.126633 2:0.31594 3:0.300236 4:1 
16284 1:0.0874372 2:0.751552 3:0.172645 
16284 1:0.0713568 2:0.557525 3:0.684099 4:1 
16284 1:0.18392 2:0.738343 3:0.139744 
16284 1:0.0914573 2:0.414402 3:0.646742 4:1 
16284 1:0.0844221 2:0.464167 3:0.794662 4:1 
16284 1:0.0633166 2:0.682404 3:0.674487 4:1 
16284 1:0.114573 2:0.633984 3:0.698758 4:1 
16284 1:0.175879 2:0.510484 3:0.685082 4:1 
16284 1:0.104523 2:0.469961 3:0.368236 4:1 
16284 1:0.0542714 2:0.44282 3:0.547326 
16284 1:0.125628 2:0.233929 3:0.601269 4:1 
16284 1:0.0954774 2:0.603842 3:0.486999 4:1 
16284 1:0.0572864 2:0.621362 3:0.112441 4:1 
16284 1:0.039196 2:0.719306 3:0.775633 4:1 
16284 1:0.0854271 2:0.741068 3:0.286191 
16284 1:0.0904523 2:0.46334 3:0.72622 4:1 
16284 1:0.0693467 2:0.418368 3:0.142015 4:1 
16284 1:0.0361809 2:0.823114 3:0.679201 
16284 1:0.0482412 2:0.800938 3:0.527205 4:1 
16284 1:0.134673 2:0.385777 3:0.521509 4:1 
16284 1:0.080402 2:0.526693 3:0.684848 4:1 
16284 1:0.078392 2:0.491309 3:0.642813 4:1 
16284 1:0.156784 2:0.27221 3:0.737024 4:1 
16284 1:0.081407 2:0.465409 3:0.634478 
16284 1:0.108543 2:0.541695 3:0.672473 4:1 
16284 1:0.0703518 2:0.482963 3:0.347181 4:1 
16284 1:0.0924623 2:0.350186 3:0.563335 4:1 
16284 1:0.0733668 2:0.44113 3:0.276873 4:1 
16284 1:0.2 2:0.803835 3:0.214054 
16284 1:0.0934673 2:0.252069 3:0.19106 4:1 
16284 1:0.114573 2:0.546351 3:0.365363 4:1 
16284 1:0.0422111 2:0.698441 3:0.525584 4:1 
16284 1:0.0733668 2:0.562388 3:0.265235 4:1 
16284 1:0.0452261 2:0.693371 3:0.679606 4:1 
16284 1:0.0693467 2:0.564388 3:0.695639 4:1 
16284 1:0.081407 2:0.633881 3:0.297756 4:1 
16284 1:0.102513 2:0.239343 3:0.231843 4:1 
16284 1:0.0452261 2:0.465995 3:0.592835 
16284 1:0.132663 2:0.237378 3:0.724661 4:1 
16284 1:0.162814 2:0.384018 3:0.534804 4:1 
16284 1:0.180905 2:0.453683 3:0.78985 4:1 
16284 1:0.0733668 2:0.805559 3:0.704957 4:1 
16284 1:0.122613 2:0.33884 3:0.595143 4:1 
16284 1:0.078392 2:0.662264 3:0.805122 4:1 
16284 1:0.112563 2:0.514657 3:0.522196 4:1 
16284 1:0.0894472 2:0.532487 3:0.609568 4:1 
16284 1:0.0341709 2:0.451338 3:0.649062 
16284 1:0.0753769 2:0.682335 3:0.0914113 4:1 
16284 1:0.150754 2:0.348186 3:0.574764 4:1 
16284 1:0.0864322 2:0.797144 3:0.550309 4:1 
16284 1:0.0894472 2:0.404608 3:0.600815 4:1 
16284 1:0.0653266 2:0.746413 3:0.201618 4:1 
16284 1:0.110553 2:0.45927 3:0.176476 
16284 1:0.0844221 2:0.463202 3:0.468793 4:1 
16284 1:0.123618 2:0.475169 3:0.183326 4:1 
16284 1:0.0502513 2:0.718685 3:0.733599 
16284 1:0.118593 2:0.429197 3:0.75852 4:1 
16284 1:0.142714 2:0.403297 3:0.182135 4:1 
16284 1:0.109548 2:0.501828 3:0.349845 4:1 
16284 1:0.0623116 2:0.743309 3:0.0737576 4:1 
16284 1:0.179899 2:0.678335 3:0.375233 
16284 1:0.0884422 2:0.403918 3:0.598348 4:1 
16284 1:0.0904523 2:0.429094 3:0.635312 4:1 
16284 1:0.0542714 2:0.650848 3:0.712925 4:1 
16284 1:0.109548 2:0.519485 3:0.674818 4:1 
16284 1:0.120603 2:0.540488 3:0.506899 4:1 
16284 1:0.0994975 2:0.309732 3:0.360612 4:1 
16284 1:0.133668 2:0.526004 3:0.450304 4:1 
16284 1:0.0824121 2:0.480859 3:0.462642 4:1 
16284 1:0.041206 2:0.710857 3:0.121329 4:1 
16284 1:0.0623116 2:0.624259 3:0.540648 
16284 1:0.121608 2:0.389399 3:0.845364 4:1 
16284 1:0.120603 2:0.424679 3:0.710077 4:1 
16284 1:0.00502513 2:0.622982 3:0.529537 
16284 1:0.0974874 2:0.463409 3:0.610072 4:1 
16284 1:0.0592965 2:0.700235 3:0.465012 4:1 
16284 1:0.0984925 2:0.463512 3:0.576814 
16284 1:0.0462312 2:0.838323 3:0.590049 4:1 
16284 1:0.0633166 2:0.559801 3:0.328963 4:1 
16284 1:0.0743719 2:0.477238 3:0.603541 4:1 
16284 1:0.0522613 2:0.418609 3:0.804557 
16284 1:0.0713568 2:0.701166 3:0.349428 4:1 
16284 1:0.0713568 2:0.483894 3:0.645391 
16284 1:0.146734 2:0.322044 3:0.681767 4:1 
16284 1:0.0994975 2:0.588978 3:0.284767 4:1 
16284 1:0.0673367 2:0.626017 3:0.144974 4:1 
16284 1:0.0874372 2:0.552387 3:0.70616 4:1 
16284 1:0.0743719 2:0.451131 3:0.252541 4:1 
16284 1:0.0954774 2:0.606118 3:0.616382 4:1 
16284 1:0.0723618 2:0.750586 3:0.684455 4:1 
16284 1:0.119598 2:0.208787 3:0.45109 4:1 
16284 1:0.127638 2:0.396675 3:0.687856 4:1 
16284 1:0.0462312 2:0.420679 3:0.739847 
16284 1:0.106533 2:0.393813 3:0.599379 4:1 
16284 1:0.0924623 2:0.456304 3:0.618665 4:1 
16284 1:0.0844221 2:0.632432 3:0.30204 
16284 1:0.109548 2:0.675266 3:0.620433 
16284 1:0.0844221 2:0.363843 3:0.259011 4:1 
16284 1:0.039196 2:0.721134 3:0.329957 4:1 
16284 1:0.139698 2:0.769141 3:0.316183 4:1 
16284 1:0.0763819 2:0.517416 3:0.655225 4:1 
16284 1:0.0733668 2:0.427059 3:0.12678 4:1 
16284 1:0.194975 2:0.71334 3:0.597586 
16284 1:0.111558 2:0.616016 3:0.144618 4:1 
16284 1:0.114573 2:0.315285 3:0.316269 4:1 
16284 1:0.115578 2:0.344668 3:0.664359 4:1 
16284 1:0.107538 2:0.369189 3:0.857211 
16284 1:0.144724 2:0.232135 3:0.563372 4:1 
16284 1:0.00201005 2:0.7978 3:0.205227 
16284 1:0.115578 2:0.386881 3:0.437365 4:1 
16284 1:0.145729 2:0.296696 3:0.800911 4:1 
16284 1:0.0653266 2:0.73724 3:0.27896 4:1 
16284 1:0.078392 2:0.648124 3:0.523375 4:1 
16284 1:0.0301508 2:0.499655 3:0.347476 
16284 1:0.0613065 2:0.718823 3:0.649074 4:1 
16284 1:0.105528 2:0.477721 3:0.813089 4:1 
16284 1:0.135678 2:0.658953 3:0.809198 4:1 
16284 1:0.177889 2:0.295558 3:0.591902 4:1 
16284 1:0.0974874 2:0.422369 3:0.487957 4:1 
16284 1:0.0311558 2:0.56694 3:0.232813 
16284 1:0.0693467 2:0.567113 3:0.662051 4:1 
16284 1:0.179899 2:0.501414 3:0.558044 4:1 
16284 1:0.0623116 2:0.641019 3:0.673186 4:1 
16284 1:0.0974874 2:0.440819 3:0.723593 4:1 
16284 1:0.114573 2:0.423196 3:0.710248 4:1 
16284 1:0.0713568 2:0.600497 3:0.556742 4:1 
16284 1:0.080402 2:0.472376 3:0.678464 4:1 
16284 1:0.0703518 2:0.407573 3:0.177507 4:1 
16284 1:0.0663317 2:0.544696 3:0.686874 4:1 
16284 1:0.0834171 2:0.330942 3:0.213354 4:1 
16284 1:0.115578 2:0.336253 3:0.626608 4:1 
16284 1:0.157789 2:0.658677 3:0.616001 
16284 1:0.134673 2:0.576562 3:0.609998 4:1 
16284 1:0.038191 2:0.383432 3:0.625663 
16284 1:0.0512563 2:0.694785 3:0.329749 
16284 1:0.0683417 2:0.560733 3:0.658208 4:1 
16284 1:0.0753769 2:0.61036 3:0.359286 4:1 
16284 1:0.109548 2:0.362878 3:0.457363 4:1 
16284 1:0.0974874 2:0.448234 3:0.606622 4:1 
16284 1:0.0341709 2:0.667299 3:0.276223 
16284 1:0.081407 2:0.574596 3:0.511528 4:1 
16284 1:0.0311558 2:0.669679 3:0.88282 4:1 
16284 1:0.0844221 2:0.314733 3:0.141254 4:1 
16284 1:0.0562814 2:0.581184 3:0.680232 4:1 
16284 1:0.0944724 2:0.445924 3:0.856278 4:1 
16284 1:0.0964824 2:0.388226 3:0.658527 4:1 
16284 1:0.0562814 2:0.389123 3:0.276431 
16284 1:0.0884422 2:0.839943 3:0.687905 
16284 1:0.0572864 2:0.291626 3:0.479142 
16284 1:0.178894 2:0.369603 3:0.378131 4:1 
16284 1:0.0934673 2:0.478859 3:0.26235 4:1 
16284 1:0.124623 2:0.522141 3:0.834892 4:1 
16284 1:0.107538 2:0.658056 3:0.582842 
16284 1:0.100503 2:0.254656 3:0.347832 4:1 
16284 1:0.0623116 2:0.764761 3:0.456246 
16284 1:0.0633166 2:0.688095 3:0.609495 4:1 
16284 1:0.0733668 2:0.689819 3:0.166568 4:1 
16284 1:0.107538 2:0.488102 3:0.629935 4:1 
16284 1:0.0643216 2:0.565423 3:0.649971 
16284 1:0.0733668 2:0.410677 3:0.281244 4:1 
16284 1:0.139698 2:0.394537 3:0.584905 4:1 
16284 1:0.0512563 2:0.783039 3:0.715171 4:1 
16284 1:0.0522613 2:0.68875 3:0.460555 4:1 
16284 1:0.0502513 2:0.244379 3:0.174229 
16284 1:0.102513 2:0.3506 3:0.69451 4:1 
16284 1:0.080402 2:0.198752 3:0.609998 
16284 1:0.110553 2:0.262519 3:0.303784 4:1 
16284 1:0.0904523 2:0.380535 3:0.595549 4:1 
16284 1:0.081407 2:0.543592 3:0.358206 4:1 
16284 1:0.157789 2:0.65947 3:0.160393 4:1 
16284 1:0.0874372 2:0.57639 3:0.517776 4:1 
16284 1:0.0884422 2:0.382363 3:0.637277 4:1 
16284 1:0.136683 2:0.388571 3:0.654709 
16284 1:0.190955 2:0.86067 3:0.637436 4:1 
16284 1:0.0884422 2:0.479135 3:0.295337 4:1 
16284 1:0.0643216 2:0.537591 3:0.658662 
16284 1:0.0592965 2:0.51852 3:0.245016 4:1 
16284 1:0.127638 2:0.55487 3:0.592393 4:1 
16284 1:0.079397 2:0.759001 3:0.350962 4:1 
16284 1:0.0914573 2:0.441199 3:0.580191 4:1 
16284 1:0.0693467 2:0.57232 3:0.705178 4:1 
16284 1:0.0462312 2:0.673955 3:0.649516 4:1 
16284 1:0.137688 2:0.454925 3:0.527941 4:1 
16284 1:0.0572864 2:0.861188 3:0.203619 4:1 
16284 1:0.0733668 2:0.640744 3:0.754604 4:1 
16284 1:0.0331658 2:0.537074 3:0.747471 
16284 1:0.0261307 2:0.730446 3:0.929741 4:1 
16284 1:0.0231156 2:0.538212 3:0.590098 
16284 1:0.132663 2:0.223996 3:0.652868 4:1 
16284 1:0.118593 2:0.660022 3:0.652426 4:1 
16284 1:0.0703518 2:0.592082 3:0.768845 4:1 
16284 1:0.0743719 2:0.625224 3:0.235231 4:1 
16284 1:0.0753769 2:0.489205 3:0.610047 4:1 
16284 1:0.109548 2:0.211305 3:0.500368 4:1 
16284 1:0.0844221 2:0.438716 3:0.122483 4:1 
16284 1:0.0462312 2:0.766795 3:0.331013 4:1 
16284 1:0.101508 2:0.331287 3:0.449224 4:1 
16284 1:0.0884422 2:0.630984 3:0.648952 4:1 
16284 1:0.0512563 2:0.534108 3:0.110145 
16284 1:0.080402 2:0.389261 3:0.141537 4:1 
16284 1:0.132663 2:0.470548 3:0.662419 4:1 
16284 1:0.128643 2:0.281694 3:0.445504 4:1 
16284 1:0.0643216 2:0.582218 3:0.440864 4:1 
16284 1:0.0673367 2:0.673438 3:0.609961 
16284 1:0.124623 2:0.384122 3:0.45438 4:1 
16284 1:0.079397 2:0.46465 3:0.301021 4:1 
16284 1:0.0502513 2:0.817975 3:0.722648 4:1 
16284 1:0.142714 2:0.503138 3:0.436567 4:1 
16284 1:0.102513 2:0.642054 3:0.333198 4:1 
16284 1:0.0512563 2:0.607601 3:0.0709217 4:1 
16284 1:0.0884422 2:0.508001 3:0.523853 4:1 
16284 1:0.101508 2:0.262105 3:0.508581 4:1 
16284 1:0.0854271 2:0.443958 3:0.714791 4:1 
16284 1:0.0753769 2:0.460857 3:0.235268 4:1 
16284 1:0.137688 2:0.372258 3:0.792096 
16284 1:0.0763819 2:0.535212 3:0.475373 4:1 
16284 1:0.101508 2:0.404849 3:0.57911 4:1 
16284 1:0.0874372 2:0.381397 3:0.610145 
16284 1:0.0934673 2:0.80449 3:0.093216 4:1 
16284 1:0.305528 2:0.405953 3:0.609802 4:1 
16284 1:0.104523 2:0.62281 3:0.516352 
16284 1:0.0472362 2:0.565492 3:0.359937 
16284 1:0.0643216 2:0.5966 3:0.618236 4:1 
16284 1:0.0512563 2:0.693889 3:0.280397 
16284 1:0.0341709 2:0.663402 3:0.881985 4:1 
16284 1:0.117588 2:0.238757 3:0.574408 4:1 
16284 1:0.140704 2:0.420334 3:0.620188 
16284 1:0.0673367 2:0.571424 3:0.315655 4:1 
16284 1:0.0743719 2:0.337736 3:0.663033 
16284 1:0.146734 2:0.356532 3:0.377492 4:1 
16284 1:0.0211055 2:0.426162 3:0.986557 
16284 1:0.20804 2:0.706442 3:0.555625 4:1 
16284 1:0.102513 2:0.361222 3:0.333407 4:1 
16284 1:0.0603015 2:0.533005 3:0.660921 
16284 1:0.0472362 2:0.539488 3:0.479203 
16284 1:0.0844221 2:0.608015 3:0.284632 4:1 
16284 1:0.0562814 2:0.637536 3:0.174229 
16284 1:0.151759 2:0.320286 3:0.508336 4:1 
16284 1:0.123618 2:0.329804 3:0.19343 
16284 1:0.122613 2:0.215857 3:0.527094 4:1 
16284 1:0.0542714 2:0.612809 3:0.658859 4:1 
16284 1:0.182915 2:0.414402 3:0.694571 4:1 
16284 1:0.149749 2:0.198476 3:0.830276 
16284 1:0.081407 2:0.476514 3:0.458677 4:1 
16284 1:0.038191 2:0.360464 3:0.18734 
16284 1:0.0934673 2:0.528521 3:0.149013 4:1 
16284 1:0.0733668 2:0.505277 3:0.82102 4:1 
16284 1:0.142714 2:0.468444 3:0.6731 4:1 
16284 1:0.122613 2:0.324493 3:0.503855 4:1 
16284 1:0.0773869 2:0.501 3:0.638725 4:1 
16284 1:0.078392 2:0.25269 3:0.640063 
16284 1:0.0864322 2:0.444268 3:0.616812 4:1 
16284 1:0.111558 2:0.416333 3:0.569596 4:1 
16284 1:0.0723618 2:0.466995 3:0.253658 4:1 
16284 1:0.0663317 2:0.63795 3:0.477252 4:1 
16284 1:0.100503 2:0.572734 3:0.585531 4:1 
16284 1:0.0552764 2:0.636364 3:0.47924 4:1 
16284 1:0.128643 2:0.547903 3:0.295165 4:1 
16284 1:0.081407 2:0.504587 3:0.789543 4:1 
16284 1:0.112563 2:0.530625 3:0.640014 4:1 
16284 1:0.113568 2:0.692233 3:0.684824 4:1 
16284 1:0.0994975 2:0.341219 3:0.568 4:1 
16284 1:0.078392 2:0.542627 3:0.282521 
16284 1:0.104523 2:0.441199 3:0.317484 4:1 
16284 1:0.0462312 2:0.669713 3:0.459401 4:1 
16284 1:0.0703518 2:0.610601 3:0.67375 4:1 
16284 1:0.0613065 2:0.781935 3:0.328705 4:1 
16284 1:0.107538 2:0.378363 3:0.558756 4:1 
16284 1:0.128643 2:0.213305 3:0.729363 4:1 
16284 1:0.161809 2:0.282142 3:0.539457 
16284 1:0.116583 2:0.424093 3:0.651886 4:1 
16284 1:0.0753769 2:0.399469 3:0.278408 4:1 
16284 1:0.115578 2:0.344806 3:0.663143 4:1 
16284 1:0.0321608 2:0.835219 3:0.0871145 4:1 
16284 1:0.0773869 2:0.393985 3:0.269422 4:1 
16284 1:0.0994975 2:0.395986 3:0.547535 4:1 
16284 1:0.0673367 2:0.428611 3:0.112355 4:1 
16284 1:0.108543 2:0.471824 3:0.700771 4:1 
16284 1:0.238191 2:0.393468 3:0.815311 4:1 
16284 1:0.119598 2:0.752897 3:0.59205 4:1 
16284 1:0.0572864 2:0.718444 3:0.205534 4:1 
16284 1:0.106533 2:0.514243 3:0.515935 4:1 
16284 1:0.0713568 2:0.296938 3:0.642077 
16284 1:0.0763819 2:0.491171 3:0.565115 4:1 
16284 1:0.0572864 2:0.688612 3:0.350079 4:1 
16284 1:0.040201 2:0.46834 3:0.76154 
16284 1:0.119598 2:0.332908 3:0.762387 4:1 
16284 1:0.138693 2:0.547662 3:0.709659 4:1 
16284 1:0.0824121 2:0.504518 3:0.653568 4:1 
16284 1:0.0452261 2:0.775659 3:0.864896 4:1 
16284 1:0.0271357 2:0.79073 3:0.519827 
16284 1:0.135678 2:0.495793 3:0.524786 4:1 
16284 1:0.166834 2:0.36943 3:0.634809 4:1 
16284 1:0.0663317 2:0.600186 3:0.622643 4:1 
16284 1:0.0874372 2:0.56025 3:0.538634 4:1 
16284 1:0.107538 2:0.350945 3:0.453239 4:1 
16284 1:0.0663317 2:0.676266 3:0.317325 4:1 
16284 1:0.041206 2:0.723238 3:0.279513 4:1 
16284 1:0.0603015 2:0.754414 3:0.757145 4:1 
16284 1:0.039196 2:0.500931 3:0.130132 
16284 1:0.078392 2:0.674955 3:0.178329 4:1 
16284 1:0.0874372 2:0.436405 3:0.62543 4:1 
16284 1:0.567839 2:0.875604 3:0.527868 4:1 
16284 1:0.041206 2:0.721306 3:0.225631 4:1 
16284 1:0.0613065 2:0.616395 3:0.870875 4:1 
16284 1:0.0854271 2:0.75838 3:0.318135 4:1 
16284 1:0.0040201 2:0.514554 3:0.807516 
16284 1:0.128643 2:0.566423 3:0.613877 4:1 
16284 1:0.139698 2:0.463995 3:0.535528 4:1 
16284 1:0.0542714 2:0.290971 3:0.589864 
16284 1:0.142714 2:0.583943 3:0.194264 4:1 
16284 1:0.0964824 2:0.484067 3:0.659399 4:1 
16284 1:0.113568 2:0.279487 3:0.233991 4:1 
16284 1:0.119598 2:0.31256 3:0.249214 4:1 
16284 1:0.0864322 2:0.372776 3:0.44025 4:1 
16284 1:0.0964824 2:0.75907 3:0.199801 
16284 1:0.0854271 2:0.451683 3:0.347967 4:1 
16284 1:0.0592965 2:0.295248 3:0.66884 
16284 1:0.111558 2:0.24193 3:0.576237 4:1 
16284 1:0.0522613 2:0.72272 3:0.658638 4:1 
16284 1:0.0834171 2:0.548627 3:0.159018 4:1 
16284 1:0.125628 2:0.358187 3:0.603 4:1 
16284 1:0.120603 2:0.364223 3:0.27912 
16284 1:0.0934673 2:0.342047 3:0.583837 4:1 
16284 1:0.0572864 2:0.83615 3:0.161216 4:1 
16284 1:0.138693 2:0.301179 3:0.829614 4:1 
16284 1:0.0482412 2:0.633053 3:0.213379 4:1 
16284 1:0.172864 2:0.234239 3:0.655765 4:1 
16284 1:0.0673367 2:0.667816 3:0.25976 4:1 
16284 1:0.127638 2:0.465409 3:0.25631 4:1 
16284 1:0.0633166 2:0.636674 3:0.630917 4:1 
16284 1:0.081407 2:0.353876 3:0.555085 
16284 1:0.122613 2:0.270658 3:0.629248 
16284 1:0.104523 2:0.273727 3:0.603332 4:1 
16284 1:0.0432161 2:0.765933 3:0.461955 
16284 1:0.103518 2:0.509967 3:0.5412 4:1 
16284 1:0.0934673 2:0.540868 3:0.667661 4:1 
16284 1:0.113568 2:0.398365 3:0.442902 4:1 
16284 1:0.0643216 2:0.86236 3:0.609973 4:1 
16284 1:0.0944724 2:0.516037 3:0.187316 4:1 
16284 1:0.282412 2:0.824148 3:0.230578 4:1 
16284 1:0.0723618 2:0.657608 3:0.573328 4:1 
16284 1:0.114573 2:0.461477 3:0.604793 4:1 
16284 1:0.0442211 2:0.537936 3:0.0599096 4:1 
16284 1:0.040201 2:0.852049 3:0.2617 
16284 1:0.120603 2:0.535522 3:0.588269 
16284 1:0.118593 2:0.483756 3:0.660798 4:1 
16284 1:0.0582915 2:0.315664 3:0.581885 
16284 1:0.103518 2:0.461443 3:0.197284 4:1 
16284 1:0.0562814 2:0.747207 3:0.27761 4:1 
16284 1:0.0834171 2:0.312215 3:0.867892 
16284 1:0.038191 2:0.645744 3:0.134944 4:1 
16284 1:0.0572864 2:0.562836 3:0.208149 4:1 
16284 1:0.0562814 2:0.713857 3:0.710261 
16284 1:0.0854271 2:0.531522 3:0.280912 4:1 
16284 1:0.117588 2:0.437853 3:0.300052 4:1 
16284 1:0.0944724 2:0.526762 3:0.630549 4:1 
16284 1:0.117588 2:0.617499 3:0.644336 
16284 1:0.0844221 2:0.588529 3:0.614663 4:1 
16284 1:0.0261307 2:0.488792 3:0.603811 
16284 1:0.0824121 2:0.466478 3:0.174229 4:1 
16284 1:0.167839 2:0.426404 3:0.358463 4:1 
16284 1:0.0844221 2:0.40071 3:0.34836 4:1 
16284 1:0.0854271 2:0.402331 3:0.350631 4:1 
16284 1:0.103518 2:0.659815 3:0.50987 4:1 
16284 1:0.114573 2:0.377742 3:0.724489 4:1 
16284 1:0.140704 2:0.410608 3:0.6497 4:1 
16284 1:0.0824121 2:0.499724 3:0.830289 4:1 
16284 1:0.105528 2:0.331528 3:0.528494 4:1 
16284 1:0.0623116 2:0.79711 3:0.173321 
16284 1:0.125628 2:0.416402 3:0.705669 4:1 
16284 1:0.0482412 2:0.657677 3:0.331983 4:1 
16284 1:0.041206 2:0.659953 3:0.165193 4:1 
16284 1:0.105528 2:0.422265 3:0.191478 4:1 
16284 1:0.0663317 2:0.594082 3:0.663438 4:1 
16284 1:0.0773869 2:0.451373 3:0.331013 4:1 
16284 1:0.128643 2:0.645848 3:0.37829 4:1 
16284 1:0.0844221 2:0.525176 3:0.168643 4:1 
16284 1:0.151759 2:0.516623 3:0.785393 4:1 
16284 1:0.079397 2:0.666092 3:0.280532 4:1 
16284 1:0.166834 2:0.222893 3:0.395195 4:1 
16284 1:0.157789 2:0.3486 3:0.623527 4:1 
16284 1:0.0964824 2:0.414092 3:0.614037 4:1 
16284 1:0.0432161 2:0.753138 3:0.629481 4:1 
16284 1:0.0603015 2:0.796455 3:0.456688 4:1 
16284 1:0.0422111 2:0.692268 3:0.178047 4:1 
16284 1:0.0311558 2:0.434439 3:0.813826 
16284 1:0.173869 2:0.371189 3:0.6875 4:1 
16284 1:0.0934673 2:0.46027 3:0.835359 4:1 
16284 1:0.334673 2:0.598082 3:0.52707 4:1 
16284 1:0.0723618 2:0.760277 3:0.852571 4:1 
16284 1:0.0934673 2:0.65578 3:0.653052 
16284 1:0.122613 2:0.245827 3:0.887424 4:1 
16284 1:0.080402 2:0.365913 3:0.32059 
16284 1:0.0934673 2:0.746206 3:0.28187 4:1 
16284 1:0.0974874 2:0.465616 3:0.733218 4:1 
16284 1:0.0663317 2:0.819941 3:0.327551 
16284 1:0.124623 2:0.41085 3:0.62333 
16284 1:0.0693467 2:0.450993 3:0.28791 
16284 1:0.0351759 2:0.482687 3:0.157165 
16284 1:0.0884422 2:0.561905 3:0.456013 4:1 
16284 1:0.220101 2:0.520865 3:0.620495 4:1 
8509.428598778666 1:0.0522613 2:0.532418 3:0.167784 4:1 
16284 1:0.228141 2:0.481515 3:0.812058 4:1 
16284 1:0.0874372 2:0.588357 3:0.715159 4:1 
16284 1:0.0984925 2:0.496448 3:0.505254 4:1 
16284 1:0.103518 2:0.4492 3:0.439378 4:1 
16284 1:0.145729 2:0.454856 3:0.638099 4:1 
16284 1:0.109548 2:0.573562 3:0.596064 4:1 
16284 1:0.170854 2:0.608429 3:0.3475 4:1 
16284 1:0.080402 2:0.470065 3:0.374079 4:1 
16284 1:0.0442211 2:0.750276 3:0.145097 4:1 
16284 1:0.109548 2:0.364843 3:0.616922 
16284 1:0.0462312 2:0.256725 3:0.803612 
16284 1:0.0603015 2:0.693027 3:0.129039 4:1 
16284 1:0.0944724 2:0.360084 3:0.280679 4:1 
16284 1:0.0592965 2:0.832529 3:0.548284 4:1 
16284 1:0.0482412 2:0.57232 3:0.109617 4:1 
16284 1:0.0854271 2:0.346013 3:0.348213 4:1 
16284 1:0.0904523 2:0.732687 3:0.181386 4:1 
16284 1:0.0542714 2:0.612429 3:0.348581 4:1 
16284 1:0.103518 2:0.394779 3:0.635705 4:1 
16284 1:0.0763819 2:0.473134 3:0.258765 4:1 
16284 1:0.0834171 2:0.585426 3:0.642752 4:1 
16284 1:0.0552764 2:0.67768 3:0.15466 4:1 
16284 1:0.0311558 2:0.786936 3:0.506912 4:1 
16284 1:0.0603015 2:0.874948 3:0.894311 4:1 
16284 1:0.0653266 2:0.576769 3:0.276837 4:1 
16284 1:0.461307 2:0.711305 3:0.301598 
16284 1:0.0442211 2:0.644468 3:0.131985 4:1 
16284 1:0.0824121 2:0.667851 3:0.331799 4:1 
16284 1:0.132663 2:0.402228 3:0.552028 4:1 
16284 1:0.114573 2:0.350048 3:0.709929 4:1 
16284 1:0.079397 2:0.387191 3:0.255218 4:1 
16284 1:0.0763819 2:0.81356 3:0.375012 4:1 
16284 1:0.0613065 2:0.698683 3:0.166053 4:1 
16284 1:0.0552764 2:0.66485 3:0.458579 4:1 
16284 1:0.108543 2:0.388122 3:0.653862 
16284 1:0.115578 2:0.595082 3:0.710224 4:1 
16284 1:0.224121 2:0.399986 3:0.80522 4:1 
16284 1:0.0663317 2:0.832736 3:0.556251 4:1 
16284 1:0.118593 2:0.465271 3:0.372987 4:1 
16284 1:0.107538 2:0.223169 3:0.448954 4:1 
16284 1:0.0582915 2:0.261726 3:0.673407 
16284 1:0.106533 2:0.366464 3:0.63487 
16284 1:0.0683417 2:0.6494 3:0.178194 4:1 
16284 1:0.0582915 2:0.764209 3:0.543717 4:1 
16284 1:0.0723618 2:0.694992 3:0.152438 4:1 
16284 1:0.0673367 2:0.737481 3:0.610158 4:1 
16284 1:0.0773869 2:0.446337 3:0.363804 4:1 
16284 1:0.0703518 2:0.489792 3:0.329773 4:1 
16284 1:0.0733668 2:0.498552 3:0.206946 4:1 
16284 1:0.0713568 2:0.616499 3:0.359716 4:1 
16284 1:0.110553 2:0.309939 3:0.810241 4:1 
16284 1:0.0753769 2:0.471375 3:0.468854 4:1 
16284 1:0.110553 2:0.457856 3:0.634465 4:1 
16284 1:0.0251256 2:0.826355 3:0.864381 4:1 
16284 1:0.0713568 2:0.537074 3:0.514695 4:1 
16284 1:0.078392 2:0.518209 3:0.710334 4:1 
16284 1:0.0743719 2:0.681266 3:0.147564 4:1 
16284 1:0.115578 2:0.265933 3:0.453668 4:1 
16284 1:0.0914573 2:0.418782 3:0.532729 4:1 
16284 1:0.0834171 2:0.547179 3:0.444019 4:1 
16284 1:0.079397 2:0.505552 3:0.452379 4:1 
16284 1:0.106533 2:0.386364 3:0.379297 4:1 
16284 1:0.101508 2:0.508174 3:0.754039 4:1 
16284 1:0.0281407 2:0.745241 3:0.851294 4:1 
16284 1:0.039196 2:0.712305 3:0.330694 4:1 
16284 1:0.0512563 2:0.643434 3:0.709033 4:1 
16284 1:0.0462312 2:0.505415 3:0.649688 
16284 1:0.0261307 2:0.717823 3:0.702747 
16284 1:0.0683417 2:0.569941 3:0.581185 4:1 
16284 1:0.0592965 2:0.828287 3:0.224109 4:1 
16284 1:0.104523 2:0.457891 3:0.576409 4:1 
16284 1:0.114573 2:0.56156 3:0.262694 4:1 
16284 1:0.0693467 2:0.356015 3:0.166065 4:1 
16284 1:0.110553 2:0.370982 3:0.311751 4:1 
16284 1:0.120603 2:0.333149 3:0.825464 4:1 
16284 1:0.0964824 2:0.355946 3:0.524504 4:1 
16284 1:0.0321608 2:0.806456 3:0.126314 4:1 
16284 1:0.100503 2:0.305456 3:0.609912 4:1 
16284 1:0.0844221 2:0.479032 3:0.695296 4:1 
16284 1:0.0703518 2:0.598393 3:0.223654 4:1 
16284 1:0.112563 2:0.312353 3:0.538008 4:1 
16284 1:0.116583 2:0.243068 3:0.419527 4:1 
16284 1:0.103518 2:0.341633 3:0.168115 4:1 
16284 1:0.0743719 2:0.762795 3:0.823095 4:1 
16284 1:0.0954774 2:0.311526 3:0.0907729 4:1 
16284 1:0.0371859 2:0.778521 3:0.689427 4:1 
16284 1:0.132663 2:0.708029 3:0.162836 4:1 
16284 1:0.0592965 2:0.836046 3:0.666888 4:1 
16284 1:0.125628 2:0.820113 3:0.283564 4:1 
16284 1:0.114573 2:0.509415 3:0.67677 
16284 1:0.0683417 2:0.643399 3:0.34917 4:1 
16284 1:0.0834171 2:0.560491 3:0.828975 4:1 
16284 1:0.0633166 2:0.594358 3:0.684382 4:1 
16284 1:0.0502513 2:0.613395 3:0.276837 4:1 
16284 1:0.128643 2:0.807249 3:0.375823 
16284 1:0.104523 2:0.356359 3:0.54395 4:1 
16284 1:0.0633166 2:0.415437 3:0.0706148 4:1 
16284 1:0.102513 2:0.431025 3:0.341595 4:1 
16284 1:0.0502513 2:0.722031 3:0.259919 4:1 
16284 1:0.0974874 2:0.348807 3:0.37942 4:1 
16284 1:0.123618 2:0.554525 3:0.444412 4:1 
16284 1:0.109548 2:0.194165 3:0.579994 4:1 
16284 1:0.0582915 2:0.703545 3:0.328681 4:1 
16284 1:0.129648 2:0.547317 3:0.296737 
16284 1:0.0854271 2:0.734136 3:0.610158 
16284 1:0.00603015 2:0.444234 3:0.205191 
16284 1:0.0824121 2:0.474928 3:0.641807 4:1 
16284 1:0.0331658 2:0.421024 3:0.329442 
16284 1:0.0753769 2:0.576735 3:0.550174 4:1 
16284 1:0.0582915 2:0.817354 3:0.194854 4:1 
16284 1:0.0422111 2:0.532453 3:0.359703 
16284 1:0.104523 2:0.662816 3:0.609838 4:1 
16284 1:0.106533 2:0.575252 3:0.436321 4:1 
16284 1:0.108543 2:0.498103 3:0.642838 4:1 
16284 1:0.0522613 2:0.582701 3:0.261429 4:1 
16284 1:0.0753769 2:0.400366 3:0.530262 
16284 1:0.0633166 2:0.305215 3:0.522405 
16284 1:0.111558 2:0.302973 3:0.594137 4:1 
16284 1:0.0371859 2:0.772313 3:0.714054 4:1 
16284 1:0.078392 2:0.586667 3:0.368543 4:1 
16284 1:0.0261307 2:0.440681 3:0.852657 
16284 1:0.040201 2:0.849152 3:0.145981 4:1 
16284 1:0.219095 2:0.457408 3:0.696265 4:1 
16284 1:0.0673367 2:0.574941 3:0.711967 4:1 
16284 1:0.106533 2:0.325355 3:0.718302 4:1 
16284 1:0.142714 2:0.314871 3:0.581786 4:1 
16284 1:0.0633166 2:0.655608 3:0.643292 4:1 
16284 1:0.141709 2:0.341392 3:0.431914 4:1 
16284 1:0.0572864 2:0.637053 3:0.87279 4:1 
16284 1:0.155779 2:0.275486 3:0.659239 4:1 
16284 1:0.0874372 2:0.436164 3:0.730934 4:1 
16284 1:0.124623 2:0.480515 3:0.647221 4:1 
16284 1:0.0613065 2:0.577769 3:0.881985 4:1 
16284 1:0.0924623 2:0.201304 3:0.165181 4:1 
16284 1:0.0603015 2:0.580666 3:0.602681 
16284 1:0.113568 2:0.565354 3:0.570443 
16284 1:0.0683417 2:0.606566 3:0.198905 
16284 1:0.0864322 2:0.492551 3:0.620188 4:1 
16284 1:0.0653266 2:0.454339 3:0.201974 4:1 
16284 1:0.0613065 2:0.600876 3:0.205227 
16284 1:0.118593 2:0.522244 3:0.90617 4:1 
16284 1:0.041206 2:0.913333 3:0.380291 
16284 1:0.0984925 2:0.742068 3:0.673848 
16284 1:0.0512563 2:0.743654 3:0.0538205 4:1 
16284 1:0.127638 2:0.5279 3:0.349588 4:1 
16284 1:0.0854271 2:0.555215 3:0.698782 4:1 
16284 1:0.0271357 2:0.767934 3:0.126596 4:1 
16284 1:0.0763819 2:0.331425 3:0.186223 4:1 
16284 1:0.0894472 2:0.310457 3:0.260607 4:1 
16284 1:0.0582915 2:0.737136 3:0.254493 4:1 
16284 1:0.128643 2:0.51852 3:0.761528 4:1 
16284 1:0.0713568 2:0.704097 3:0.6497 4:1 
16284 1:0.109548 2:0.275107 3:0.766291 4:1 
16284 1:0.0934673 2:0.803042 3:0.141537 4:1 
16284 1:0.041206 2:0.717099 3:0.456836 4:1 
16284 1:0.0592965 2:0.753242 3:0.594689 4:1 
16284 1:0.080402 2:0.570699 3:0.683056 4:1 
16284 1:0.0834171 2:0.323079 3:0.88665 
16284 1:0.0984925 2:0.587736 3:0.689256 4:1 
16284 1:0.106533 2:0.335529 3:0.683301 4:1 
16284 1:0.122613 2:0.749276 3:0.0548885 4:1 
16284 1:0.0773869 2:0.685922 3:0.556632 4:1 
16284 1:0.0964824 2:0.537315 3:0.360035 4:1 
16284 1:0.100503 2:0.369361 3:0.493444 4:1 
16284 1:0.0542714 2:0.596634 3:0.272491 4:1 
16284 1:0.0874372 2:0.497655 3:0.243285 4:1 
16284 1:0.0643216 2:0.697131 3:0.548456 
16284 1:0.0592965 2:0.681991 3:0.224256 4:1 
16284 1:0.186935 2:0.337184 3:0.700759 4:1 
16284 1:0.0874372 2:0.52728 3:0.681718 
16284 1:0.124623 2:0.236688 3:0.589705 4:1 
16284 1:0.0361809 2:0.566975 3:0.598298 
16284 1:0.0874372 2:0.515968 3:0.719886 4:1 
16284 1:0.0723618 2:0.468237 3:0.37759 4:1 
16284 1:0.0603015 2:0.583149 3:0.453656 
16284 1:0.0311558 2:0.356153 3:0.474944 
16284 1:0.0743719 2:0.526831 3:0.823095 4:1 
16284 1:0.0512563 2:0.674852 3:0.455301 4:1 
16284 1:0.213065 2:0.347013 3:0.596604 4:1 
16284 1:0.080402 2:0.474065 3:0.589594 4:1 
16284 1:0.0482412 2:0.70589 3:0.686064 4:1 
16284 1:0.041206 2:0.76983 3:0.519495 4:1 
16284 1:0.0643216 2:0.452338 3:0.169183 4:1 
16284 1:0.119598 2:0.246482 3:0.733697 4:1 
16284 1:0.0532663 2:0.419058 3:0.299511 
16284 1:0.081407 2:0.327735 3:0.175162 4:1 
16284 1:0.116583 2:0.40278 3:0.644483 4:1 
16284 1:0.0874372 2:0.546455 3:0.374153 4:1 
16284 1:0.152764 2:0.428783 3:0.625798 4:1 
16284 1:0.0613065 2:0.579597 3:0.473605 4:1 
16284 1:0.0904523 2:0.464374 3:0.234654 4:1 
16284 1:0.080402 2:0.496448 3:0.246428 4:1 
16284 1:0.0371859 2:0.740619 3:0.483844 4:1 
16284 1:0.0371859 2:0.394572 3:0.680048 
16284 1:0.121608 2:0.717271 3:0.89215 4:1 
16284 1:0.0944724 2:0.383467 3:0.584942 4:1 
16284 1:0.0864322 2:0.412264 3:0.593658 4:1 
16284 1:0.0743719 2:0.53635 3:0.638688 
16284 1:0.0502513 2:0.660608 3:0.645502 4:1 
16284 1:0.0211055 2:0.655194 3:0.0433854 
16284 1:0.0502513 2:0.484136 3:0.786228 
16284 1:0.103518 2:0.457442 3:0.358942 4:1 
16284 1:0.0462312 2:0.671886 3:0.479203 4:1 
16284 1:0.0552764 2:0.606015 3:0.644814 4:1 
16284 1:0.0572864 2:0.550731 3:0.130819 4:1 
16284 1:0.105528 2:0.379673 3:0.640554 4:1 
16284 1:0.0512563 2:0.661815 3:0.760595 4:1 
16284 1:0.0663317 2:0.657263 3:0.151112 4:1 
16284 1:0.101508 2:0.450338 3:0.556718 
16284 1:0.0924623 2:0.439267 3:0.639683 4:1 
16284 1:0.0924623 2:0.422093 3:0.601515 4:1 
16284 1:0.0713568 2:0.625259 3:0.488067 4:1 
16284 1:0.0934673 2:0.642951 3:0.681951 4:1 
16284 1:0.101508 2:0.356153 3:0.303587 4:1 
16284 1:0.0341709 2:0.759829 3:0.632231 4:1 
16284 1:0.0994975 2:0.428266 3:0.537493 4:1 
16284 1:0.078392 2:0.472203 3:0.740265 4:1 
16284 1:0.102513 2:0.305559 3:0.145183 4:1 
16284 1:0.100503 2:0.222893 3:0.648939 
16284 1:0.0582915 2:0.497379 3:0.14231 4:1 
16284 1:0.0482412 2:0.761243 3:0.616099 4:1 
16284 1:0.0854271 2:0.627569 3:0.34836 4:1 
16284 1:0.0994975 2:0.477721 3:0.548333 4:1 
16284 1:0.0703518 2:0.472444 3:0.589533 
16284 1:0.117588 2:0.302835 3:0.625209 4:1 
16284 1:0.127638 2:0.351117 3:0.586967 4:1 
16284 1:0.0522613 2:0.494241 3:0.347918 
16284 1:0.111558 2:0.147124 3:0.382366 4:1 
16284 1:0.41005 2:0.563078 3:0.655655 4:1 
16284 1:0.120603 2:0.442613 3:0.786535 
16284 1:0.0452261 2:0.791351 3:0.347746 4:1 
16284 1:0.152764 2:0.78228 3:0.84906 4:1 
16284 1:0.116583 2:0.46503 3:0.807798 4:1 
16284 1:0.0924623 2:0.485998 3:0.64506 4:1 
16284 1:0.0713568 2:0.693716 3:0.352055 4:1 
16284 1:0.0713568 2:0.556422 3:0.277131 4:1 
16284 1:0.0613065 2:0.718892 3:0.684885 4:1 
16284 1:0.0773869 2:0.68099 3:0.645661 4:1 
16284 1:0.0351759 2:0.566147 3:0.218854 
16284 1:0.0944724 2:0.454235 3:0.67402 4:1 
16284 1:0.101508 2:0.340978 3:0.371698 4:1 
16284 1:0.0562814 2:0.679059 3:0.556767 4:1 
16284 1:0.0723618 2:0.604083 3:0.585322 
16284 1:0.113568 2:0.348807 3:0.352497 4:1 
16284 1:0.0824121 2:0.377742 3:0.292268 
16284 1:0.138693 2:0.551524 3:0.245826 4:1 
16284 1:0.0371859 2:0.777624 3:0.594984 
16284 1:0.144724 2:0.336046 3:0.629285 4:1 
16284 1:0.0974874 2:0.283522 3:0.358255 4:1 
16284 1:0.0603015 2:0.709201 3:0.640125 
16284 1:0.104523 2:0.474341 3:0.327097 4:1 
16284 1:0.137688 2:0.463167 3:0.812709 4:1 
16284 1:0.120603 2:0.504414 3:0.663954 4:1 
16284 1:0.106533 2:0.258243 3:0.663831 4:1 
16284 1:0.0763819 2:0.525831 3:0.536756 
16284 1:0.0773869 2:0.684163 3:0.541114 4:1 
16284 1:0.0743719 2:0.696786 3:0.917096 
16284 1:0.128643 2:0.34053 3:0.57544 4:1 
16284 1:0.0452261 2:0.725859 3:0.462814 4:1 
16284 1:0.0834171 2:0.443371 3:0.279501 4:1 
16284 1:0.0552764 2:0.792765 3:0.624754 4:1 
16284 1:0.080402 2:0.362188 3:0.746599 
16284 1:0.0542714 2:0.657539 3:0.637154 
16284 1:0.041206 2:0.654021 3:0.758925 4:1 
16284 1:0.271357 2:0.475307 3:0.670116 4:1 
16284 1:0.0773869 2:0.451511 3:0.457155 4:1 
16284 1:0.439196 2:0.807698 3:0.0571229 4:1 
16284 1:0.0462312 2:0.683232 3:0.444191 4:1 
16284 1:0.0773869 2:0.803663 3:0.653813 
16284 1:0.0592965 2:0.77859 3:0.221126 4:1 
16284 1:0.0673367 2:0.719892 3:0.658478 4:1 
16284 1:0.0422111 2:0.72103 3:0.757722 
16284 1:0.104523 2:0.271244 3:0.495458 4:1 
16284 1:0.0572864 2:0.665506 3:0.276431 4:1 
16284 1:0.0693467 2:0.668265 3:0.912161 4:1 
16284 1:0.0733668 2:0.674852 3:0.456136 4:1 
16284 1:0.0743719 2:0.548972 3:0.638922 4:1 
16284 1:0.0361809 2:0.761346 3:0.238693 4:1 
16284 1:0.174874 2:0.778176 3:0.702023 4:1 
16284 1:0.0673367 2:0.615844 3:0.334524 4:1 
16284 1:0.0834171 2:0.575493 3:0.545804 4:1 
16284 1:0.122613 2:0.510519 3:0.635386 4:1 
16284 1:0.0773869 2:0.622431 3:0.118113 4:1 
16284 1:0.0361809 2:0.620672 3:0.609716 
16284 1:0.118593 2:0.455097 3:0.687291 4:1 
16284 1:0.0341709 2:0.742792 3:0.639425 4:1 
16284 1:0.0512563 2:0.422645 3:0.670018 
16284 1:0.109548 2:0.278418 3:0.554766 4:1 
16284 1:0.179899 2:0.344565 3:0.818798 
16284 1:0.0512563 2:0.708201 3:0.649087 4:1 
16284 1:0.0914573 2:0.360912 3:0.559529 4:1 
16284 1:0.109548 2:0.371982 3:0.692239 4:1 
16284 1:0.080402 2:0.434163 3:0.208211 4:1 
16284 1:0.144724 2:0.409332 3:0.735244 4:1 
16284 1:0.0643216 2:0.592496 3:0.858328 4:1 
16284 1:0.0763819 2:0.725928 3:0.471666 
16284 1:0.0422111 2:0.694165 3:0.61853 
16284 1:0.0633166 2:0.57301 3:0.505782 4:1 
16284 1:0.115578 2:0.384915 3:0.454147 4:1 
16284 1:0.0613065 2:0.738343 3:0.331566 4:1 
16284 1:0.0643216 2:0.63895 3:0.860072 
16284 1:0.0944724 2:0.565423 3:0.845475 4:1 
16284 1:0.106533 2:0.716513 3:0.625528 
16284 1:0.0663317 2:0.496103 3:0.21538 4:1 
16284 1:0.0713568 2:0.469892 3:0.292182 
16284 1:0.0100503 2:0.786074 3:0.881568 4:1 
16284 1:0.146734 2:0.338185 3:0.750687 4:1 
16284 1:0.0854271 2:0.306146 3:0.464975 
16284 1:0.100503 2:0.333046 3:0.46042 4:1 
16284 1:0.0371859 2:0.700614 3:0.709684 4:1 
16284 1:0.119598 2:0.575321 3:0.615044 4:1 
16284 1:0.0482412 2:0.514381 3:0.500442 
16284 1:0.227136 2:0.608532 3:0.270072 4:1 
16284 1:0.0643216 2:0.747103 3:0.0377136 
16284 1:0.198995 2:0.25438 3:0.645232 4:1 
16284 1:0.0773869 2:0.458856 3:0.199629 4:1 
16284 1:0.0653266 2:0.821217 3:0.583284 4:1 
16284 1:0.118593 2:0.3267 3:0.773952 4:1 
16284 1:0.162814 2:0.706925 3:0.180318 4:1 
16284 1:0.110553 2:0.344841 3:0.449777 4:1 
16284 1:0.122613 2:0.301352 3:0.603148 4:1 
16284 1:0.0703518 2:0.529211 3:0.601883 4:1 
16284 1:0.0502513 2:0.831356 3:0.13298 4:1 
16284 1:0.114573 2:0.577252 3:0.359114 
16284 1:0.105528 2:0.387088 3:0.622311 4:1 
16284 1:0.0562814 2:0.721996 3:0.610084 4:1 
12959.30563181777 1:0.101508 2:0.251207 3:0.463048 4:1 
16284 1:0.0964824 2:0.587253 3:0.654832 4:1 
16284 1:0.040201 2:0.707339 3:0.741271 4:1 
16284 1:0.107538 2:0.181025 3:0.191649 4:1 
16284 1:0.0673367 2:0.810388 3:0.763185 4:1 
16284 1:0.0753769 2:0.654814 3:0.251841 4:1 
16284 1:0.102513 2:0.590668 3:0.334745 4:1 
16284 1:0.0864322 2:0.598945 3:0.50124 4:1 
16284 1:0.151759 2:0.707201 3:0.742646 4:1 
16284 1:0.0673367 2:0.592082 3:0.653838 4:1 
16284 1:0.114573 2:0.289937 3:0.810622 4:1 
16284 1:0.161809 2:0.498034 3:0.678759 4:1 
16284 1:0.114573 2:0.332942 3:0.618543 4:1 
16284 1:0.0914573 2:0.690716 3:0.35904 4:1 
16284 1:0.0703518 2:0.516795 3:0.64215 4:1 
16284 1:0.0984925 2:0.466754 3:0.70373 
16284 1:0.0512563 2:0.744654 3:0.655409 4:1 
16284 1:0.0773869 2:0.510484 3:0.245359 4:1 
16284 1:0.103518 2:0.459684 3:0.749092 4:1 
16284 1:0.0994975 2:0.512416 3:0.649308 4:1 
16284 1:0.0532663 2:0.548558 3:0.609298 
16284 1:0.142714 2:0.305318 3:0.372569 4:1 
16284 1:0.079397 2:0.597738 3:0.636 4:1 
16284 1:0.0592965 2:0.726514 3:0.225815 
16284 1:0.104523 2:0.264623 3:0.498269 4:1 
16284 1:0.163819 2:0.385295 3:0.715196 4:1 
16284 1:0.0733668 2:0.550628 3:0.291593 4:1 
16284 1:0.0633166 2:0.802628 3:0.769606 
16284 1:0.123618 2:0.336529 3:0.32814 4:1 
16284 1:0.0613065 2:0.570079 3:0.838784 
16284 1:0.108543 2:0.57977 3:0.236484 4:1 
16284 1:0.0492462 2:0.640468 3:0.6099 
16284 1:0.078392 2:0.509139 3:0.593805 4:1 
16284 1:0.0824121 2:0.410436 3:0.27858 4:1 
16284 1:0.136683 2:0.353359 3:0.656858 4:1 
16284 1:0.0834171 2:0.572286 3:0.501191 4:1 
16284 1:0.0502513 2:0.228652 3:0.653334 
16284 1:0.107538 2:0.254414 3:0.587581 4:1 
16284 1:0.0773869 2:0.480687 3:0.464926 4:1 
16284 1:0.112563 2:0.29304 3:0.316514 4:1 
16284 1:0.0522613 2:0.671437 3:0.694694 4:1 
16284 1:0.0884422 2:0.79273 3:0.613828 4:1 
16284 1:0.0532663 2:0.640261 3:0.254088 
16284 1:0.0914573 2:0.64033 3:0.352374 4:1 
16284 1:0.117588 2:0.345013 3:0.882096 4:1 
16284 1:0.0643216 2:0.417127 3:0.553526 
16284 1:0.108543 2:0.222927 3:0.751436 4:1 
16284 1:0.039196 2:0.632811 3:0.114123 4:1 
16284 1:0.0472362 2:0.600324 3:0.267408 
16284 1:0.117588 2:0.333839 3:0.636589 4:1 
16284 1:0.117588 2:0.336426 3:0.630218 4:1 
16284 1:0.20603 2:0.3237 3:0.852362 4:1 
16284 1:0.078392 2:0.552456 3:0.824003 4:1 
16284 1:0.102513 2:0.29542 3:0.658834 4:1 
16284 1:0.163819 2:0.760174 3:0.504358 4:1 
16284 1:0.159799 2:0.374086 3:0.685352 
16284 1:0.104523 2:0.277211 3:0.10192 4:1 
16284 1:0.0170854 2:0.720065 3:0.060327 
16284 1:0.0994975 2:0.347565 3:0.251633 4:1 
16284 1:0.134673 2:0.60329 3:0.624914 4:1 
16284 1:0.0221106 2:0.440509 3:0.0845855 
16284 1:0.0874372 2:0.423748 3:0.373588 4:1 
16284 1:0.0753769 2:0.83846 3:0.7074 4:1 
16284 1:0.0703518 2:0.788592 3:0.708505 4:1 
16284 1:0.0643216 2:0.565147 3:0.462888 4:1 
16284 1:0.108543 2:0.615361 3:0.313789 4:1 
16284 1:0.0251256 2:0.644261 3:0.267899 
16284 1:0.0703518 2:0.551214 3:0.748883 4:1 
16284 1:0.0924623 2:0.367327 3:0.677347 4:1 
16284 1:0.0884422 2:0.489688 3:0.568184 4:1 
16284 1:0.0994975 2:0.341564 3:0.453619 4:1 
16284 1:0.109548 2:0.405263 3:0.671381 4:1 
16284 1:0.0703518 2:0.744103 3:0.335838 4:1 
16284 1:0.0603015 2:0.625397 3:0.573303 4:1 
16284 1:0.122613 2:0.382122 3:0.321621 4:1 
16284 1:0.0683417 2:0.728514 3:0.330547 4:1 
16284 1:0.125628 2:0.438957 3:0.479363 4:1 
16284 1:0.0673367 2:0.5468 3:0.443724 4:1 
16284 1:0.118593 2:0.428473 3:0.598421 4:1 
16284 1:0.0442211 2:0.883156 3:0.301279 4:1 
16284 1:0.152764 2:0.430197 3:0.632084 4:1 
16284 1:0.0703518 2:0.407918 3:0.367106 
16284 1:0.136683 2:0.417368 3:0.655151 
16284 1:0.305528 2:0.67868 3:0.279267 4:1 
16284 1:0.0592965 2:0.59722 3:0.847194 4:1 
16284 1:0.111558 2:0.748172 3:0.42871 
16284 1:0.0914573 2:0.475169 3:0.367327 4:1 
16284 1:0.18593 2:0.56156 3:0.523522 4:1 
16284 1:0.0472362 2:0.615085 3:0.860403 4:1 
16284 1:0.0914573 2:0.281694 3:0.327453 4:1 
16284 1:0.0834171 2:0.683612 3:0.598274 4:1 
16284 1:0.0854271 2:0.421058 3:0.351098 4:1 
16284 1:0.0633166 2:0.76214 3:0.450341 4:1 
16284 1:0.078392 2:0.520313 3:0.835359 4:1 
16284 1:0.0482412 2:0.6534 3:0.774087 4:1 
16284 1:0.154774 2:0.358325 3:0.425187 4:1 
16284 1:0.0743719 2:0.610498 3:0.598372 4:1 
16284 1:0.0864322 2:0.424231 3:0.110059 4:1 
16284 1:0.106533 2:0.33684 3:0.592676 4:1 
16284 1:0.0241206 2:0.644813 3:0.143096 
16284 1:0.0934673 2:0.545041 3:0.634858 
16284 1:0.0733668 2:0.633087 3:0.857469 4:1 
16284 1:0.0834171 2:0.33615 3:0.224526 
16284 1:0.132663 2:0.398055 3:0.552949 4:1 
16284 1:0.119598 2:0.621396 3:0.456025 4:1 
16284 1:0.0673367 2:0.242999 3:0.614012 
16284 1:0.040201 2:0.599738 3:0.683829 
16284 1:0.0613065 2:0.567354 3:0.222807 4:1 
16284 1:0.108543 2:0.570148 3:0.568405 
16284 1:0.128643 2:0.264036 3:0.36513 4:1 
16284 1:0.0944724 2:0.51345 3:0.596678 4:1 
16284 1:0.0552764 2:0.753656 3:0.278433 4:1 
16284 1:0.102513 2:0.394158 3:0.576802 4:1 
16284 1:0.0492462 2:0.595151 3:0.107948 4:1 
16284 1:0.0743719 2:0.596841 3:0.672658 
16284 1:0.0100503 2:0.785177 3:0.267826 
16284 1:0.0482412 2:0.750345 3:0.221923 4:1 
16284 1:0.136683 2:0.390882 3:0.183682 4:1 
16284 1:0.129648 2:0.601704 3:0.30236 4:1 
16284 1:0.117588 2:0.555525 3:0.504186 
16284 1:0.0532663 2:0.797282 3:0.237527 4:1 
16284 1:0.135678 2:0.195165 3:0.676095 4:1 
16284 1:0.038191 2:0.45589 3:0.568221 
16284 1:0.0291457 2:0.318147 3:0.145649 
16284 1:0.102513 2:0.771727 3:0.379555 4:1 
16284 1:0.118593 2:0.315664 3:0.537161 4:1 
16284 1:0.0623116 2:0.652987 3:0.603577 4:1 
16284 1:0.039196 2:0.713098 3:0.528555 4:1 
16284 1:0.0462312 2:0.481653 3:0.498379 
16284 1:0.130653 2:0.310284 3:0.278776 
16284 1:0.039196 2:0.808525 3:0.843719 
16284 1:0.0592965 2:0.484481 3:0.63093 
16284 1:0.146734 2:0.518106 3:0.602792 4:1 
16284 1:0.080402 2:0.805111 3:0.583211 
16284 1:0.126633 2:0.460201 3:0.73749 4:1 
16284 1:0.146734 2:0.432473 3:0.909804 4:1 
16284 1:0.0854271 2:0.447338 3:0.539039 4:1 
16284 1:0.110553 2:0.765933 3:0.156637 4:1 
16284 1:0.0713568 2:0.649538 3:0.609912 4:1 
16284 1:0.139698 2:0.297524 3:0.751031 4:1 
16284 1:0.0643216 2:0.608636 3:0.824789 4:1 
16284 1:0.150754 2:0.45796 3:0.505905 4:1 
16284 1:0.0603015 2:0.622293 3:0.610023 4:1 
16284 1:0.0874372 2:0.490033 3:0.647208 4:1 
16284 1:0.0532663 2:0.562215 3:0.160958 4:1 
16284 1:0.0723618 2:0.696199 3:0.705338 
16284 1:0.0502513 2:0.556939 3:0.327342 
16284 1:0.0603015 2:0.479514 3:0.13546 4:1 
16284 1:0.0502513 2:0.550076 3:0.15412 4:1 
16284 1:0.0733668 2:0.462995 3:0.277806 
16284 1:0.119598 2:0.379983 3:0.599686 4:1 
16284 1:0.0723618 2:0.69651 3:0.530164 4:1 
16284 1:0.0432161 2:0.865292 3:0.171111 4:1 
16284 1:0.0693467 2:0.727273 3:0.240412 4:1 
16284 1:0.0753769 2:0.577631 3:0.610133 4:1 
16284 1:0.0572864 2:0.778452 3:0.228688 4:1 
16284 1:0.126633 2:0.529556 3:0.182147 4:1 
16284 1:0.138693 2:0.365775 3:0.53214 4:1 
16284 1:0.0773869 2:0.50607 3:0.675174 4:1 
16284 1:0.0502513 2:0.473858 3:0.493444 
16284 1:0.0703518 2:0.600773 3:0.759232 4:1 
16284 1:0.0582915 2:0.513554 3:0.0907729 4:1 
16284 1:0.0331658 2:0.442371 3:0.649983 
16284 1:0.122613 2:0.289592 3:0.247545 4:1 
16284 1:0.0683417 2:0.471824 3:0.181374 4:1 
16284 1:0.129648 2:0.510898 3:0.834598 4:1 
16284 1:0.102513 2:0.502138 3:0.186849 4:1 
16284 1:0.0542714 2:0.606601 3:0.82102 4:1 
16284 1:0.0201005 2:0.834805 3:0.725324 4:1 
16284 1:0.0663317 2:0.535384 3:0.642543 4:1 
16284 1:0.108543 2:0.386915 3:0.687672 4:1 
16284 1:0.0944724 2:0.420368 3:0.856413 4:1 
16284 1:0.0633166 2:0.578459 3:0.620409 4:1 
16284 1:0.122613 2:0.33884 3:0.514879 4:1 
16284 1:0.106533 2:0.463478 3:0.372631 4:1 
16284 1:0.100503 2:0.564078 3:0.565643 4:1 
16284 1:0.0723618 2:0.346531 3:0.189931 4:1 
16284 1:0.142714 2:0.388571 3:0.610023 4:1 
16284 1:0.0452261 2:0.685543 3:0.167096 4:1 
16284 1:0.0361809 2:0.585977 3:0.0259404 4:1 
16284 1:0.0673367 2:0.717444 3:0.722009 4:1 
16284 1:0.0874372 2:0.41316 3:0.706639 4:1 
16284 1:0.118593 2:0.45189 3:0.5941 4:1 
16284 1:0.140704 2:0.317975 3:0.775769 4:1 
16284 1:0.078392 2:0.497034 3:0.559762 4:1 
16284 1:0.041206 2:0.731411 3:0.573659 4:1 
16284 1:0.0974874 2:0.423127 3:0.602558 4:1 
16284 1:0.0663317 2:0.698096 3:0.120163 
16284 1:0.0492462 2:0.458132 3:0.301267 
16284 1:0.0673367 2:0.833322 3:0.670546 4:1 
16284 1:0.038191 2:0.444441 3:0.212581 
16284 1:0.0562814 2:0.74762 3:0.128548 4:1 
16284 1:0.0442211 2:0.70696 3:0.131912 4:1 
16284 1:0.0864322 2:0.648434 3:0.219947 4:1 
16284 1:0.0261307 2:0.683198 3:0.145097 
16284 1:0.0592965 2:0.632536 3:0.616099 4:1 
16284 1:0.0864322 2:0.46834 3:0.461317 4:1 
16284 1:0.0864322 2:0.460891 3:0.18917 4:1 
16284 1:0.0522613 2:0.63695 3:0.649725 4:1 
16284 1:0.0422111 2:0.692509 3:0.76607 4:1 
16284 1:0.0562814 2:0.44282 3:0.681092 
16284 1:0.079397 2:0.496413 3:0.366235 
16284 1:0.0723618 2:0.513036 3:0.182172 4:1 
16284 1:0.040201 2:0.675507 3:0.664641 4:1 
16284 1:0.0984925 2:0.371706 3:0.245433 4:1 
16284 1:0.0894472 2:0.305456 3:0.221923 4:1 
16284 1:0.267337 2:0.830632 3:0.532201 4:1 
16284 1:0.132663 2:0.394779 3:0.382452 4:1 
16284 1:0.103518 2:0.326424 3:0.742229 4:1 
16284 1:0.041206 2:0.679404 3:0.649492 4:1 
16284 1:0.0964824 2:0.513209 3:0.708186 4:1 
16284 1:0.157789 2:0.342875 3:0.738828 4:1 
16284 1:0.112563 2:0.480859 3:0.609851 4:1 
16284 1:0.040201 2:0.720513 3:0.649676 4:1 
16284 1:0.175879 2:0.489067 3:0.674401 4:1 
16284 1:0.0532663 2:0.627949 3:0.300935 4:1 
16284 1:0.0773869 2:0.490171 3:0.581566 4:1 
16284 1:0.0170854 2:0.730859 3:0.911842 4:1 
16284 1:0.0954774 2:0.558146 3:0.692497 4:1 
16284 1:0.080402 2:0.516278 3:0.569547 4:1 
16284 1:0.149749 2:0.369603 3:0.599612 4:1 
16284 1:0.0743719 2:0.509277 3:0.689403 
16284 1:0.0884422 2:0.622707 3:0.496796 4:1 
16284 1:0.119598 2:0.577976 3:0.6614 4:1 
16284 1:0.0653266 2:0.522003 3:0.223323 4:1 
16284 1:0.0371859 2:0.588667 3:0.228835 
16284 1:0.0984925 2:0.347393 3:0.706038 4:1 
16284 1:0.0542714 2:0.664643 3:0.666593 
16284 1:0.040201 2:0.856291 3:0.228786 4:1 
16284 1:0.038191 2:0.715961 3:0.781858 4:1 
16284 1:0.0603015 2:0.760001 3:0.21441 4:1 
16284 1:0.0562814 2:0.263726 3:0.700759 
16284 1:0.179899 2:0.302145 3:0.537161 4:1 
16284 1:0.0723618 2:0.572562 3:0.731413 4:1 
16284 1:0.039196 2:0.748103 3:0.883225 4:1 
16284 1:0.101508 2:0.333736 3:0.609986 4:1 
16284 1:0.0653266 2:0.464374 3:0.159681 4:1 
16284 1:0.081407 2:0.530901 3:0.173799 4:1 
16284 1:0.0693467 2:0.53097 3:0.884011 4:1 
16284 1:0.0592965 2:0.475824 3:0.0967516 4:1 
16284 1:0.0341709 2:0.780866 3:0.649651 4:1 
16284 1:0.0954774 2:0.700648 3:0.377283 4:1 
16284 1:0.119598 2:0.359843 3:0.614835 4:1 
16284 1:0.0703518 2:0.554076 3:0.765383 4:1 
16284 1:0.0854271 2:0.556422 3:0.614221 4:1 
16284 1:0.0894472 2:0.307974 3:0.338956 4:1 
16284 1:0.040201 2:0.497586 3:0.475606 
16284 1:0.040201 2:0.7271 3:0.46511 4:1 
16284 1:0.0914573 2:0.48455 3:0.561555 4:1 
16284 1:0.0341709 2:0.777176 3:0.347513 4:1 
16284 1:0.0643216 2:0.530901 3:0.119967 4:1 
16284 1:0.115578 2:0.592013 3:0.584438 
16284 1:0.039196 2:0.693165 3:0.824777 4:1 
16284 1:0.079397 2:0.550973 3:0.558719 4:1 
15220.93659573066 1:0.0603015 2:0.0950476 3:0.570627 
16284 1:0.00100503 2:0.6235 3:0.205227 
16284 1:0.0653266 2:0.662057 3:0.80851 4:1 
16284 1:0.0120603 2:0.378087 3:0.275314 
16284 1:0.039196 2:0.393468 3:0.325771 
16284 1:0.122613 2:0.618775 3:0.621243 4:1 
16284 1:0.102513 2:0.364947 3:0.473716 4:1 
16284 1:0.0452261 2:0.750759 3:0.254064 4:1 
16284 1:0.133668 2:0.414023 3:0.605861 4:1 
16284 1:0.0462312 2:0.710305 3:0.621722 4:1 
16284 1:0.0261307 2:0.867982 3:0.130819 4:1 
16284 1:0.107538 2:0.457546 3:0.649197 4:1 
16284 1:0.104523 2:0.171817 3:0.189698 4:1 
16284 1:0.079397 2:0.460822 3:0.53899 4:1 
16284 1:0.100503 2:0.497069 3:0.765824 
16284 1:0.0904523 2:0.459684 3:0.37295 4:1 
16284 1:0.0180905 2:0.645503 3:0.257464 
16284 1:0.0733668 2:0.458856 3:0.238018 4:1 
16284 1:0.103518 2:0.414471 3:0.598041 4:1 
16284 1:0.0884422 2:0.489792 3:0.3022 4:1 
16284 1:0.0261307 2:0.537143 3:0.852534 
16284 1:0.0623116 2:0.771037 3:0.303072 4:1 
16284 1:0.0743719 2:0.693923 3:0.453251 4:1 
16284 1:0.134673 2:0.324769 3:0.686272 4:1 
16284 1:0.0603015 2:0.736722 3:0.598311 4:1 
16284 1:0.118593 2:0.425714 3:0.126817 4:1 
16284 1:0.0663317 2:0.435508 3:0.557589 
16284 1:0.178894 2:0.433681 3:0.732567 4:1 
16284 1:0.184925 2:0.337909 3:0.238411 4:1 
16284 1:0.0934673 2:0.382639 3:0.596678 4:1 
16284 1:0.112563 2:0.401124 3:0.897159 4:1 
16284 1:0.0944724 2:0.451373 3:0.446376 4:1 
16284 1:0.0492462 2:0.531763 3:0.132022 4:1 
16284 1:0.0773869 2:0.470927 3:0.45783 4:1 
16284 1:0.261307 2:0.549248 3:0.669908 4:1 
16284 1:0.0874372 2:0.703511 3:0.715577 4:1 
16284 1:0.0221106 2:0.316492 3:0.765653 
16284 1:0.0854271 2:0.591702 3:0.701139 4:1 
16284 1:0.0884422 2:0.493758 3:0.645526 4:1 
16284 1:0.0592965 2:0.657884 3:0.696842 4:1 
16284 1:0.0894472 2:0.422817 3:0.460715 4:1 
16284 1:0.0954774 2:0.383467 3:0.550985 
16284 1:0.190955 2:0.444889 3:0.782214 4:1 
16284 1:0.0512563 2:0.715375 3:0.618101 4:1 
16284 1:0.149749 2:0.378604 3:0.534264 
16284 1:0.137688 2:0.331046 3:0.842087 4:1 
16284 1:0.0371859 2:0.571355 3:0.114111 
16284 1:0.129648 2:0.559525 3:0.843462 4:1 
16284 1:0.0542714 2:0.642571 3:0.121329 4:1 
16284 1:0.0603015 2:0.742482 3:0.1401 
16284 1:0.128643 2:0.287936 3:0.381261 4:1 
16284 1:0.0512563 2:0.712064 3:0.648706 4:1 
16284 1:0.0321608 2:0.785005 3:0.746342 4:1 
16284 1:0.0834171 2:0.286798 3:0.125823 4:1 
16284 1:0.0703518 2:0.558215 3:0.194178 
16284 1:0.137688 2:0.368568 3:0.143378 4:1 
16284 1:0.0582915 2:0.647365 3:0.347464 
16284 1:0.0582915 2:0.738826 3:0.747336 4:1 
16284 1:0.078392 2:0.278763 3:0.155495 4:1 
16284 1:0.194975 2:0.466237 3:0.596531 
16284 1:0.114573 2:0.372707 3:0.893059 4:1 
16284 1:0.142714 2:0.272038 3:0.565876 4:1 
16284 1:0.0974874 2:0.548593 3:0.672117 4:1 
16284 1:0.0753769 2:0.315112 3:0.0784595 4:1 
16284 1:0.0572864 2:0.841702 3:0.525904 4:1 
16284 1:0.232161 2:0.543627 3:0.298308 4:1 
16284 1:0.111558 2:0.245827 3:0.514106 
16284 1:0.0743719 2:0.713236 3:0.182405 4:1 
16284 1:0.039196 2:0.341564 3:0.465073 
16284 1:0.0542714 2:0.608118 3:0.768206 4:1 
16284 1:0.126633 2:0.477721 3:0.68162 4:1 
16284 1:0.0874372 2:0.523003 3:0.610145 4:1 
16284 1:0.0974874 2:0.368396 3:0.537628 
16284 1:0.078392 2:0.519796 3:0.80236 4:1 
16284 1:0.0994975 2:0.256863 3:0.477411 4:1 
16284 1:0.079397 2:0.389364 3:0.289506 4:1 
16284 1:0.0964824 2:0.374603 3:0.228737 4:1 
16284 1:0.0572864 2:0.634984 3:0.360489 4:1 
16284 1:0.169849 2:0.402538 3:0.881654 4:1 
16284 1:0.0944724 2:0.442716 3:0.704577 4:1 
16284 1:0.111558 2:0.544834 3:0.601576 4:1 
16284 1:0.106533 2:0.276279 3:0.606352 4:1 
16284 1:0.0884422 2:0.514899 3:0.2775 4:1 
16284 1:0.0251256 2:0.492137 3:0.13298 
16284 1:0.0944724 2:0.5777 3:0.510852 4:1 
16284 1:0.0864322 2:0.421403 3:0.192939 4:1 
16284 1:0.0914573 2:0.389433 3:0.595929 4:1 
16284 1:0.0673367 2:0.779142 3:0.645416 4:1 
16284 1:0.113568 2:0.417368 3:0.203189 4:1 
16284 1:0.0703518 2:0.698855 3:0.493444 4:1 
16284 1:0.105528 2:0.450648 3:0.676697 4:1 
16284 1:0.119598 2:0.524831 3:0.341853 4:1 
16284 1:0.101508 2:0.836736 3:0.818847 4:1 
16284 1:0.0613065 2:0.410229 3:0.140874 4:1 
16284 1:0.104523 2:0.302973 3:0.612306 4:1 
16284 1:0.0924623 2:0.42968 3:0.735894 4:1 
16284 1:0.0743719 2:0.461753 3:0.604842 
16284 1:0.0643216 2:0.669506 3:0.788119 4:1 
16284 1:0.0663317 2:0.54442 3:0.359139 4:1 
16284 1:0.0251256 2:0.590461 3:0.629837 
16284 1:0.0844221 2:0.578942 3:0.526198 4:1 
16284 1:0.078392 2:0.780039 3:0.704466 4:1 
16284 1:0.118593 2:0.713098 3:0.247152 4:1 
16284 1:0.0773869 2:0.40609 3:0.32032 4:1 
16284 1:0.0361809 2:0.754725 3:0.103651 
16284 1:0.154774 2:0.366809 3:0.626473 4:1 
16284 1:0.141709 2:0.439267 3:0.491161 4:1 
16284 1:0.0331658 2:0.42668 3:0.461587 
16284 1:0.0663317 2:0.580528 3:0.461758 4:1 
16284 1:0.122613 2:0.398641 3:0.871378 4:1 
16284 1:0.126633 2:0.410815 3:0.429618 4:1 
16284 1:0.0894472 2:0.759174 3:0.235391 4:1 
16284 1:0.124623 2:0.300386 3:0.36632 4:1 
16284 1:0.0532663 2:0.643744 3:0.665906 4:1 
16284 1:0.041206 2:0.822458 3:0.645305 
16284 1:0.0331658 2:0.745827 3:0.775793 4:1 
16284 1:0.0623116 2:0.655573 3:0.614381 4:1 
16284 1:0.0552764 2:0.701545 3:0.497397 4:1 
16284 1:0.149749 2:0.451373 3:0.567988 
16284 1:0.0603015 2:0.478376 3:0.18723 4:1 
16284 1:0.122613 2:0.694406 3:0.55053 4:1 
16284 1:0.115578 2:0.428783 3:0.5206 4:1 
16284 1:0.0703518 2:0.677887 3:0.211525 
16284 1:0.0854271 2:0.503759 3:0.710568 4:1 
16284 1:0.0522613 2:0.714926 3:0.563875 4:1 
16284 1:0.0582915 2:0.698786 3:0.669773 
16284 1:0.0974874 2:0.349945 3:0.609703 
16284 1:0.0442211 2:0.378776 3:0.0699273 
16284 1:0.101508 2:0.461477 3:0.646459 4:1 
16284 1:0.0864322 2:0.439164 3:0.609998 4:1 
16284 1:0.140704 2:0.3745 3:0.89668 4:1 
16284 1:0.0753769 2:0.516037 3:0.632329 4:1 
16284 1:0.0673367 2:0.539454 3:0.253646 4:1 
16284 1:0.0603015 2:0.633708 3:0.420546 4:1 
16284 1:0.0854271 2:0.30487 3:0.178919 4:1 
16284 1:0.0361809 2:0.762312 3:0.267629 4:1 
16284 1:0.0572864 2:0.681404 3:0.734102 4:1 
16284 1:0.0934673 2:0.364671 3:0.758778 4:1 
16284 1:0.0603015 2:0.58277 3:0.881617 4:1 
16284 1:0.080402 2:0.542247 3:0.666372 4:1 
16284 1:0.0633166 2:0.61812 3:0.368051 
16284 1:0.0964824 2:0.536695 3:0.589729 4:1 
16284 1:0.241206 2:0.45927 3:0.267101 4:1 
16284 1:0.0763819 2:0.550145 3:0.683707 4:1 
16284 1:0.0713568 2:0.509829 3:0.704933 4:1 
16284 1:0.0934673 2:0.320251 3:0.543336 4:1 
16284 1:0.0613065 2:0.686957 3:0.737453 4:1 
16284 1:0.0653266 2:0.710201 3:0.573021 4:1 
16284 1:0.0582915 2:0.239861 3:0.649872 
16284 1:0.0653266 2:0.48824 3:0.155495 4:1 
16284 1:0.0753769 2:0.504483 3:0.672473 4:1 
16284 1:0.0954774 2:0.377742 3:0.229093 4:1 
16284 1:0.114573 2:0.469479 3:0.694682 4:1 
16284 1:0.120603 2:0.38864 3:0.50717 4:1 
16284 1:0.162814 2:0.279487 3:0.875651 4:1 
16284 1:0.106533 2:0.52221 3:0.581701 4:1 
16284 1:0.0442211 2:0.605497 3:0.145097 4:1 
16284 1:0.0994975 2:0.520968 3:0.596113 4:1 
16284 1:0.0994975 2:0.319803 3:0.220328 4:1 
16284 1:0.0321608 2:0.413126 3:0.580755 
16284 1:0.0582915 2:0.628914 3:0.359802 4:1 
16284 1:0.0944724 2:0.33308 3:0.118874 4:1 
16284 1:0.038191 2:0.590426 3:0.0433854 4:1 
16284 1:0.106533 2:0.33308 3:0.648706 4:1 
16284 1:0.0864322 2:0.69113 3:0.37225 4:1 
16284 1:0.0532663 2:0.662712 3:0.22886 4:1 
16284 1:0.0984925 2:0.3745 3:0.362552 4:1 
16284 1:0.0914573 2:0.317837 3:0.19106 4:1 
16284 1:0.119598 2:0.558422 3:0.665635 4:1 
16284 1:0.0773869 2:0.674679 3:0.52734 4:1 
16284 1:0.105528 2:0.389536 3:0.585641 4:1 
16284 1:0.0653266 2:0.611981 3:0.649983 
16284 1:0.137688 2:0.472479 3:0.679741 4:1 
16284 1:0.0603015 2:0.81056 3:0.710077 4:1 
16284 1:0.0894472 2:0.462409 3:0.450366 4:1 
16284 1:0.0623116 2:0.633467 3:0.176476 4:1 
16284 1:0.126633 2:0.410022 3:0.546418 4:1 
16284 1:0.0542714 2:0.637916 3:0.662308 4:1 
16284 1:0.0753769 2:0.519623 3:0.564084 4:1 
16284 1:0.19598 2:0.391744 3:0.850643 4:1 
16284 1:0.0623116 2:0.655194 3:0.468412 4:1 
16284 1:0.101508 2:0.363567 3:0.561444 4:1 
16284 1:0.116583 2:0.244172 3:0.315606 4:1 
16284 1:0.131658 2:0.469444 3:0.572886 4:1 
16284 1:0.0371859 2:0.386398 3:0.359372 
16284 1:0.0532663 2:0.450062 3:0.462839 
16284 1:0.0743719 2:0.620603 3:0.806693 4:1 
16284 1:0.0542714 2:0.759484 3:0.46193 4:1 
16284 1:0.0472362 2:0.815768 3:0.0839472 4:1 
16284 1:0.296482 2:0.458615 3:0.671847 4:1 
16284 1:0.0723618 2:0.80518 3:0.881715 4:1 
16284 1:0.119598 2:0.21672 3:0.490879 4:1 
16284 1:0.0603015 2:0.564319 3:0.290832 4:1 
16284 1:0.081407 2:0.668196 3:0.806521 4:1 
16284 1:0.0562814 2:0.73217 3:0.568491 4:1 
16284 1:0.039196 2:0.694268 3:0.685646 4:1 
16284 1:0.0954774 2:0.562664 3:0.141193 4:1 
16284 1:0.107538 2:0.377224 3:0.220242 4:1 
16284 1:0.0623116 2:0.585874 3:0.098679 4:1 
16284 1:0.114573 2:0.411919 3:0.371722 4:1 
16284 1:0.0663317 2:0.661608 3:0.332965 4:1 
16284 1:0.0683417 2:0.539212 3:0.121329 
16284 1:0.0854271 2:0.194372 3:0.618297 
16284 1:0.112563 2:0.655056 3:0.734998 4:1 
16284 1:0.039196 2:0.82977 3:0.315152 4:1 
16284 1:0.0994975 2:0.34691 3:0.544527 
16284 1:0.103518 2:0.519968 3:0.525732 4:1 
16284 1:0.0844221 2:0.44144 3:0.689636 4:1 
16284 1:0.0311558 2:0.783349 3:0.603676 4:1 
16284 1:0.080402 2:0.745379 3:0.473753 
16284 1:0.0562814 2:0.611429 3:0.668263 4:1 
16284 1:0.0964824 2:0.501138 3:0.166421 4:1 
16284 1:0.0844221 2:0.432232 3:0.455853 4:1 
16284 1:0.0522613 2:0.804283 3:0.302249 4:1 
16284 1:0.119598 2:0.294937 3:0.66458 4:1 
16284 1:0.0452261 2:0.596013 3:0.140996 4:1 
16284 1:0.2 2:0.383329 3:0.371673 4:1 
16284 1:0.0964824 2:0.620017 3:0.616357 4:1 
16284 1:0.104523 2:0.447924 3:0.634011 4:1 
16284 1:0.0271357 2:0.73993 3:0.311297 
16284 1:0.0552764 2:0.634915 3:0.0914113 4:1 
16284 1:0.0944724 2:0.586288 3:0.525388 4:1 
16284 1:0.081407 2:0.493758 3:0.173799 4:1 
16284 1:0.0974874 2:0.33308 3:0.672473 
16284 1:0.108543 2:0.512071 3:0.540758 4:1 
16284 1:0.0763819 2:0.466444 3:0.347857 4:1 
16284 1:0.0743719 2:0.605842 3:0.607715 4:1 
16284 1:0.118593 2:0.698993 3:0.799352 4:1 
16284 1:0.0934673 2:0.501448 3:0.736042 4:1 
16284 1:0.270352 2:0.754587 3:0.831578 4:1 
16284 1:0.0683417 2:0.324217 3:0.526247 
16284 1:0.106533 2:0.373017 3:0.826397 4:1 
16284 1:0.0502513 2:0.399745 3:0.560131 
16284 1:0.121608 2:0.750655 3:0.589631 4:1 
16284 1:0.116583 2:0.213098 3:0.373821 4:1 
16284 1:0.0432161 2:0.786764 3:0.649664 4:1 
16284 1:0.119598 2:0.720927 3:0.471408 4:1 
16284 1:0.0291457 2:0.507346 3:0.648669 
16284 1:0.0834171 2:0.345841 3:0.148497 4:1 
16284 1:0.121608 2:0.268658 3:0.657263 4:1 
16284 1:0.038191 2:0.704994 3:0.253327 
16284 1:0.105528 2:0.658125 3:0.729216 4:1 
16284 1:0.0562814 2:0.682956 3:0.169048 4:1 
16284 1:0.0884422 2:0.771658 3:0.609912 
16284 1:0.101508 2:0.866568 3:0.653678 4:1 
16284 1:0.118593 2:0.283936 3:0.547019 4:1 
16284 1:0.0693467 2:0.828666 3:0.464165 4:1 
16284 1:0.0723618 2:0.406918 3:0.213858 4:1 
16284 1:0.105528 2:0.847634 3:0.666679 4:1 
16284 1:0.0321608 2:0.392847 3:0.479314 
16284 1:0.0592965 2:0.48824 3:0.474465 
16284 1:0.165829 2:0.172955 3:0.541286 4:1 
16284 1:0.0512563 2:0.844185 3:0.330178 4:1 
16284 1:0.081407 2:0.69413 3:0.631163 4:1 
16284 1:0.0623116 2:0.603635 3:0.666126 4:1 
16284 1:0.0703518 2:0.780073 3:0.188212 4:1 
16284 1:0.0482412 2:0.734584 3:0.27912 4:1 
16284 1:0.078392 2:0.253242 3:0.881838 
16284 1:0.0311558 2:0.602945 3:0.0695222 
16284 1:0.0552764 2:0.625604 3:0.259392 
16284 1:0.0753769 2:0.520106 3:0.489283 4:1 
16284 1:0.0834171 2:0.584253 3:0.889535 4:1 
16284 1:0.141709 2:0.204235 3:0.569534 4:1 
16284 1:0.081407 2:0.542765 3:0.902094 4:1 
16284 1:0.081407 2:0.269279 3:0.131187 4:1 
16284 1:0.0442211 2:0.64971 3:0.162505 4:1 
16284 1:0.114573 2:0.453476 3:0.815581 4:1 
16284 1:0.0633166 2:0.499414 3:0.0857027 4:1 
16284 1:0.103518 2:0.403056 3:0.196339 4:1 
16284 1:0.0623116 2:0.581184 3:0.559996 4:1 
16284 1:0.0683417 2:0.406746 3:0.114553 4:1 
16284 1:0.101508 2:0.366637 3:0.616357 4:1 
16284 1:0.0994975 2:0.650469 3:0.636589 4:1 
16284 1:0.142714 2:0.463857 3:0.589594 4:1 
16284 1:0.0351759 2:0.356153 3:0.650056 
16284 1:0.0261307 2:0.572458 3:0.474723 
16284 1:0.0763819 2:0.822803 3:0.221396 4:1 
16284 1:0.0562814 2:0.736929 3:0.708026 4:1 
16284 1:0.114573 2:0.433508 3:0.709684 
16284 1:0.0834171 2:0.451649 3:0.628769 4:1 
16284 1:0.18392 2:0.475962 3:0.534055 4:1 
16284 1:0.117588 2:0.424334 3:0.348875 4:1 
16284 1:0.0522613 2:0.553214 3:0.330534 
16284 1:0.0934673 2:0.388157 3:0.57803 4:1 
16284 1:0.081407 2:0.497172 3:0.713109 
16284 1:0.078392 2:0.394261 3:0.301979 4:1 
16284 1:0.107538 2:0.560698 3:0.737539 4:1 
16284 1:0.0673367 2:0.589805 3:0.294441 4:1 
16284 1:0.0190955 2:0.825838 3:0.481634 
16284 1:0.0713568 2:0.643227 3:0.367352 4:1 
16284 1:0.20603 2:0.292627 3:0.660811 4:1 
16284 1:0.117588 2:0.421541 3:0.816883 4:1 
16284 1:0.161809 2:0.671851 3:0.744169 4:1 
16284 1:0.0874372 2:0.639399 3:0.457143 4:1 
16284 1:0.0452261 2:0.736033 3:0.829577 4:1 
16284 1:0.0442211 2:0.588633 3:0.164273 
16284 1:0.0261307 2:0.707649 3:0.0480382 4:1 
16284 1:0.040201 2:0.774797 3:0.100459 4:1 
16284 1:0.0562814 2:0.374224 3:0.669318 
16284 1:0.121608 2:0.752828 3:0.871182 
16284 1:0.0934673 2:0.562871 3:0.368248 4:1 
16284 1:0.0703518 2:0.661608 3:0.672768 4:1 
16284 1:0.150754 2:0.576148 3:0.814845 4:1 
16284 1:0.0964824 2:0.281694 3:0.371869 4:1 
16284 1:0.103518 2:0.351876 3:0.469972 4:1 
16284 1:0.0351759 2:0.902159 3:0.568319 4:1 
16284 1:0.0753769 2:0.534315 3:0.131175 
16284 1:0.0472362 2:0.412505 3:0.757157 
16284 1:0.0331658 2:0.764519 3:0.235268 4:1 
16284 1:0.0633166 2:0.659781 3:0.599894 4:1 
16284 1:0.0633166 2:0.583218 3:0.277843 4:1 
16284 1:0.041206 2:0.750172 3:0.589729 4:1 
16284 1:0.0452261 2:0.883708 3:0.706111 4:1 
16284 1:0.196985 2:0.462133 3:0.29918 4:1 
16284 1:0.102513 2:0.441164 3:0.638676 4:1 
16284 1:0.102513 2:0.722651 3:0.765996 
16284 1:0.121608 2:0.717271 3:0.871698 4:1 
16284 1:0.0874372 2:0.376776 3:0.349342 4:1 
16284 1:0.102513 2:0.51783 3:0.85618 4:1 
16284 1:0.0492462 2:0.710374 3:0.670141 
16284 1:0.0592965 2:0.584391 3:0.732506 4:1 
16284 1:0.0603015 2:0.571872 3:0.358635 4:1 
16284 1:0.115578 2:0.394503 3:0.468584 4:1 
16284 1:0.0271357 2:0.722307 3:0.298775 
16284 1:0.113568 2:0.279383 3:0.621256 4:1 
16284 1:0.203015 2:0.280556 3:0.721936 4:1 
16284 1:0.0361809 2:0.668196 3:0.836685 4:1 
16284 1:0.0331658 2:0.558077 3:0.623109 
16284 1:0.112563 2:0.290971 3:0.615731 4:1 
16284 1:0.078392 2:0.421299 3:0.441502 4:1 
16284 1:0.079397 2:0.862429 3:0.177531 4:1 
16284 1:0.0844221 2:0.47679 3:0.43982 4:1 
16284 1:0.222111 2:0.280763 3:0.837348 4:1 
16284 1:0.0432161 2:0.681922 3:0.706136 4:1 
16284 1:0.0271357 2:0.430128 3:0.479228 
16284 1:0.041206 2:0.738481 3:0.573598 4:1 
16284 1:0.107538 2:0.256863 3:0.52432 4:1 
16284 1:0.0552764 2:0.634363 3:0.568577 4:1 
16284 1:0.130653 2:0.323251 3:0.66291 4:1 
16284 1:0.0934673 2:0.533039 3:0.825783 4:1 
16284 1:0.0703518 2:0.872638 3:0.467749 
16284 1:0.154774 2:0.606704 3:0.881593 4:1 
16284 1:0.110553 2:0.584253 3:0.634613 4:1 
16284 1:0.0974874 2:0.503207 3:0.204245 4:1 
16284 1:0.291457 2:0.492309 3:0.387338 4:1 
16284 1:0.0763819 2:0.472513 3:0.335248 4:1 
16284 1:0.0753769 2:0.782522 3:0.196437 4:1 
16284 1:0.0492462 2:0.664988 3:0.679606 4:1 
16284 1:0.0442211 2:0.662367 3:0.0909939 4:1 
16284 1:0.0512563 2:0.727997 3:0.610121 
16284 1:0.0914573 2:0.467409 3:0.141978 4:1 
16284 1:0.0974874 2:0.40609 3:0.0854695 4:1 
16284 1:0.108543 2:0.58615 3:0.488595 
16284 1:0.0321608 2:0.468375 3:0.642494 
16284 1:0.0924623 2:0.549903 3:0.620409 4:1 
16284 1:0.0422111 2:0.781591 3:0.315864 4:1 
16284 1:0.112563 2:0.508036 3:0.760263 4:1 
16284 1:0.0984925 2:0.400331 3:0.637252 4:1 
16284 1:0.0954774 2:0.737447 3:0.362122 4:1 
16284 1:0.0753769 2:0.542109 3:0.65304 4:1 
16284 1:0.0532663 2:0.813974 3:0.647908 4:1 
16284 1:0.103518 2:0.479652 3:0.817914 4:1 
16284 1:0.080402 2:0.813319 3:0.13983 4:1 
16284 1:0.115578 2:0.348289 3:0.179815 4:1 
16284 1:0.121608 2:0.323838 3:0.497005 4:1 
16284 1:0.125628 2:0.389399 3:0.439575 4:1 
16284 1:0.103518 2:0.335839 3:0.313814 4:1 
16284 1:0.111558 2:0.459201 3:0.699519 4:1 
16284 1:0.100503 2:0.333667 3:0.196928 4:1 
16284 1:0.0944724 2:0.457132 3:0.690778 
16284 1:0.173869 2:0.382673 3:0.595769 4:1 
16284 1:0.0311558 2:0.546282 3:0.699273 
16284 1:0.0874372 2:0.766071 3:0.710654 4:1 
16284 1:0.0221106 2:0.185888 3:0.66771 
16284 1:0.109548 2:0.474445 3:0.649516 4:1 
16284 1:0.078392 2:0.622638 3:0.666458 4:1 
16284 1:0.121608 2:0.32232 3:0.662775 4:1 
16284 1:0.0984925 2:0.555215 3:0.712593 
16284 1:0.0834171 2:0.423403 3:0.596211 4:1 
16284 1:0.0592965 2:0.937819 3:0.466645 4:1 
16284 1:0.0954774 2:0.233274 3:0.302433 4:1 
16284 1:0.0371859 2:0.777693 3:0.269606 4:1 
16284 1:0.137688 2:0.251311 3:0.525683 4:1 
16284 1:0.0984925 2:0.47541 3:0.700992 4:1 
16284 1:0.126633 2:0.437405 3:0.754542 4:1 
16284 1:0.0864322 2:0.388433 3:0.452318 4:1 
16284 1:0.0663317 2:0.4233 3:0.0939035 4:1 
16284 1:0.040201 2:0.59184 3:0.462679 
16284 1:0.176884 2:0.338874 3:0.756224 4:1 
16284 1:0.080402 2:0.338633 3:0.226908 4:1 
16284 1:0.123618 2:0.182646 3:0.780998 4:1 
16284 1:0.0924623 2:0.483032 3:0.430527 4:1 
16284 1:0.194975 2:0.238895 3:0.655286 4:1 
16284 1:0.0542714 2:0.502069 3:0.610072 
16284 1:0.0301508 2:0.813492 3:0.642862 4:1 
16284 1:0.152764 2:0.372707 3:0.516475 4:1 
16284 1:0.0683417 2:0.56056 3:0.472942 4:1 
16284 1:0.166834 2:0.217961 3:0.52626 4:1 
16284 1:0.0522613 2:0.418127 3:0.330804 
16284 1:0.0361809 2:0.55818 3:0.679889 
16284 1:0.0733668 2:0.491413 3:0.593658 
16284 1:0.137688 2:0.21534 3:0.474944 4:1 
16284 1:0.0763819 2:0.228307 3:0.602485 
16284 1:0.106533 2:0.55956 3:0.671332 
16284 1:0.0773869 2:0.355704 3:0.686874 
16284 1:0.0693467 2:0.578425 3:0.685879 4:1 
16284 1:0.0713568 2:0.641468 3:0.663438 
16284 1:0.078392 2:0.622638 3:0.594849 
16284 1:0.0462312 2:0.574941 3:0.0909939 4:1 
16284 1:0.0552764 2:0.64264 3:0.252639 4:1 
16284 1:0.0351759 2:0.72003 3:0.658196 4:1 
16284 1:0.131658 2:0.414436 3:0.754505 4:1 
16284 1:0.147739 2:0.443509 3:0.181362 4:1 
16284 1:0.0613065 2:0.464374 3:0.145084 4:1 
16284 1:0.0884422 2:0.369258 3:0.550137 4:1 
16284 1:0.0422111 2:0.667127 3:0.163598 4:1 
16284 1:0.0874372 2:0.446303 3:0.566134 4:1 
16284 1:0.0542714 2:0.760588 3:0.346764 4:1 
16284 1:0.103518 2:0.275521 3:0.55619 4:1 
16284 1:0.0753769 2:0.561871 3:0.167096 4:1 
16284 1:0.141709 2:0.372707 3:0.623023 4:1 
16284 1:0.00703518 2:0.28904 3:0.275265 
16284 1:0.113568 2:0.457615 3:0.3743 4:1 
16284 1:0.101508 2:0.51883 3:0.158785 
16284 1:0.0924623 2:0.401711 3:0.760018 4:1 
16284 1:0.080402 2:0.707201 3:0.259085 4:1 
16284 1:0.121608 2:0.202028 3:0.257845 4:1 
16284 1:0.0844221 2:0.473583 3:0.64641 4:1 
16284 1:0.109548 2:0.621568 3:0.514069 4:1 
16284 1:0.0492462 2:0.862705 3:0.178035 4:1 
16284 1:0.0502513 2:0.691095 3:0.479142 4:1 
16284 1:0.0331658 2:0.586736 3:0.0330976 4:1 
16284 1:0.144724 2:0.485791 3:0.537849 4:1 
16284 1:0.125628 2:0.554801 3:0.648031 4:1 
16284 1:0.079397 2:0.475686 3:0.464791 4:1 
16284 1:0.0201005 2:0.631639 3:0.629837 
16284 1:0.172864 2:0.294282 3:0.544552 4:1 
16284 1:0.0562814 2:0.491413 3:0.0909939 4:1 
16284 1:0.0964824 2:0.40609 3:0.629334 4:1 
16284 1:0.161809 2:0.337874 3:0.196769 4:1 
16284 1:0.0693467 2:0.555939 3:0.460604 4:1 
16284 1:0.0653266 2:0.629811 3:0.583824 4:1 
16284 1:0.0613065 2:0.408436 3:0.20799 
16284 1:0.149749 2:0.659746 3:0.18901 4:1 
16284 1:0.109548 2:0.621293 3:0.179889 4:1 
16284 1:0.0201005 2:0.391571 3:0.225631 
16284 1:0.108543 2:0.389054 3:0.587102 4:1 
16284 1:0.118593 2:0.436715 3:0.78516 4:1 
16284 1:0.0703518 2:0.674438 3:0.864958 
16284 1:0.079397 2:0.393123 3:0.27761 4:1 
16284 1:0.038191 2:0.49662 3:0.10235 
16284 1:0.080402 2:0.427231 3:0.215405 4:1 
16284 1:0.105528 2:0.334081 3:0.602509 4:1 
16284 1:0.0371859 2:0.694854 3:0.685671 4:1 
16284 1:0.040201 2:0.735377 3:0.680466 
16284 1:0.0864322 2:0.409643 3:0.589643 
16284 1:0.0572864 2:0.681749 3:0.704024 
16284 1:0.0633166 2:0.656746 3:0.57334 4:1 
16284 1:0.103518 2:0.745448 3:0.583788 4:1 
16284 1:0.0974874 2:0.872879 3:0.616947 4:1 
16284 1:0.128643 2:0.306249 3:0.765088 4:1 
16284 1:0.0663317 2:0.715099 3:0.554901 
16284 1:0.0492462 2:0.642399 3:0.684664 4:1 
16284 1:0.0824121 2:0.56832 3:0.753118 4:1 
16284 1:0.248241 2:0.56225 3:0.265027 4:1 
16284 1:0.0271357 2:0.833943 3:0.276296 4:1 
16284 1:0.0934673 2:0.368016 3:0.61939 4:1 
16284 1:0.0623116 2:0.635881 3:0.649565 4:1 
16284 1:0.101508 2:0.354187 3:0.28171 4:1 
16284 1:0.0120603 2:0.538764 3:0.506924 
16284 1:0.0934673 2:0.305732 3:0.360121 4:1 
16284 1:0.109548 2:0.658953 3:0.513148 4:1 
16284 1:0.106533 2:0.391364 3:0.614565 4:1 
16284 1:0.0582915 2:0.425162 3:0.0739786 4:1 
16284 1:0.0934673 2:0.507035 3:0.349833 4:1 
16284 1:0.0723618 2:0.670817 3:0.512731 4:1 
16284 1:0.102513 2:0.48148 3:0.605468 4:1 
16284 1:0.108543 2:0.348358 3:0.668005 4:1 
16284 1:0.0613065 2:0.463443 3:0.134281 4:1 
16284 1:0.0572864 2:0.758311 3:0.747275 4:1 
16284 1:0.0542714 2:0.643158 3:0.182982 4:1 
16284 1:0.0281407 2:0.759794 3:0.78791 4:1 
16284 1:0.0703518 2:0.577597 3:0.29314 4:1 
16284 1:0.0964824 2:0.581528 3:0.674843 4:1 
16284 1:0.127638 2:0.226928 3:0.598237 4:1 
16284 1:0.0552764 2:0.753587 3:0.138627 
16284 1:0.0201005 2:0.783832 3:0.630144 4:1 
16284 1:0.0582915 2:0.70427 3:0.64986 
16284 1:0.0683417 2:0.633536 3:0.182172 4:1 
16284 1:0.0542714 2:0.844254 3:0.226392 4:1 
16284 1:0.0251256 2:0.708546 3:0.864381 4:1 
16284 1:0.0904523 2:0.398089 3:0.66129 4:1 
16284 1:0.0552764 2:0.586736 3:0.125724 4:1 
16284 1:0.0623116 2:0.585322 3:0.475226 4:1 
16284 1:0.0582915 2:0.721858 3:0.559959 4:1 
16284 1:0.117588 2:0.623638 3:0.605443 4:1 
16284 1:0.0552764 2:0.68806 3:0.645625 
16284 1:0.103518 2:0.582218 3:0.620286 4:1 
16284 1:0.0914573 2:0.515864 3:0.838207 
16284 1:0.0723618 2:0.604532 3:0.874177 4:1 
16284 1:0.0743719 2:0.524831 3:0.679312 4:1 
16284 1:0.113568 2:0.516554 3:0.436015 4:1 
16284 1:0.0773869 2:0.484274 3:0.535602 4:1 
16284 1:0.100503 2:0.475445 3:0.545816 4:1 
16284 1:0.123618 2:0.687233 3:0.249607 4:1 
16284 1:0.0472362 2:0.894951 3:0.128511 
16284 1:0.110553 2:0.436164 3:0.66523 4:1 
16284 1:0.0442211 2:0.674576 3:0.697113 4:1 
16284 1:0.105528 2:0.44282 3:0.691883 4:1 
16284 1:0.0954774 2:0.451373 3:0.609532 4:1 
16284 1:0.102513 2:0.473721 3:0.747545 4:1 
16284 1:0.159799 2:0.332908 3:0.484838 4:1 
16284 1:0.123618 2:0.442371 3:0.215761 4:1 
16284 1:0.0874372 2:0.520072 3:0.703202 4:1 
16284 1:0.112563 2:0.349738 3:0.491885 4:1 
16284 1:0.0854271 2:0.423369 3:0.664273 4:1 
16284 1:0.0502513 2:0.843289 3:0.806484 4:1 
16284 1:0.0984925 2:0.398986 3:0.257341 4:1 
16284 1:0.0944724 2:0.445958 3:0.667919 4:1 
16284 1:0.133668 2:0.425714 3:0.43529 4:1 
16284 1:0.0763819 2:0.451511 3:0.44726 4:1 
16284 1:0.0824121 2:0.686302 3:0.772969 4:1 
16284 1:0.0482412 2:0.631811 3:0.710089 4:1 
16284 1:0.152764 2:0.569285 3:0.180637 4:1 
16284 1:0.102513 2:0.318147 3:0.443209 4:1 
16284 1:0.109548 2:0.444682 3:0.499288 4:1 
16284 1:0.236181 2:0.400297 3:0.613828 4:1 
16284 1:0.0864322 2:0.465754 3:0.244181 4:1 
16284 1:0.0994975 2:0.482066 3:0.831799 4:1 
16284 1:0.0442211 2:0.831494 3:0.681669 4:1 
16284 1:0.153769 2:0.71872 3:0.321229 
16284 1:0.0854271 2:0.329942 3:0.172498 4:1 
16284 1:0.0924623 2:0.554663 3:0.312635 4:1 
16284 1:0.0552764 2:0.566423 3:0.777647 
16284 1:0.081407 2:0.369672 3:0.246378 
16284 1:0.219095 2:0.556284 3:0.81854 4:1 
16284 1:0.0914573 2:0.419954 3:0.731352 4:1 
16284 1:0.0934673 2:0.327838 3:0.511258 4:1 
16284 1:0.0683417 2:0.597324 3:0.203509 4:1 
16284 1:0.107538 2:0.434681 3:0.295828 4:1 
16284 1:0.0492462 2:0.479514 3:0.912002 
16284 1:0.0562814 2:0.376811 3:0.669785 
16284 1:0.166834 2:0.355359 3:0.679618 4:1 
16284 1:0.147739 2:0.406228 3:0.326827 4:1 
16284 1:0.124623 2:0.246517 3:0.565606 4:1 
16284 1:0.0854271 2:0.476066 3:0.671761 4:1 
16284 1:0.0824121 2:0.647986 3:0.637731 
16284 1:0.129648 2:0.238171 3:0.56331 4:1 
16284 1:0.0422111 2:0.808939 3:0.166409 4:1 
16284 1:0.0231156 2:0.646572 3:0.771263 
16284 1:0.0904523 2:0.47341 3:0.246955 4:1 
16284 1:0.0844221 2:0.553697 3:0.677593 4:1 
16284 1:0.103518 2:0.422058 3:0.615007 4:1 
16284 1:0.0311558 2:0.749862 3:0.568442 4:1 
16284 1:0.102513 2:0.448234 3:0.445467 4:1 
16284 1:0.0211055 2:0.703373 3:0.504334 
16284 1:0.111558 2:0.626707 3:0.668238 4:1 
16284 1:0.0743719 2:0.309043 3:0.574826 
16284 1:0.0542714 2:0.319803 3:0.527352 
16284 1:0.0773869 2:0.696372 3:0.281895 4:1 
16284 1:0.0984925 2:0.533487 3:0.727129 4:1 
16284 1:0.131658 2:0.75976 3:0.545141 
16284 1:0.0582915 2:0.583046 3:0.776296 4:1 
16284 1:0.078392 2:0.572803 3:0.219886 4:1 
16284 1:0.079397 2:0.720479 3:0.704638 4:1 
16284 1:0.079397 2:0.515588 3:0.475447 
16284 1:0.080402 2:0.508001 3:0.662235 4:1 
16284 1:0.168844 2:0.406746 3:0.470843 4:1 
16284 1:0.343719 2:0.759001 3:0.187033 4:1 
16284 1:0.121608 2:0.550352 3:0.609838 4:1 
16284 1:0.164824 2:0.263105 3:0.652352 4:1 
16284 1:0.0934673 2:0.481653 3:0.455043 4:1 
16284 1:0.112563 2:0.589874 3:0.595573 4:1 
16284 1:0.0884422 2:0.53266 3:0.618395 4:1 
16284 1:0.078392 2:0.540902 3:0.18432 4:1 
16284 1:0.079397 2:0.408505 3:0.350017 4:1 
16284 1:0.0703518 2:0.449855 3:0.279304 4:1 
16284 1:0.109548 2:0.246758 3:0.318061 4:1 
16284 1:0.0251256 2:0.443992 3:0.547952 
16284 1:0.0592965 2:0.595289 3:0.755868 4:1 
16284 1:0.133668 2:0.521624 3:0.844284 4:1 
16284 1:0.184925 2:0.391571 3:0.848004 4:1 
16284 1:0.0974874 2:0.641226 3:0.225349 4:1 
16284 1:0.0924623 2:0.281694 3:0.168926 4:1 
16284 1:0.110553 2:0.802697 3:0.479388 4:1 
16284 1:0.0683417 2:0.525728 3:0.543103 4:1 
16284 1:0.0683417 2:0.558698 3:0.280728 4:1 
16284 1:0.039196 2:0.764554 3:0.348839 4:1 
16284 1:0.0954774 2:0.341909 3:0.504591 4:1 
16284 1:0.0442211 2:0.772762 3:0.662296 4:1 
16284 1:0.0281407 2:0.809594 3:0.629898 
16284 1:0.100503 2:0.346979 3:0.223151 4:1 
16284 1:0.0201005 2:0.778625 3:0.0563494 4:1 
16284 1:0.131658 2:0.209926 3:0.296099 4:1 
16284 1:0.0572864 2:0.742344 3:0.61605 4:1 
16284 1:0.144724 2:0.301042 3:0.224624 4:1 
16284 1:0.0773869 2:0.702407 3:0.674585 4:1 
16284 1:0.0311558 2:0.828735 3:0.649897 4:1 
16284 1:0.0954774 2:0.522555 3:0.710997 4:1 
16284 1:0.103518 2:0.584287 3:0.726552 4:1 
16284 1:0.164824 2:0.176093 3:0.598556 4:1 
16284 1:0.300503 2:0.568354 3:0.509146 4:1 
16284 1:0.112563 2:0.435508 3:0.61977 4:1 
16284 1:0.078392 2:0.566388 3:0.88789 4:1 
16284 1:0.0733668 2:0.477894 3:0.251424 4:1 
16284 1:0.0582915 2:0.573079 3:0.657594 
16284 1:0.20804 2:0.205408 3:0.560057 4:1 
16284 1:0.117588 2:0.494413 3:0.675935 
16284 1:0.0623116 2:0.750345 3:0.304582 4:1 
16284 1:0.0763819 2:0.625845 3:0.377173 4:1 
16284 1:0.078392 2:0.583529 3:0.317116 4:1 
16284 1:0.110553 2:0.19044 3:0.517997 4:1 
16284 1:0.147739 2:0.356015 3:0.547584 4:1 
16284 1:0.0432161 2:0.610395 3:0.596236 
16284 1:0.134673 2:0.760553 3:0.11745 4:1 
16284 1:0.0663317 2:0.541385 3:0.665611 4:1 
16284 1:0.0603015 2:0.5777 3:0.275744 4:1 
16284 1:0.0613065 2:0.589805 3:0.553599 4:1 
16284 1:0.0834171 2:0.661126 3:0.257562 4:1 
16284 1:0.109548 2:0.332253 3:0.827932 4:1 
16284 1:0.423116 2:0.679645 3:0.573623 4:1 
16284 1:0.0733668 2:0.372293 3:0.178882 4:1 
16284 1:0.0954774 2:0.663678 3:0.630426 4:1 
16284 1:0.0824121 2:0.319527 3:0.145195 4:1 
16284 1:0.0894472 2:0.522831 3:0.444534 4:1 
16284 1:0.18191 2:0.454511 3:0.856548 
16284 1:0.080402 2:0.563905 3:0.565753 4:1 
16284 1:0.0673367 2:0.606222 3:0.679336 4:1 
16284 1:0.119598 2:0.350048 3:0.766352 4:1 
16284 1:0.078392 2:0.45965 3:0.317828 4:1 
16284 1:0.0613065 2:0.543351 3:0.280114 4:1 
16284 1:0.153769 2:0.35029 3:0.437868 4:1 
16284 1:0.0924623 2:0.382949 3:0.658932 4:1 
16284 1:0.129648 2:0.388433 3:0.442411 4:1 
16284 1:0.0944724 2:0.339633 3:0.616394 4:1 
16284 1:0.0894472 2:0.399848 3:0.454061 4:1 
16284 1:0.129648 2:0.375845 3:0.544711 
16284 1:0.0864322 2:0.40009 3:0.439047 4:1 
16284 1:0.0723618 2:0.636812 3:0.645772 4:1 
16284 1:0.0522613 2:0.74431 3:0.76154 4:1 
16284 1:0.0693467 2:0.628983 3:0.687942 4:1 
16284 1:0.0512563 2:0.796179 3:0.325525 4:1 
16284 1:0.0964824 2:0.377914 3:0.774664 4:1 
16284 1:0.0864322 2:0.723652 3:0.240842 4:1 
16284 1:0.0924623 2:0.498517 3:0.221101 
16284 1:0.172864 2:0.691889 3:0.555281 
16284 1:0.0291457 2:0.589909 3:0.125368 
16284 1:0.114573 2:0.489688 3:0.615265 4:1 
16284 1:0.0552764 2:0.340702 3:0.654758 
16284 1:0.0532663 2:0.670334 3:0.274639 4:1 
16284 1:0.0361809 2:0.684612 3:0.142494 
16284 1:0.0663317 2:0.5488 3:0.846874 4:1 
16284 1:0.149749 2:0.480239 3:0.621022 4:1 
16284 1:0.0542714 2:0.675714 3:0.629862 4:1 
16284 1:0.0733668 2:0.513519 3:0.669552 4:1 
16284 1:0.0683417 2:0.593565 3:0.741357 4:1 
16284 1:0.239196 2:0.621775 3:0.644593 4:1 
16284 1:0.111558 2:0.719341 3:0.0953766 4:1 
16284 1:0.104523 2:0.390226 3:0.18475 4:1 
16284 1:0.0512563 2:0.678025 3:0.895244 
16284 1:0.081407 2:0.598807 3:0.340417 4:1 
16284 1:0.117588 2:0.566526 3:0.807626 4:1 
16284 1:0.0954774 2:0.424093 3:0.720573 4:1 
16284 1:0.0713568 2:0.278763 3:0.563949 
16284 1:0.103518 2:0.299869 3:0.636626 4:1 
16284 1:0.0723618 2:0.575183 3:0.658196 
16284 1:0.0492462 2:0.71196 3:0.610231 
16284 1:0.150754 2:0.28535 3:0.678649 4:1 
16284 1:0.138693 2:0.766795 3:0.838256 4:1 
16284 1:0.0723618 2:0.537591 3:0.723519 4:1 
16284 1:0.081407 2:0.307974 3:0.160565 4:1 
16284 1:0.0462312 2:0.755311 3:0.265014 4:1 
16284 1:0.041206 2:0.847186 3:0.654611 4:1 
16284 1:0.0482412 2:0.766968 3:0.465 4:1 
16284 1:0.186935 2:0.311698 3:0.6758 4:1 
16284 1:0.175879 2:0.204821 3:0.648264 4:1 
16284 1:0.0321608 2:0.775728 3:0.172007 4:1 
16284 1:0.0613065 2:0.504311 3:0.556791 
16284 1:0.0482412 2:0.833011 3:0.333186 4:1 
16284 1:0.0984925 2:0.36136 3:0.453005 4:1 
16284 1:0.161809 2:0.659367 3:0.555932 
16284 1:0.0924623 2:0.61574 3:0.574028 4:1 
16284 1:0.0964824 2:0.448441 3:0.593486 4:1 
16284 1:0.111558 2:0.497344 3:0.575476 4:1 
16284 1:0.0633166 2:0.617292 3:0.280863 4:1 
16284 1:0.179899 2:0.594013 3:0.534325 4:1 
16284 1:0.117588 2:0.276348 3:0.825587 4:1 
16284 1:0.0623116 2:0.428921 3:0.273497 
16284 1:0.080402 2:0.4283 3:0.456885 4:1 
16284 1:0.0552764 2:0.421541 3:0.592234 
16284 1:0.0824121 2:0.470203 3:0.765383 4:1 
16284 1:0.0542714 2:0.702407 3:0.590122 4:1 
16284 1:0.078392 2:0.638433 3:0.752124 4:1 
16284 1:0.0331658 2:0.7002 3:0.69462 4:1 
16284 1:0.0562814 2:0.711408 3:0.55382 4:1 
16284 1:0.0884422 2:0.30987 3:0.346752 
16284 1:0.171859 2:0.326045 3:0.842332 4:1 
16284 1:0.100503 2:0.561457 3:0.530225 4:1 
16284 1:0.0422111 2:0.824872 3:0.450697 4:1 
16284 1:0.0753769 2:0.660022 3:0.589607 4:1 
16284 1:0.0914573 2:0.672127 3:0.592725 4:1 
16284 1:0.116583 2:0.554973 3:0.532864 4:1 
16284 1:0.0753769 2:0.606428 3:0.622532 4:1 
16284 1:0.0994975 2:0.312284 3:0.599268 4:1 
16284 1:0.0773869 2:0.565768 3:0.536879 4:1 
16284 1:0.0753769 2:0.701131 3:0.820725 4:1 
16284 1:0.167839 2:0.794075 3:0.1875 
16284 1:0.124623 2:0.431922 3:0.660148 4:1 
16284 1:0.0713568 2:0.686819 3:0.284104 4:1 
16284 1:0.078392 2:0.493068 3:0.451495 4:1 
16284 1:0.080402 2:0.504483 3:0.625565 4:1 
16284 1:0.0452261 2:0.848082 3:0.271349 4:1 
16284 1:0.0361809 2:0.825355 3:0.346261 
16284 1:0.0844221 2:0.385915 3:0.348777 4:1 
16284 1:0.104523 2:0.364085 3:0.463048 4:1 
16284 1:0.0864322 2:0.472203 3:0.441379 4:1 
16284 1:0.0663317 2:0.59991 3:0.168312 
16284 1:0.19397 2:0.291523 3:0.722169 4:1 
16284 1:0.0572864 2:0.640606 3:0.16372 4:1 
16284 1:0.128643 2:0.334219 3:0.443712 4:1 
16284 1:0.0914573 2:0.502518 3:0.864639 4:1 
16284 1:0.109548 2:0.344082 3:0.580031 4:1 
16284 1:0.0592965 2:0.615119 3:0.62969 4:1 
16284 1:0.104523 2:0.503483 3:0.260361 4:1 
16284 1:0.0844221 2:0.247138 3:0.192963 
16284 1:0.0613065 2:0.849738 3:0.114639 4:1 
16284 1:0.0522613 2:0.700855 3:0.281845 
16284 1:0.081407 2:0.541764 3:0.61497 4:1 
16284 1:0.116583 2:0.360636 3:0.839238 4:1 
16284 1:0.081407 2:0.395192 3:0.281686 4:1 
16284 1:0.239196 2:0.282556 3:0.589373 4:1 
16284 1:0.0914573 2:0.65009 3:0.143857 4:1 
16284 1:0.078392 2:0.537833 3:0.177274 4:1 
16284 1:0.104523 2:0.331287 3:0.468523 4:1 
16284 1:0.0432161 2:0.690578 3:0.272957 4:1 
16284 1:0.109548 2:0.36812 3:0.46263 4:1 
16284 1:0.100503 2:0.511208 3:0.360624 4:1 
16284 1:0.0472362 2:0.645227 3:0.134834 4:1 
16284 1:0.0844221 2:0.471375 3:0.680957 
16284 1:0.0442211 2:0.681335 3:0.823193 4:1 
16284 1:0.129648 2:0.374121 3:0.680318 4:1 
16284 1:0.100503 2:0.56225 3:0.464693 4:1 
16284 1:0.0311558 2:0.548696 3:0.114123 
16284 1:0.168844 2:0.451131 3:0.569191 4:1 
16284 1:0.0683417 2:0.528142 3:0.303059 4:1 
16284 1:0.0512563 2:0.676128 3:0.639179 4:1 
16284 1:0.129648 2:0.290074 3:0.589496 4:1 
16284 1:0.0572864 2:0.379777 3:0.589779 
16284 1:0.0763819 2:0.458856 3:0.627406 4:1 
16284 1:0.0623116 2:0.365844 3:0.603676 
16284 1:0.0633166 2:0.760553 3:0.666372 
16284 1:0.0592965 2:0.21403 3:0.599907 
16284 1:0.152764 2:0.797282 3:0.272221 4:1 
16284 1:0.0914573 2:0.591978 3:0.27912 4:1 
16284 1:0.0854271 2:0.468237 3:0.631138 4:1 
16284 1:0.122613 2:0.382053 3:0.740866 4:1 
16284 1:0.0904523 2:0.421403 3:0.593621 4:1 
16284 1:0.113568 2:0.192544 3:0.231033 4:1 
16284 1:0.0462312 2:0.397986 3:0.621833 
16284 1:0.232161 2:0.296938 3:0.624325 4:1 
16284 1:0.132663 2:0.372396 3:0.436874 4:1 
16284 1:0.0432161 2:0.720099 3:0.725312 4:1 
16284 1:0.0733668 2:0.51752 3:0.276137 4:1 
16284 1:0.0271357 2:0.504552 3:0.358807 
16284 1:0.0934673 2:0.285591 3:0.286081 4:1 
16284 1:0.108543 2:0.510622 3:0.635619 4:1 
16284 1:0.0713568 2:0.49431 3:0.581676 
16284 1:0.116583 2:0.344668 3:0.633729 4:1 
16284 1:0.142714 2:0.321458 3:0.57129 4:1 
16284 1:0.0271357 2:0.910574 3:0.160577 4:1 
16284 1:0.0984925 2:0.754656 3:0.632194 4:1 
16284 1:0.100503 2:0.747103 3:0.709463 4:1 
16284 1:0.117588 2:0.468271 3:0.677666 4:1 
16284 1:0.0994975 2:0.537281 3:0.527696 4:1 
16284 1:0.0120603 2:0.895503 3:0.610428 4:1 
16284 1:0.167839 2:0.250276 3:0.293238 4:1 
16284 1:0.0713568 2:0.565699 3:0.736471 4:1 
16284 1:0.0281407 2:0.557629 3:0.852657 
16284 1:0.101508 2:0.365395 3:0.347869 4:1 
16284 1:0.211055 2:0.482204 3:0.61222 4:1 
16284 1:0.078392 2:0.839564 3:0.630942 4:1 
16284 1:0.0582915 2:0.662919 3:0.596236 4:1 
16284 1:0.103518 2:0.367327 3:0.119046 4:1 
16284 1:0.107538 2:0.430266 3:0.662628 4:1 
16284 1:0.0753769 2:0.520555 3:0.442754 4:1 
16284 1:0.0954774 2:0.607325 3:0.739454 4:1 
16284 1:0.0653266 2:0.70827 3:0.533085 4:1 
16284 1:0.0482412 2:0.778383 3:0.635988 4:1 
16284 1:0.0351759 2:0.782556 3:0.273829 
16284 1:0.0914573 2:0.575321 3:0.708358 4:1 
16284 1:0.0482412 2:0.545144 3:0.564084 
16284 1:0.114573 2:0.311698 3:0.389044 4:1 
16284 1:0.0743719 2:0.53935 3:0.690213 
16284 1:0.0773869 2:0.511553 3:0.781637 4:1 
16284 1:0.130653 2:0.467099 3:0.704994 4:1 
16284 1:0.0693467 2:0.583839 3:0.828828 4:1 
16284 1:0.0683417 2:0.826355 3:0.654857 4:1 
16284 1:0.0532663 2:0.644399 3:0.699764 4:1 
16284 1:0.0974874 2:0.63188 3:0.351085 4:1 
16284 1:0.119598 2:0.60529 3:0.0909939 4:1 
16284 1:0.0824121 2:0.531935 3:0.617781 4:1 
16284 1:0.106533 2:0.698579 3:0.669736 
16284 1:0.108543 2:0.424679 3:0.690225 4:1 
16284 1:0.0633166 2:0.710132 3:0.73652 4:1 
16284 1:0.149749 2:0.333046 3:0.57323 4:1 
16284 1:0.167839 2:0.350186 3:0.858341 
16284 1:0.139698 2:0.667713 3:0.710519 4:1 
16284 1:0.0884422 2:0.799421 3:0.18885 4:1 
16284 1:0.0874372 2:0.602221 3:0.599428 4:1 
16284 1:0.0733668 2:0.560146 3:0.179041 4:1 
16284 1:0.118593 2:0.376293 3:0.781514 4:1 
16284 1:0.0201005 2:0.576942 3:0.274283 
16284 1:0.0884422 2:0.593047 3:0.745249 4:1 
16284 1:0.0824121 2:0.481135 3:0.262031 4:1 
16284 1:0.0633166 2:0.522693 3:0.27502 4:1 
16284 1:0.0944724 2:0.52928 3:0.703816 4:1 
16284 1:0.0733668 2:0.499517 3:0.671749 4:1 
16284 1:0.0552764 2:0.641709 3:0.595045 4:1 
16284 1:0.129648 2:0.520486 3:0.358279 4:1 
16284 1:0.0522613 2:0.760967 3:0.556607 4:1 
16284 1:0.0874372 2:0.44513 3:0.700648 
16284 1:0.163819 2:0.609739 3:0.863497 4:1 
16284 1:0.0683417 2:0.652814 3:0.45384 4:1 
16284 1:0.0974874 2:0.503483 3:0.558731 4:1 
16284 1:0.0462312 2:0.676749 3:0.565115 4:1 
16284 1:0.0432161 2:0.634881 3:0.619881 
16284 1:0.0743719 2:0.583563 3:0.280667 4:1 
16284 1:0.0522613 2:0.587633 3:0.145649 4:1 
16284 1:0.0653266 2:0.401435 3:0.133164 4:1 
16284 1:0.0452261 2:0.763381 3:0.348004 4:1 
16284 1:0.116583 2:0.488205 3:0.730787 4:1 
16284 1:0.102513 2:0.387122 3:0.733451 4:1 
16284 1:0.0442211 2:0.745586 3:0.852534 4:1 
16284 1:0.128643 2:0.404987 3:0.570541 4:1 
16284 1:0.039196 2:0.796731 3:0.589803 4:1 
16284 1:0.100503 2:0.361084 3:0.439734 4:1 
16284 1:0.106533 2:0.376638 3:0.683829 4:1 
16284 1:0.0351759 2:0.545179 3:0.61055 
16284 1:0.101508 2:0.623362 3:0.636515 4:1 
16284 1:0.0693467 2:0.52559 3:0.683289 4:1 
16284 1:0.117588 2:0.385363 3:0.763602 4:1 
16284 1:0.0743719 2:0.446131 3:0.198426 
16284 1:0.123618 2:0.535212 3:0.576864 4:1 
16284 1:0.136683 2:0.380328 3:0.636245 4:1 
16284 1:0.114573 2:0.524831 3:0.214484 
16284 1:0.0763819 2:0.421644 3:0.594886 
16284 1:0.168844 2:0.633018 3:0.778273 
16284 1:0.121608 2:0.28666 3:0.723593 4:1 
16284 1:0.0592965 2:0.679542 3:0.740314 4:1 
16284 1:0.0522613 2:0.513898 3:0.461869 
16284 1:0.101508 2:0.485895 3:0.453423 
16284 1:0.107538 2:0.342082 3:0.575636 4:1 
16284 1:0.0472362 2:0.644227 3:0.573659 4:1 
16284 1:0.0924623 2:0.462995 3:0.589742 4:1 
16284 1:0.0703518 2:0.534522 3:0.545914 4:1 
16284 1:0.0532663 2:0.752862 3:0.281759 4:1 
16284 1:0.0211055 2:0.647951 3:0.14231 
16284 1:0.102513 2:0.575045 3:0.572923 4:1 
16284 1:0.0673367 2:0.556594 3:0.461918 4:1 
16284 1:0.038191 2:0.584494 3:0.182184 
16284 1:0.0954774 2:0.5478 3:0.685266 4:1 
16284 1:0.115578 2:0.733412 3:0.869758 
16284 1:0.102513 2:0.279383 3:0.628953 4:1 
16284 1:0.0854271 2:0.758001 3:0.151382 4:1 
16284 1:0.0723618 2:0.432163 3:0.326213 
16284 1:0.494472 2:0.688785 3:0.632526 4:1 
16284 1:0.108543 2:0.626328 3:0.456566 
16284 1:0.0914573 2:0.458339 3:0.613423 4:1 
16284 1:0.124623 2:0.524521 3:0.605787 4:1 
16284 1:0.0834171 2:0.596048 3:0.500405 4:1 
16284 1:0.0964824 2:0.494689 3:0.603491 4:1 
16284 1:0.120603 2:0.425335 3:0.663548 4:1 
16284 1:0.0773869 2:0.480859 3:0.81401 4:1 
16284 1:0.0984925 2:0.243861 3:0.35963 4:1 
16284 1:0.0592965 2:0.459753 3:0.0828423 4:1 
16284 1:0.144724 2:0.69075 3:0.584021 4:1 
16284 1:0.103518 2:0.501311 3:0.593707 4:1 
16284 1:0.122613 2:0.330114 3:0.623956 4:1 
16284 1:0.19799 2:0.426714 3:0.756396 4:1 
16284 1:0.136683 2:0.47748 3:0.591018 4:1 
16284 1:0.0864322 2:0.551628 3:0.510386 4:1 
16284 1:0.0532663 2:0.75776 3:0.451532 4:1 
16284 1:0.129648 2:0.440371 3:0.594873 4:1 
16284 1:0.0723618 2:0.625673 3:0.872348 4:1 
16284 1:0.0592965 2:0.746482 3:0.132906 4:1 
16284 1:0.107538 2:0.324941 3:0.373159 4:1 
16284 1:0.0723618 2:0.347565 3:0.120666 4:1 
16284 1:0.115578 2:0.195855 3:0.520183 4:1 
16284 1:0.0733668 2:0.561974 3:0.846874 4:1 
16284 1:0.172864 2:0.565837 3:0.755598 4:1 
16284 1:0.108543 2:0.382777 3:0.552347 4:1 
16284 1:0.0603015 2:0.562767 3:0.336415 4:1 
16284 1:0.0643216 2:0.458443 3:0.347967 
16284 1:0.0221106 2:0.949338 3:0.346666 4:1 
16284 1:0.0592965 2:0.56694 3:0.587016 4:1 
16284 1:0.103518 2:0.609187 3:0.67364 4:1 
16284 1:0.0874372 2:0.397538 3:0.661952 4:1 
16284 1:0.141709 2:0.353428 3:0.654046 4:1 
16284 1:0.109548 2:0.570734 3:0.709733 4:1 
16284 1:0.0502513 2:0.734481 3:0.453865 4:1 
16284 1:0.0140704 2:0.425817 3:0.529574 
16284 1:0.0763819 2:0.573838 3:0.24299 4:1 
16284 1:0.0994975 2:0.377569 3:0.643857 4:1 
16284 1:0.108543 2:0.268761 3:0.224637 4:1 
16284 1:0.147739 2:0.372707 3:0.633422 4:1 
16284 1:0.0884422 2:0.570527 3:0.641451 4:1 
16284 1:0.116583 2:0.415333 3:0.212372 4:1 
16284 1:0.081407 2:0.469444 3:0.315852 4:1 
16284 1:0.078392 2:0.576183 3:0.88789 4:1 
16284 1:0.0703518 2:0.680232 3:0.498367 4:1 
16284 1:0.21608 2:0.348807 3:0.693822 4:1 
16284 1:0.0261307 2:0.591013 3:0.327956 
16284 1:0.0582915 2:0.599738 3:0.12786 4:1 
16284 1:0.120603 2:0.50269 3:0.227006 4:1 
16284 1:0.0562814 2:0.659091 3:0.234286 4:1 
16284 1:0.121608 2:0.596634 3:0.558436 
16284 1:0.0894472 2:0.538247 3:0.662898 4:1 
16284 1:0.0552764 2:0.797869 3:0.455485 4:1 
16284 1:0.0964824 2:0.488274 3:0.205534 4:1 
16284 1:0.0633166 2:0.624155 3:0.380132 4:1 
16284 1:0.120603 2:0.43844 3:0.640481 4:1 
16284 1:0.148744 2:0.362498 3:0.582302 4:1 
16284 1:0.0723618 2:0.526762 3:0.604449 4:1 
16284 1:0.211055 2:0.427507 3:0.231904 
16284 1:0.0753769 2:0.520624 3:0.618358 4:1 
16284 1:0.0522613 2:0.655228 3:0.348483 4:1 
16284 1:0.0884422 2:0.466892 3:0.460494 4:1 
16284 1:0.080402 2:0.627569 3:0.333628 4:1 
16284 1:0.198995 2:0.176266 3:0.151161 4:1 
16284 1:0.039196 2:0.728204 3:0.747483 4:1 
16284 1:0.0683417 2:0.532867 3:0.710862 4:1 
16284 1:0.0713568 2:0.5478 3:0.0932774 4:1 
16284 1:0.120603 2:0.511657 3:0.536707 4:1 
16284 1:0.18593 2:0.274383 3:0.894372 4:1 
16284 1:0.164824 2:0.638122 3:0.811714 4:1 
16284 1:0.0763819 2:0.819492 3:0.719812 4:1 
16284 1:0.0351759 2:0.70996 3:0.735587 4:1 
16284 1:0.0854271 2:0.45558 3:0.551672 4:1 
16284 1:0.0462312 2:0.780866 3:0.212151 
16284 1:0.081407 2:0.720927 3:0.487183 4:1 
16284 1:0.101508 2:0.539488 3:0.589521 4:1 
16284 1:0.102513 2:0.440475 3:0.347525 4:1 
16284 1:0.101508 2:0.38595 3:0.652168 4:1 
16284 1:0.0824121 2:0.506656 3:0.866222 4:1 
16284 1:0.0934673 2:0.537695 3:0.148927 4:1 
16284 1:0.109548 2:0.215754 3:0.293803 4:1 
16284 1:0.0592965 2:0.562388 3:0.060327 4:1 
16284 1:0.149749 2:0.502207 3:0.732088 4:1 
16284 1:0.0663317 2:0.750621 3:0.715613 4:1 
16284 1:0.148744 2:0.290074 3:0.786633 4:1 
16284 1:0.103518 2:0.546317 3:0.316539 4:1 
16284 1:0.0532663 2:0.480377 3:0.123625 4:1 
16284 1:0.0994975 2:0.433749 3:0.654304 4:1 
16284 1:0.0683417 2:0.5717 3:0.114418 4:1 
16284 1:0.0643216 2:0.763761 3:0.77044 4:1 
16284 1:0.0502513 2:0.399469 3:0.467774 
16284 1:0.125628 2:0.458098 3:0.691883 4:1 
16284 1:0.119598 2:0.74662 3:0.61896 
16284 1:0.0904523 2:0.325631 3:0.434652 4:1 
16284 1:0.0904523 2:0.483136 3:0.616689 4:1 
16284 1:0.0663317 2:0.319113 3:0.705264 
16284 1:0.108543 2:0.405125 3:0.604596 4:1 
16284 1:0.0532663 2:0.627845 3:0.518967 4:1 
16284 1:0.109548 2:0.29142 3:0.628192 4:1 
16284 1:0.101508 2:0.431404 3:0.567865 4:1 
16284 1:0.100503 2:0.430439 3:0.523583 4:1 
16284 1:0.0502513 2:0.775555 3:0.834659 4:1 
16284 1:0.0341709 2:0.686853 3:0.0948365 
16284 1:0.0894472 2:0.212719 3:0.191146 4:1 
16284 1:0.0462312 2:0.552076 3:0.471322 
16284 1:0.079397 2:0.621534 3:0.604314 4:1 
16284 1:0.0572864 2:0.749759 3:0.650081 4:1 
16284 1:0.179899 2:0.443509 3:0.863141 4:1 
16284 1:0.100503 2:0.32101 3:0.528494 4:1 
16284 1:0.0562814 2:0.583977 3:0.194449 
16284 1:0.0472362 2:0.696648 3:0.609998 4:1 
16284 1:0.0723618 2:0.774245 3:0.686051 4:1 
16284 1:0.0743719 2:0.619913 3:0.477411 4:1 
16284 1:0.160804 2:0.241102 3:0.898043 4:1 
16284 1:0.040201 2:0.781522 3:0.504849 4:1 
16284 1:0.0331658 2:0.705132 3:0.0771705 4:1 
16284 1:0.0311558 2:0.815285 3:0.348716 4:1 
16284 1:0.0482412 2:0.504828 3:0.102276 4:1 
16284 1:0.107538 2:0.248827 3:0.693417 4:1 
16284 1:0.114573 2:0.229273 3:0.326397 4:1 
16284 1:0.19196 2:0.467823 3:0.585617 4:1 
16284 1:0.0854271 2:0.681163 3:0.684455 4:1 
16284 1:0.110553 2:0.551283 3:0.27966 4:1 
16284 1:0.0633166 2:0.337081 3:0.443184 
16284 1:0.154774 2:0.74193 3:0.881973 4:1 
16284 1:0.0432161 2:0.657849 3:0.27157 
16284 1:0.20603 2:0.467547 3:0.369598 4:1 
16284 1:0.153769 2:0.630052 3:0.581197 4:1 
16284 1:0.0572864 2:0.785384 3:0.563924 
16284 1:0.0854271 2:0.514761 3:0.187586 4:1 
16284 1:0.104523 2:0.448131 3:0.596703 4:1 
16284 1:0.123618 2:0.44282 3:0.444633 4:1 
16284 1:0.108543 2:0.435715 3:0.823291 4:1 
16284 1:0.0371859 2:0.519589 3:0.327686 
16284 1:0.148744 2:0.496241 3:0.206197 4:1 
16284 1:0.0502513 2:0.51814 3:0.134441 4:1 
16284 1:0.0442211 2:0.60598 3:0.15466 4:1 
16284 1:0.113568 2:0.548938 3:0.718388 4:1 
16284 1:0.0763819 2:0.479239 3:0.468903 4:1 
16284 1:0.103518 2:0.377569 3:0.664641 4:1 
16284 1:0.039196 2:0.800524 3:0.609998 4:1 
16284 1:0.0844221 2:0.516451 3:0.348826 4:1 
16284 1:0.153769 2:0.312905 3:0.677151 4:1 
16284 1:0.158794 2:0.643296 3:0.692055 4:1 
16284 1:0.104523 2:0.273314 3:0.575894 4:1 
16284 1:0.0623116 2:0.830321 3:0.686186 4:1 
16284 1:0.0894472 2:0.371396 3:0.515542 4:1 
16284 1:0.440201 2:0.603566 3:0.511282 4:1 
16284 1:0.0552764 2:0.668575 3:0.742818 4:1 
16284 1:0.0773869 2:0.438233 3:0.212692 4:1 
16284 1:0.0552764 2:0.494965 3:0.757145 
16284 1:0.0874372 2:0.459236 3:0.708149 4:1 
16284 1:0.234171 2:0.435508 3:0.674204 4:1 
16284 1:0.490452 2:0.767347 3:0.623416 4:1 
16284 1:0.0954774 2:0.698131 3:0.280998 
16284 1:0.607035 2:0.856946 3:0.590343 
16284 1:0.128643 2:0.593116 3:0.637817 4:1 
16284 1:0.080402 2:0.607773 3:0.193417 
16284 1:0.0190955 2:0.600462 3:0.117892 
16284 1:0.111558 2:0.282246 3:0.199654 4:1 
16284 1:0.0763819 2:0.424196 3:0.234188 4:1 
16284 1:0.0713568 2:0.600255 3:0.669085 4:1 
16284 1:0.150754 2:0.294765 3:0.90067 
16284 1:0.0864322 2:0.427542 3:0.18777 4:1 
16284 1:0.0562814 2:0.66285 3:0.513774 4:1 
16284 1:0.153769 2:0.326424 3:0.630856 4:1 
16284 1:0.0904523 2:0.39502 3:0.653739 4:1 
16284 1:0.0532663 2:0.633225 3:0.538598 4:1 
16284 1:0.109548 2:0.300352 3:0.73517 4:1 
16284 1:0.0974874 2:0.900676 3:0.3736 4:1 
16284 1:0.141709 2:0.436371 3:0.54233 4:1 
16284 1:0.154774 2:0.621327 3:0.452404 
16284 1:0.209045 2:0.675886 3:0.661474 
16284 1:0.0592965 2:0.648572 3:0.222918 
16284 1:0.120603 2:0.270003 3:0.341227 4:1 
16284 1:0.0452261 2:0.672162 3:0.638922 4:1 
16284 1:0.0854271 2:0.485239 3:0.699666 4:1 
16284 1:0.0743719 2:0.577873 3:0.609875 4:1 
16284 1:0.079397 2:0.612567 3:0.526063 4:1 
16284 1:0.108543 2:0.540488 3:0.899995 4:1 
16284 1:0.0522613 2:0.672162 3:0.570517 4:1 
16284 1:0.143719 2:0.333218 3:0.285086 4:1 
16284 1:0.0934673 2:0.782453 3:0.630856 
16284 1:0.0542714 2:0.621534 3:0.666372 4:1 
16284 1:0.113568 2:0.730308 3:0.305564 4:1 
16284 1:0.0633166 2:0.573838 3:0.610096 4:1 
16284 1:0.0472362 2:0.686853 3:0.329847 4:1 
16284 1:0.0874372 2:0.431542 3:0.450096 4:1 
16284 1:0.0613065 2:0.597531 3:0.436346 4:1 
16284 1:0.107538 2:0.641468 3:0.241554 4:1 
16284 1:0.0512563 2:0.527521 3:0.072886 4:1 
16284 1:0.0994975 2:0.595496 3:0.54109 4:1 
16284 1:0.0874372 2:0.636053 3:0.603381 4:1 
16284 1:0.0532663 2:0.55111 3:0.581001 
16284 1:0.0422111 2:0.752759 3:0.314231 4:1 
16284 1:0.0924623 2:0.772106 3:0.3283 4:1 
16284 1:0.078392 2:0.746827 3:0.153568 
16284 1:0.0492462 2:0.398055 3:0.737073 
16284 1:0.0291457 2:0.792006 3:0.506985 4:1 
16284 1:0.109548 2:0.480101 3:0.649455 4:1 
16284 1:0.0592965 2:0.586322 3:0.719886 4:1 
16284 1:0.0442211 2:0.602842 3:0.105799 4:1 
16284 1:0.0733668 2:0.526728 3:0.609691 4:1 
16284 1:0.0924623 2:0.588529 3:0.63131 
16284 1:0.0522613 2:0.719996 3:0.594972 4:1 
16284 1:0.080402 2:0.637916 3:0.175162 
16284 1:0.124623 2:0.406815 3:0.517298 4:1 
16284 1:0.147739 2:0.232722 3:0.610084 4:1 
16284 1:0.0462312 2:0.582391 3:0.329884 
16284 1:0.0613065 2:0.790626 3:0.598654 4:1 
16284 1:0.126633 2:0.327493 3:0.765383 4:1 
16284 1:0.0613065 2:0.518002 3:0.449912 
16284 1:0.0492462 2:0.565699 3:0.0607936 4:1 
16284 1:0.038191 2:0.462271 3:0.0908957 
16284 1:0.0562814 2:0.376259 3:0.751436 
16284 1:0.040201 2:0.659815 3:0.127394 4:1 
16284 1:0.0683417 2:0.821665 3:0.82102 
16284 1:0.0542714 2:0.810388 3:0.0658638 4:1 
16284 1:0.0613065 2:0.484274 3:0.110538 4:1 
16284 1:0.0663317 2:0.710408 3:0.243923 4:1 
16284 1:0.0552764 2:0.655228 3:0.838207 4:1 
16284 1:0.0603015 2:0.734446 3:0.332904 
16284 1:0.0442211 2:0.388433 3:0.247913 
16284 1:0.0884422 2:0.858429 3:0.556583 
16284 1:0.078392 2:0.77352 3:0.12268 
16284 1:0.104523 2:0.409125 3:0.186567 4:1 
16284 1:0.0733668 2:0.636122 3:0.516352 4:1 
16284 1:0.0874372 2:0.498034 3:0.524885 4:1 
16284 1:0.0321608 2:0.314595 3:0.61028 
16284 1:0.116583 2:0.217961 3:0.539199 4:1 
16284 1:0.0562814 2:0.665333 3:0.839361 
16284 1:0.102513 2:0.259657 3:0.669257 4:1 
16284 1:0.0984925 2:0.341737 3:0.548726 4:1 
16284 1:0.152764 2:0.326424 3:0.441195 4:1 
16284 1:0.0874372 2:0.690337 3:0.635693 
16284 1:0.0733668 2:0.497724 3:0.609691 4:1 
16284 1:0.0633166 2:0.512484 3:0.178207 4:1 
16284 1:0.117588 2:0.590012 3:0.7129 4:1 
16284 1:0.0371859 2:0.867533 3:0.116861 4:1 
16284 1:0.0452261 2:0.328976 3:0.530139 
16284 1:0.102513 2:0.358567 3:0.305576 4:1 
16284 1:0.041206 2:0.469513 3:0.642322 
16284 1:0.111558 2:0.254587 3:0.524025 4:1 
16284 1:0.0713568 2:0.698407 3:0.598483 4:1 
16284 1:0.0924623 2:0.700924 3:0.379076 4:1 
16284 1:0.0432161 2:0.872638 3:0.806484 4:1 
16284 1:0.0643216 2:0.374741 3:0.03063 4:1 
16284 1:0.171859 2:0.820941 3:0.306153 4:1 
16284 1:0.0532663 2:0.652193 3:0.278789 4:1 
16284 1:0.0723618 2:0.672093 3:0.658626 4:1 
16284 1:0.0723618 2:0.521382 3:0.539445 4:1 
16284 1:0.0693467 2:0.403469 3:0.096371 4:1 
16284 1:0.0613065 2:0.417402 3:0.098409 4:1 
16284 1:0.081407 2:0.783591 3:0.467197 4:1 
16284 1:0.116583 2:0.22948 3:0.589742 4:1 
16284 1:0.078392 2:0.480101 3:0.629776 4:1 
16284 1:0.122613 2:0.395089 3:0.103516 4:1 
16284 1:0.105528 2:0.31932 3:0.661731 4:1 
16284 1:0.0964824 2:0.489205 3:0.280618 4:1 
16284 1:0.0733668 2:0.61374 3:0.57048 4:1 
16284 1:0.140704 2:0.538833 3:0.799745 
16284 1:0.0894472 2:0.427473 3:0.48199 4:1 
16284 1:0.106533 2:0.248241 3:0.581701 4:1 
16284 1:0.0653266 2:0.548731 3:0.713109 4:1 
16284 1:0.0663317 2:0.431991 3:0.462839 
16284 1:0.0954774 2:0.720962 3:0.698794 4:1 
16284 1:0.0763819 2:0.48217 3:0.379567 4:1 
16284 1:0.101508 2:0.460201 3:0.62926 4:1 
16284 1:0.258291 2:0.758208 3:0.206013 
16284 1:0.106533 2:0.497207 3:0.547253 4:1 
16284 1:0.0954774 2:0.820596 3:0.583051 4:1 
16284 1:0.161809 2:0.48048 3:0.539359 4:1 
16284 1:0.138693 2:0.454511 3:0.656133 4:1 
16284 1:0.0924623 2:0.454028 3:0.615166 4:1 
16284 1:0.0693467 2:0.537798 3:0.740756 4:1 
16284 1:0.147739 2:0.664092 3:0.596555 4:1 
16284 1:0.144724 2:0.314147 3:0.664162 4:1 
16284 1:0.0643216 2:0.702718 3:0.670546 4:1 
16284 1:0.0864322 2:0.421299 3:0.683829 4:1 
16284 1:0.0452261 2:0.685715 3:0.327797 4:1 
16284 1:0.080402 2:0.748138 3:0.696204 4:1 
16284 1:0.107538 2:0.383156 3:0.626203 4:1 
16284 1:0.0100503 2:0.540868 3:0.710715 
16284 1:0.122613 2:0.635846 3:0.17197 
16284 1:0.0683417 2:0.49762 3:0.348654 4:1 
16284 1:0.125628 2:0.800731 3:0.366603 4:1 
16284 1:0.038191 2:0.741137 3:0.360293 
16284 1:0.0693467 2:0.563664 3:0.257685 4:1 
16284 1:0.0914573 2:0.416747 3:0.764597 4:1 
16284 1:0.0693467 2:0.587426 3:0.303514 4:1 
16284 1:0.105528 2:0.516485 3:0.179889 4:1 
16284 1:0.0231156 2:0.4781 3:0.328619 
16284 1:0.165829 2:0.222238 3:0.31633 4:1 
16284 1:0.0884422 2:0.614809 3:0.585384 4:1 
16284 1:0.0914573 2:0.747793 3:0.765898 4:1 
16284 1:0.0773869 2:0.481066 3:0.378315 4:1 
16284 1:0.0512563 2:0.593978 3:0.182184 4:1 
16284 1:0.0482412 2:0.612188 3:0.124546 4:1 
16284 1:0.039196 2:0.692785 3:0.0739786 4:1 
16284 1:0.20603 2:0.663126 3:0.302286 4:1 
16284 1:0.0763819 2:0.571217 3:0.911842 4:1 
16284 1:0.0894472 2:0.390778 3:0.527107 4:1 
16284 1:0.0673367 2:0.653056 3:0.349182 4:1 
16284 1:0.041206 2:0.381501 3:0.450145 
16284 1:0.0723618 2:0.500931 3:0.545301 4:1 
16284 1:0.0874372 2:0.416885 3:0.378585 4:1 
16284 1:0.0944724 2:0.483412 3:0.674033 4:1 
16284 1:0.0773869 2:0.554663 3:0.642641 4:1 
16284 1:0.372864 2:0.42768 3:0.622164 4:1 
16284 1:0.111558 2:0.350117 3:0.4993 4:1 
16284 1:0.0773869 2:0.354463 3:0.692558 
16284 1:0.0572864 2:0.613016 3:0.166618 4:1 
16284 1:0.0673367 2:0.446441 3:0.239589 
16284 1:0.153769 2:0.479445 3:0.446806 4:1 
16284 1:0.0683417 2:0.484619 3:0.518955 
16284 1:0.108543 2:0.333322 3:0.551721 4:1 
16284 1:0.0562814 2:0.616257 3:0.252713 4:1 
16284 1:0.080402 2:0.515106 3:0.510153 4:1 
16284 1:0.0442211 2:0.77152 3:0.147208 4:1 
16284 1:0.0663317 2:0.332667 3:0.0985317 4:1 
16284 1:0.0603015 2:0.693027 3:0.628536 4:1 
16284 1:0.041206 2:0.439061 3:0.198082 
16284 1:0.0854271 2:0.462719 3:0.624632 4:1 
16284 1:0.0984925 2:0.359463 3:0.25248 4:1 
16284 1:0.0683417 2:0.9482 3:0.479068 
16284 1:0.102513 2:0.491275 3:0.757292 4:1 
16284 1:0.114573 2:0.590047 3:0.791028 4:1 
16284 1:0.080402 2:0.664023 3:0.243849 4:1 
16284 1:0.135678 2:0.292627 3:0.556558 4:1 
16284 1:0.157789 2:0.672231 3:0.229989 4:1 
16284 1:0.127638 2:0.762071 3:0.647638 4:1 
16284 1:0.0723618 2:0.567733 3:0.653273 4:1 
16284 1:0.0492462 2:0.592599 3:0.201802 
16284 1:0.0281407 2:0.379363 3:0.589963 
16284 1:0.0492462 2:0.662298 3:0.528727 
16284 1:0.0643216 2:0.57201 3:0.749595 4:1 
16284 1:0.111558 2:0.286798 3:0.599686 4:1 
16284 1:0.0291457 2:0.81325 3:0.276468 4:1 
16284 1:0.0683417 2:0.626155 3:0.628781 4:1 
16284 1:0.0844221 2:0.402504 3:0.585384 4:1 
16284 1:0.106533 2:0.425679 3:0.591951 4:1 
16284 1:0.038191 2:0.859222 3:0.735587 4:1 
16284 1:0.101508 2:0.587667 3:0.58105 4:1 
16284 1:0.0512563 2:0.614223 3:0.229523 4:1 
16284 1:0.0924623 2:0.469548 3:0.575427 4:1 
