svm_type c_svc
kernel_type rbf
gamma 0.5
nr_class 2
total_sv 4209
rho 45.4662
label 1 -1
probA -1.91365
probB 0.027488
nr_sv 2018 2191
SV
1024 1:1 2:0.162112 3:0.317961 4:0.751503 5:0.00326077 6:0.520676 7:0.0024172 8:0.284022 9:0.0103166 10:0.0014241 11:0.39429 12:0.999152 13:0.437743 14:0.367353 15:0.012764 16:0.310267 17:0.322602 18:0.615383 19:0.789695 20:0.45847 21:0.284024 22:0.577434 23:0.997017 24:0.234956 25:0.533214 26:0.796171 27:0.469449 28:0.676214 29:1 30:0.398491 31:0.36427 32:0.665192 33:0.991216 34:0.451953 35:0.494641 36:0.358084 37:0.456428 
1024 1:1 2:0.305446 3:0.363727 4:0.586936 5:0.00134375 6:0.689988 7:0.00358413 8:0.327187 9:0.00324907 10:0.00548968 11:0.501851 12:1 13:0.442355 14:0.278537 15:0.00997656 16:0.313906 17:0.342773 18:0.734667 19:0.742405 20:0.439956 21:0.35363 22:0.41607 23:0.98673 24:0.297652 25:0.610766 26:0.830394 27:0.405051 28:0.671359 29:0.984667 30:0.403863 31:0.221617 32:0.652283 33:0.988836 34:0.583317 35:0.536764 36:0.332219 37:0.30149 
756.4345631158956 1:1 2:0.0926378 3:0.266064 4:0.54393 5:0.000868486 6:0.778422 7:0.00491776 8:0.281457 9:0.00286601 10:0.000384506 11:0.512018 12:1 13:0.471973 14:0.337754 15:0.000523573 16:0.331842 17:0.33182 18:0.767693 19:0.725505 20:0.388865 21:0.135294 22:0.411428 23:0.992043 24:0.274963 25:0.643417 26:0.723705 27:0.391065 28:0.554026 29:0.994242 30:0.430688 31:0.111238 32:0.567373 33:0.994451 34:0.382225 35:0.389532 36:0.45909 37:0.520718 
1024 1:1 2:0.288288 3:0.307658 4:0.640755 5:0.00261521 6:0.773433 7:0.00355635 8:0.257542 9:0.00465364 10:0.0122097 11:0.517672 12:0.987706 13:0.489941 14:0.364271 15:0.00116062 16:0.382775 17:0.332156 18:0.717663 19:0.787875 20:0.43113 21:0.200752 22:0.367349 23:0.962134 24:0.266689 25:0.681734 26:0.666517 27:0.397303 28:0.579782 29:0.995625 30:0.379785 31:0.125465 32:0.517061 33:1 34:0.468843 35:0.427771 36:0.386653 37:0.474153 
1024 1:1 2:0.359343 3:0.374333 4:0.60367 5:0.00115652 6:0.910901 7:0.00486219 8:0.291833 9:0.00281173 10:0.0047574 11:0.504326 12:1 13:0.434303 14:0.26281 15:0.0335907 16:0.340208 17:0.262518 18:0.69964 19:0.776978 20:0.452564 21:0.306609 22:0.499971 23:0.973699 24:0.294149 25:0.671678 26:0.768046 27:0.340104 28:0.658792 29:0.982716 30:0.413468 31:0.432159 32:0.598456 33:0.983059 34:0.588278 35:0.517313 36:0.32533 37:0.324872 
1024 1:1 2:0.3 3:0.38949 4:0.531387 5:0.00154324 6:0.916993 7:0.00308402 8:0.244738 9:0.0206229 10:0.00626986 11:0.548928 12:1 13:0.498301 14:0.332035 15:0.00282651 16:0.340007 17:0.359842 18:0.731288 19:0.755727 20:0.296277 21:0.247316 22:0.341417 23:0.954554 24:0.418465 25:0.65319 26:0.80006 27:0.364633 28:0.619791 29:0.970243 30:0.450669 31:0.405614 32:0.564554 33:0.964953 34:0.467718 35:0.530513 36:0.359493 37:0.400007 
1024 1:1 2:0.383212 3:0.382051 4:0.499531 5:0.00254081 6:0.751101 7:0.00486219 8:0.332112 9:0.00908887 10:0.00167749 11:0.61367 12:1 13:0.442789 14:0.327638 15:0.00344079 16:0.353535 17:0.307138 18:0.759664 19:0.715304 20:0.353222 21:0.282491 22:0.36637 23:0.978963 24:0.407209 25:0.690749 26:0.683544 27:0.335569 28:0.72167 29:0.997164 30:0.365015 31:0.234985 32:0.543589 33:0.99871 34:0.603677 35:0.480957 36:0.309213 37:0.36586 
1024 1:1 2:0.132416 3:0.243982 4:0.476174 5:0.00453762 6:0.750835 7:0.00427873 8:0.248988 9:0.00115235 10:0.000645459 11:0.52229 12:1 13:0.541509 14:0.394527 15:0.00859607 16:0.370102 17:0.388962 18:0.712322 19:0.675104 20:0.389755 21:0.186724 22:0.306305 23:0.98555 24:0.338175 25:0.729556 26:0.74004 27:0.497072 28:0.642944 29:0.990539 30:0.417186 31:0.223909 32:0.570183 33:0.990883 34:0.440329 35:0.535017 36:0.332677 37:0.457074 
779.356016640659 1:1 2:0.47205 3:0.349736 4:0.693501 5:0.00548047 6:0.73412 7:0.00422316 8:0.254154 9:0.0107527 10:0.00238869 11:0.373802 12:1 13:0.463507 14:0.378945 15:0.0130975 16:0.353829 17:0.337325 18:0.574201 19:0.82663 20:0.506971 21:0.28426 22:0.422464 23:0.982591 24:0.269891 25:0.610319 26:0.745624 27:0.372693 28:0.587905 29:0.991954 30:0.392234 31:0.25771 32:0.702855 33:0.990846 34:0.495653 35:0.482127 36:0.350816 37:0.431169 
1024 1:1 2:0.196721 3:0.318002 4:0.594143 5:0.00147517 6:0.681911 7:0.00211158 8:0.236429 9:0.0467358 10:0.00399534 11:0.343514 12:1 13:0.489554 14:0.396346 15:0.0068077 16:0.266206 17:0.277403 18:0.652761 19:0.775413 20:0.395947 21:0.180162 22:0.544497 23:0.952332 24:0.223654 25:0.61262 26:0.767786 27:0.411288 28:0.572676 29:0.94971 30:0.344268 31:0.154302 32:0.580712 33:0.978641 34:0.335819 35:0.417642 36:0.419896 37:0.588371 
1024 1:1 2:0.185684 3:0.313473 4:0.694831 5:0.00858039 6:0.734367 7:0.00319515 8:0.242226 9:0.0235182 10:0.00123107 11:0.398621 12:1 13:0.43826 14:0.36154 15:0.00423428 16:0.29761 17:0.339404 18:0.575731 19:0.801664 20:0.395827 21:0.227144 22:0.477238 23:0.970275 24:0.256362 25:0.667429 26:0.779791 27:0.409805 28:0.628148 29:0.96864 30:0.373237 31:0.104268 32:0.615491 33:0.986681 34:0.409025 35:0.451413 36:0.387555 37:0.51276 
1024 1:1 2:0.181352 3:0.32299 4:0.575261 5:0.00176306 6:0.522576 7:0.00491776 8:0.351193 9:0.00422849 10:0.000773252 11:0.465709 12:0.997671 13:0.521006 14:0.293967 15:0.00213483 16:0.331448 17:0.340495 18:0.706656 19:0.798834 20:0.370723 21:0.170495 22:0.486381 23:0.99344 24:0.267589 25:0.635231 26:0.708578 27:0.373039 28:0.59627 29:0.979441 30:0.436013 31:0.118973 32:0.553226 33:1 34:0.436546 35:0.374295 36:0.493575 37:0.436651 
1024 1:1 2:0.201 3:0.340356 4:0.58391 5:0.00171916 6:0.428688 7:0.00558457 8:0.350693 9:0.00412596 10:0.000754176 11:0.467926 12:0.997727 13:0.523465 14:0.29382 15:0.00208288 16:0.331979 17:0.340851 18:0.700479 19:0.800641 20:0.381454 21:0.17265 22:0.489177 23:0.993598 24:0.264251 25:0.635154 26:0.704535 27:0.357616 28:0.600926 29:0.979934 30:0.442871 31:0.118973 32:0.55775 33:1 34:0.439798 35:0.376938 36:0.492649 37:0.431477 
1024 1:1 2:0.418291 3:0.307971 4:0.676283 5:0.00797026 6:0.399733 7:0.00258391 8:0.300465 9:0.0500099 10:0.00696258 11:0.40189 12:0.995905 13:0.505692 14:0.366219 15:0.00234845 16:0.486124 17:0.371501 18:0.634236 19:0.763757 20:0.447224 21:0.172576 22:0.403785 23:0.996396 24:0.265398 25:0.628678 26:0.781999 27:0.465813 28:0.584602 29:0.991256 30:0.351572 31:0.292084 32:0.588035 33:1 34:0.498474 35:0.336518 36:0.376904 37:0.549844 
208.7024332835203 1:1 2:0.6048 3:0.329575 4:0.59858 5:0.00279348 6:0.346726 7:0.00350078 8:0.397084 9:0.00997418 10:0.0670642 11:0.56899 12:1 13:0.420082 14:0.278626 15:0.0151958 16:0.286006 17:0.346756 18:0.687528 19:0.807692 20:0.421662 21:0.296992 22:0.248954 23:0.934615 24:0.289822 25:0.657324 26:0.752166 27:0.287277 28:0.775113 29:0.950226 30:0.565227 31:0.569178 32:0.596582 33:0.957532 34:0.537835 35:0.558889 36:0.408056 37:0.236111 
145.2654477844857 1:1 2:0.128636 3:0.294989 4:0.548665 5:0.00172439 6:0.34207 7:0.00475106 8:0.313299 9:0.00413816 10:0.00114531 11:0.438338 12:1 13:0.468875 14:0.298989 15:0.000368142 16:0.271404 17:0.28938 18:0.67412 19:0.772236 20:0.518128 21:0.209179 22:0.411777 23:0.989767 24:0.249992 25:0.684099 26:0.757868 27:0.366865 28:0.57904 29:0.986367 30:0.501095 31:0.161081 32:0.637566 33:0.992024 34:0.424488 35:0.477424 36:0.494817 37:0.339741 
268.7247335472999 1:1 2:0.125 3:0.294989 4:0.544004 5:0.000369449 6:0.34207 7:0.00475106 8:0.305019 9:0.00148107 10:0.00337958 11:0.44278 12:1 13:0.465465 14:0.298745 15:0.000742822 16:0.274899 17:0.299665 18:0.671816 19:0.767384 20:0.535809 21:0.20669 22:0.41888 23:0.990056 24:0.248679 25:0.684591 26:0.75929 27:0.366865 28:0.577374 29:0.986753 30:0.500294 31:0.155925 32:0.64517 33:0.99225 34:0.426006 35:0.48301 36:0.488349 37:0.340009 
304.0743059901344 1:1 2:1 3:0.302389 4:0.57177 5:0.0142517 6:0.718088 7:0.00577906 8:0.348007 9:0.00664608 10:0.0111776 11:0.436513 12:1 13:0.468908 14:0.262413 15:0.00251255 16:0.392868 17:0.306287 18:0.728954 19:0.747047 20:0.525318 21:0.259816 22:0.356831 23:0.992295 24:0.313192 25:0.573454 26:0.766574 27:0.339925 28:0.853698 29:0.975073 30:0.389798 31:0.653108 32:0.6941 33:0.997164 34:0.548386 35:0.464431 36:0.368475 37:0.371636 
1024 1:1 2:0.341463 3:0.386582 4:0.716871 5:0.00356417 6:0.413398 7:0.0031118 8:0.218006 9:0.0147939 10:0.0567591 11:0.466699 12:1 13:0.43782 14:0.303404 15:0.00158177 16:0.300685 17:0.254296 18:0.706397 19:0.769865 20:0.416001 21:0.152642 22:0.451913 23:0.992675 24:0.300622 25:0.503016 26:0.788627 27:0.248278 28:0.580251 29:0.980253 30:0.420316 31:0.335434 32:0.547263 33:0.998203 34:0.3537 35:0.400778 36:0.491395 37:0.500828 
1024 1:1 2:0.0422071 3:0.310831 4:0.545579 5:0.00189285 6:0.75226 7:0.00391754 8:0.264931 9:0.000373539 10:0.000210783 11:0.520409 12:1 13:0.515841 14:0.345699 15:0.00123506 16:0.343205 17:0.360391 18:0.742821 19:0.710195 20:0.32073 21:0.146557 22:0.39276 23:0.996408 24:0.333405 25:0.717561 26:0.708596 27:0.369746 28:0.536127 29:0.997482 30:0.373038 31:0.0725676 32:0.532397 33:0.997179 34:0.37953 35:0.353228 36:0.437891 37:0.587288 
1024 1:1 2:0.225166 3:0.316311 4:0.635461 5:0.00650279 6:0.520267 7:0.00283396 8:0.262935 9:0.0122312 10:0.00169125 11:0.52142 12:1 13:0.515731 14:0.322657 15:0.00230293 16:0.275742 17:0.399284 18:0.667844 19:0.81188 20:0.166285 21:0.260617 22:0.447884 23:0.982327 24:0.367755 25:0.689741 26:0.758617 27:0.397694 28:0.650123 29:0.978558 30:0.436039 31:0.159458 32:0.473021 33:0.984389 34:0.516154 35:0.586759 36:0.3332 37:0.320223 
1024 1:1 2:0.427406 3:0.369597 4:0.712236 5:0.0047875 6:0.932406 7:0.0072794 8:0.243436 9:0.00902594 10:0.00124401 11:0.476201 12:1 13:0.523013 14:0.290531 15:0.00169394 16:0.27436 17:0.401424 18:0.675555 19:0.836583 20:0.193441 21:0.362089 22:0.440118 23:0.986942 24:0.320524 25:0.696953 26:0.801611 27:0.32376 28:0.725045 29:0.984158 30:0.394381 31:0.15497 32:0.558618 33:0.988466 34:0.6007 35:0.604293 36:0.280762 37:0.273614 
1024 1:1 2:0.0862143 3:0.365473 4:0.626895 5:0.00224792 6:0.974941 7:0.00369527 8:0.247844 9:0.000858277 10:0.000481329 11:0.446905 12:0.999411 13:0.44567 14:0.353953 15:0.00133982 16:0.325748 17:0.246628 18:0.722147 19:0.806477 20:0.488013 21:0.228844 22:0.520457 23:0.999481 24:0.251318 25:0.630031 26:0.72118 27:0.327522 28:0.579079 29:0.994546 30:0.340049 31:0.130431 32:0.572223 33:1 34:0.450267 35:0.443901 36:0.375818 37:0.490268 
374.5368853034309 1:1 2:0.0909673 3:0.263066 4:0.629728 5:0.00222074 6:0.440576 7:0.00394532 8:0.248997 9:0.000847699 10:0.000475425 11:0.447318 12:0.999417 13:0.438533 14:0.354776 15:0.00132374 16:0.324095 17:0.243128 18:0.724107 19:0.808066 20:0.49396 21:0.23316 22:0.527645 23:0.999487 24:0.255317 25:0.626514 26:0.718383 27:0.486797 28:0.582825 29:0.99461 30:0.341603 31:0.161176 32:0.575309 33:1 34:0.451354 35:0.44776 36:0.374344 37:0.486812 
1024 1:1 2:0.268868 3:0.385533 4:0.583013 5:0.00715207 6:0.766239 7:0.00369527 8:0.304959 9:0.0013626 10:0.0297744 11:0.484599 12:1 13:0.437707 14:0.316421 15:0.0213247 16:0.448289 17:0.342195 18:0.661882 19:0.747813 20:0.356496 21:0.142233 22:0.430855 23:0.991908 24:0.291047 25:0.67808 26:0.769529 27:0.329265 28:0.575739 29:0.994764 30:0.360309 31:0.0968204 32:0.577033 33:0.998809 34:0.468035 35:0.317067 36:0.411531 37:0.561501 
1024 1:1 2:0.220703 3:0.37791 4:0.519651 5:0.00690757 6:0.453472 7:0.00313959 8:0.28997 9:0.00131501 10:0.028765 11:0.397259 12:1 13:0.539649 14:0.356362 15:0.0206014 16:0.3103 17:0.381929 18:0.646329 19:0.77276 20:0.38112 21:0.122144 22:0.45375 23:0.976547 24:0.248641 25:0.672554 26:0.745816 27:0.330382 28:0.56599 29:0.993677 30:0.442174 31:0.0773417 32:0.607119 33:0.997698 34:0.351905 35:0.358225 36:0.486099 37:0.553874 
1024 1:1 2:0.306709 3:0.373728 4:0.597419 5:0.00677828 6:0.740971 7:0.00444543 8:0.30133 9:0.00128984 10:0.0282313 11:0.493621 12:1 13:0.447898 14:0.313283 15:0.0202188 16:0.441342 17:0.360124 18:0.673872 19:0.756941 20:0.316504 21:0.140856 22:0.453718 23:0.992327 24:0.329066 25:0.687765 26:0.774038 27:0.328922 28:0.56641 29:0.995035 30:0.363796 31:0.131576 32:0.546444 33:0.99887 34:0.464793 35:0.317206 36:0.421237 37:0.553182 
161.7615373175484 1:1 2:0.0690877 3:0.278555 4:0.592984 5:0.000198053 6:0.745846 7:0.0043343 8:0.238149 9:0.00734029 10:0.000665443 11:0.423759 12:0.995973 13:0.436274 14:0.306826 15:0.00184123 16:0.294313 17:0.181514 18:0.687073 19:0.755106 20:0.416177 21:0.143528 22:0.457336 23:0.998228 24:0.219266 25:0.625133 26:0.745811 27:0.351622 28:0.537068 29:1 30:0.332026 31:0.0336102 32:0.597295 33:0.999478 34:0.315986 35:0.319482 36:0.496213 37:0.621204 
1024 1:1 2:0.111767 3:0.349304 4:0.510492 5:0.00277205 6:0.351278 7:0.00455657 8:0.295714 9:0.000904522 10:0.001564 11:0.533437 12:1 13:0.535223 14:0.348581 15:0.000330784 16:0.374876 17:0.378502 18:0.745677 19:0.694355 20:0.386649 21:0.179384 22:0.333442 23:0.991275 24:0.322695 25:0.741609 26:0.698989 27:0.352719 28:0.602797 29:0.993384 30:0.433611 31:0.176072 32:0.533524 33:0.991972 34:0.492637 35:0.472484 36:0.364326 37:0.428316 
842.5623852863563 1:1 2:0.32965 3:0.335284 4:0.562579 5:0.00212619 6:0.637808 7:0.00497333 8:0.286553 9:0.00763619 10:0.0128354 11:0.485234 12:0.999162 13:0.452347 14:0.285036 15:0.000943598 16:0.359837 17:0.315631 18:0.711071 19:0.727343 20:0.396092 21:0.154029 22:0.486867 23:0.979361 24:0.274728 25:0.716092 26:0.74128 27:0.377436 28:0.470879 29:0.997615 30:0.415125 31:0.241669 32:0.539682 33:1 34:0.422899 35:0.370681 36:0.454759 37:0.501855 
1024 1:1 2:0.558559 3:0.366472 4:0.712762 5:0.00798234 6:0.897236 7:0.00344521 8:0.286588 9:0.0187555 10:0.0034759 11:0.520061 12:1 13:0.376971 14:0.234109 15:0.0190192 16:0.306681 17:0.266306 18:0.744786 19:0.763347 20:0.478516 21:0.239854 22:0.43392 23:0.949474 24:0.366486 25:0.601274 26:0.74581 27:0.245172 28:0.562152 29:0.953295 30:0.578142 31:0.516375 32:0.607855 33:0.96015 34:0.457202 35:0.491397 36:0.498908 37:0.28483 
1024 1:1 2:0.130615 3:0.270179 4:0.544235 5:0.00116792 6:0.702979 7:0.00350078 8:0.270604 9:0.00787948 10:0.00078259 11:0.434303 12:0.994344 13:0.456018 14:0.354757 15:0.027884 16:0.35911 17:0.277886 18:0.675689 19:0.704733 20:0.491664 21:0.187077 22:0.436895 23:0.994193 24:0.238104 25:0.702118 26:0.77103 27:0.494532 28:0.601755 29:0.997987 30:0.381256 31:0.171298 32:0.646714 33:1 34:0.439368 35:0.429336 36:0.402547 37:0.485201 
798.6292150752419 1:1 2:0.0715722 3:0.306762 4:0.518862 5:0.000891184 6:0.667143 7:0.00494554 8:0.288287 9:0.00777754 10:0.000290454 11:0.526545 12:1 13:0.489328 14:0.321289 15:0.00273025 16:0.315665 17:0.306348 18:0.746135 19:0.747989 20:0.397777 21:0.127797 22:0.376087 23:0.996139 24:0.304192 25:0.666637 26:0.692582 27:0.470443 28:0.544705 29:0.985949 30:0.350202 31:0.0336102 32:0.569071 33:0.996448 34:0.350571 35:0.304464 36:0.501835 37:0.592914 
358.4010273640243 1:1 2:0.688129 3:0.255022 4:0.57737 5:0.014321 6:0.708376 7:0.00316737 8:0.23066 9:0.00415817 10:0.00935625 11:0.434463 12:1 13:0.463334 14:0.277399 15:0.156394 16:0.344536 17:0.271129 18:0.641734 19:0.769668 20:0.57278 21:0.326475 22:0.350267 23:0.917742 24:0.277528 25:0.657554 26:0.940229 27:0.511553 28:0.664193 29:0.968691 30:0.303214 31:0.350711 32:0.701861 33:0.957258 34:0.501257 35:0.493562 36:0.30393 37:0.469481 
1024 1:1 2:0.123193 3:0.292424 4:0.551168 5:0.00521075 6:0.512627 7:0.00347299 8:0.301832 9:0.00406569 10:0.000742963 11:0.546792 12:0.999552 13:0.470366 14:0.289571 15:0.00205235 16:0.399139 17:0.282534 18:0.722115 19:0.702336 20:0.402239 21:0.148595 22:0.440026 23:0.978705 24:0.296034 25:0.717071 26:0.722807 27:0.386699 28:0.574731 29:0.994259 30:0.379535 31:0.0910914 32:0.559701 33:1 34:0.478201 35:0.321038 36:0.439516 37:0.512704 
1024 1:1 2:0.439024 3:0.247344 4:0.686883 5:0.0217228 6:0.721851 7:0.00266726 8:0.294608 9:0.0190425 10:0.00352929 11:0.437674 12:0.981263 13:0.497167 14:0.340687 15:0.00480575 16:0.284126 17:0.334176 18:0.71086 19:0.763139 20:0.295242 21:0.125342 22:0.476253 23:0.992672 24:0.270353 25:0.587115 26:0.709061 27:0.442711 28:0.597487 29:1 30:0.476647 31:0.0839301 32:0.555224 33:0.997303 34:0.345762 35:0.371793 36:0.518138 37:0.507708 
1024 1:1 2:0.122867 3:0.371637 4:0.59535 5:0.00374154 6:0.745922 7:0.00266726 8:0.255947 9:0.00173615 10:0.00891199 11:0.441661 12:1 13:0.38752 14:0.347358 15:0.000646798 16:0.303237 17:0.217995 18:0.76053 19:0.740279 20:0.47382 21:0.22301 22:0.493718 23:0.984635 24:0.235321 25:0.651551 26:0.695788 27:0.317433 28:0.568314 29:0.995857 30:0.366033 31:0.112384 32:0.626574 33:0.991706 34:0.375864 35:0.403089 36:0.451304 37:0.522692 
1024 1:1 2:0.12973 3:0.371637 4:0.585663 5:0.00395427 6:0.745922 7:0.00266726 8:0.247735 9:0.00183553 10:0.00941119 11:0.441342 12:1 13:0.368045 14:0.349256 15:0.000684562 16:0.30068 17:0.211963 18:0.765759 19:0.731342 20:0.499128 21:0.22703 22:0.484637 23:0.983776 24:0.21355 25:0.655386 26:0.704186 27:0.317433 28:0.621708 29:0.995626 30:0.356566 31:0.107419 32:0.627443 33:0.991242 34:0.37291 35:0.406354 36:0.446607 37:0.528095 
298.0784726335198 1:1 2:0.165529 3:0.399226 4:0.532516 5:0.00602653 6:0.734528 7:0.00269504 8:0.268211 9:0.00232929 10:0.00527326 11:0.512952 12:1 13:0.48313 14:0.351145 15:0.00087219 16:0.310209 17:0.321766 18:0.801427 19:0.702096 20:0.420926 21:0.17339 22:0.42298 23:0.979511 24:0.247516 25:0.727968 26:0.659788 27:0.321575 28:0.601145 29:0.994476 30:0.37148 31:0.0656927 32:0.568612 33:0.988939 34:0.356014 35:0.334855 36:0.493739 37:0.564822 
1024 1:1 2:0.44782 3:0.304809 4:0.567604 5:0.00229433 6:0.759521 7:0.00313959 8:0.236293 9:0.0964124 10:0.0092074 11:0.425137 12:1 13:0.365338 14:0.339721 15:0.0104431 16:0.225888 17:0.26753 18:0.641188 19:0.720795 20:0.59115 21:0.319519 22:0.39025 23:0.996825 24:0.24534 25:0.51254 26:0.807017 27:0.305137 28:0.600954 29:0.992297 30:0.489344 31:0.22219 32:0.749128 33:0.985979 34:0.363135 35:0.492511 36:0.476357 37:0.412283 
329.3232917482239 1:1 2:0.136774 3:0.391104 4:0.666653 5:0.000828855 6:0.901503 7:0.00252834 8:0.24097 9:0.00204637 10:0.00464163 11:0.319876 12:1 13:0.478966 14:0.229976 15:0.00393938 16:0.42254 17:0.471469 18:0.512225 19:0.781522 20:0.65805 21:0.256058 22:0.348853 23:0.966316 24:0.223014 25:0.664361 26:0.772996 27:0.148493 28:0.627657 29:0.997081 30:0.412544 31:0.165855 32:0.725809 33:0.99203 34:0.516314 35:0.385483 36:0.40181 37:0.449162 
1024 1:1 2:0.489499 3:0.409986 4:0.639608 5:0.0114809 6:0.716815 7:0.00280618 8:0.285288 9:0.0100714 10:0.00374186 11:0.426353 12:1 13:0.469434 14:0.323326 15:0.0204678 16:0.321792 17:0.32188 18:0.658405 19:0.784522 20:0.380487 21:0.106287 22:0.43145 23:0.965049 24:0.267577 25:0.660365 26:0.706597 27:0.365918 28:0.504637 29:0.965448 30:0.364889 31:0.0686527 32:0.530192 33:0.971413 34:0.323502 35:0.253112 36:0.534333 37:0.637033 
1024 1:1 2:0.0757808 3:0.291824 4:0.51714 5:0.00267538 6:0.509434 7:0.00411202 8:0.291193 9:0.00209165 10:0.000375708 11:0.547701 12:0.999767 13:0.472378 14:0.305659 15:0.00105218 16:0.397225 17:0.27256 18:0.765891 19:0.708583 20:0.420378 21:0.130761 22:0.414143 23:0.988938 24:0.264955 25:0.677749 26:0.707221 27:0.369975 28:0.563649 29:0.997018 30:0.365169 31:0.106082 32:0.582711 33:1 34:0.441681 35:0.317599 36:0.441464 37:0.553384 
1024 1:1 2:0.0770165 3:0.291824 4:0.511943 5:0.00272008 6:0.509434 7:0.00411202 8:0.292228 9:0.00212645 10:0.000382183 11:0.548266 12:0.999763 13:0.477979 14:0.304351 15:0.00106981 16:0.395312 17:0.293456 18:0.76389 19:0.711556 20:0.411163 21:0.12883 22:0.420369 23:0.988758 24:0.265066 25:0.683961 26:0.704609 27:0.369975 28:0.552308 29:0.996969 30:0.36812 31:0.106082 32:0.576939 33:1 34:0.441193 35:0.314563 36:0.445012 37:0.552836 
1024 1:1 2:0.142125 3:0.291824 4:0.549637 5:0.00507559 6:0.509434 7:0.00411202 8:0.304764 9:0.00396046 10:0.000723386 11:0.535148 12:0.999563 13:0.463683 14:0.289619 15:0.00199903 16:0.39788 17:0.294694 18:0.724273 19:0.705492 20:0.405202 21:0.148538 22:0.435199 23:0.979251 24:0.293619 25:0.717948 26:0.724906 27:0.369975 28:0.562739 29:0.994406 30:0.384602 31:0.109806 32:0.563472 33:1 34:0.476479 35:0.323762 36:0.438636 37:0.512755 
1024 1:1 2:0.458502 3:0.303462 4:0.556262 5:0.00354946 6:0.771789 7:0.00419538 8:0.27502 9:0.00206859 10:0.00940376 11:0.399559 12:1 13:0.450295 14:0.304801 15:0.0128049 16:0.273649 17:0.274235 18:0.693898 19:0.679102 20:0.577416 21:0.247037 22:0.415142 23:0.968389 24:0.276199 25:0.683895 26:0.774887 27:0.322301 28:0.618246 29:0.968532 30:0.48594 31:0.168815 32:0.669021 33:0.978521 34:0.429064 35:0.469475 36:0.454701 37:0.391402 
1024 1:1 2:0.408549 3:0.338398 4:0.721053 5:0.00525975 6:0.426446 7:0.0038064 8:0.279566 9:0.00410384 10:0.00229277 11:0.441563 12:1 13:0.467092 14:0.309658 15:0.00942402 16:0.289026 17:0.364378 18:0.551759 19:0.778267 20:0.358004 21:0.12597 22:0.45869 23:0.976119 24:0.215461 25:0.564363 26:0.757191 27:0.376632 28:0.506549 29:0.982616 30:0.422605 31:0.185716 32:0.544841 33:0.977148 34:0.347098 35:0.326855 36:0.538587 37:0.528924 
1024 1:1 2:0.270936 3:0.377249 4:0.549855 5:0.00286631 6:0.736172 7:0.00305623 8:0.332546 9:0.0376202 10:0.00188966 11:0.633355 12:1 13:0.42187 14:0.289761 15:0.00517521 16:0.385167 17:0.28127 18:0.770278 19:0.727393 20:0.362469 21:0.25039 22:0.370652 23:0.980279 24:0.372846 25:0.590477 26:0.743843 27:0.417972 28:0.670648 29:0.977669 30:0.377411 31:0.220472 32:0.544789 33:0.975322 34:0.603436 35:0.44045 36:0.351757 37:0.357549 
1024 1:1 2:0.426421 3:0.39917 4:0.596487 5:0.00889899 6:0.719086 7:0.00236164 8:0.343233 9:0.0313661 10:0.0467251 11:0.489885 12:1 13:0.508627 14:0.269513 15:0.00262323 16:0.405735 17:0.366121 18:0.698535 19:0.827736 20:0.397529 21:0.27115 22:0.369273 23:0.927638 24:0.301886 25:0.610725 26:0.737103 27:0.457926 28:0.703282 29:0.960981 30:0.382588 31:0.6279 32:0.601814 33:0.958571 34:0.630872 35:0.409345 36:0.350352 37:0.362335 
1024 1:1 2:0.0697403 3:0.286601 4:0.541998 5:0.0013249 6:0.490637 7:0.00497333 8:0.312399 9:0.00131077 10:0.000582846 11:0.522066 12:0.999292 13:0.490472 14:0.348672 15:0.000176667 16:0.361416 17:0.34059 18:0.754621 19:0.705292 20:0.372526 21:0.134478 22:0.375016 23:0.999688 24:0.319723 25:0.697109 26:0.717168 27:0.364137 28:0.562194 29:1 30:0.3727 31:0.0677934 32:0.549552 33:0.999541 34:0.412216 35:0.372829 36:0.43506 37:0.534814 
1024 1:1 2:0.521739 3:0.29087 4:0.517959 5:0.00669187 6:0.733958 7:0.00255612 8:0.320468 9:0.0196871 10:0.00438331 11:0.661486 12:0.989669 13:0.478325 14:0.36871 15:0.00896748 16:0.439538 17:0.341166 18:0.809792 19:0.71223 20:0.322996 21:0.151104 22:0.307199 23:0.995455 24:0.399154 25:0.585274 26:0.72056 27:0.594219 28:0.612254 29:0.992647 30:0.230033 31:0.458226 32:0.467474 33:1 34:0.43446 35:0.279743 36:0.425564 37:0.620098 
1024 1:1 2:0.236422 3:0.369836 4:0.659408 5:0.000885069 6:0.902548 7:0.00411202 8:0.296701 9:0.00217768 10:0.00493477 11:0.387173 12:1 13:0.494649 14:0.230631 15:0.00418885 16:0.484396 17:0.455656 18:0.632713 19:0.794502 20:0.587949 21:0.284648 22:0.29683 23:0.985935 24:0.270004 25:0.648207 26:0.781114 27:0.208722 28:0.630882 29:0.98035 30:0.35541 31:0.176358 32:0.671481 33:0.990588 34:0.612971 35:0.391046 36:0.350476 37:0.400744 
785.0654448567064 1:1 2:0.28022 3:0.339174 4:0.340482 5:0.00133601 6:0.914265 7:0.00330629 8:0.274895 9:0.00323097 10:0.00728627 11:0.450277 12:1 13:0.623801 14:0.169054 15:0.00619009 16:0.512293 17:0.397284 18:0.639837 19:0.691122 20:0.520922 21:0.353525 22:0.285298 23:0.988688 24:0.28131 25:0.672691 26:0.853349 27:0.196146 28:0.645664 29:0.986276 30:0.365334 31:0.484675 32:0.830186 33:0.990285 34:0.677245 35:0.404422 36:0.340018 37:0.329898 
654.4012130960332 1:1 2:0.400778 3:0.368291 4:0.649986 5:0.00688493 6:0.35411 7:0.00286175 8:0.253644 9:0.00536921 10:0.0150802 11:0.513674 12:1 13:0.466149 14:0.373965 15:0.00202734 16:0.334318 17:0.334936 18:0.708876 19:0.815659 20:0.405177 21:0.225378 22:0.441504 23:0.987532 24:0.247737 25:0.578704 26:0.706386 27:0.347301 28:0.593361 29:0.992437 30:0.461668 31:0.400458 32:0.581332 33:0.988528 34:0.394766 35:0.458024 36:0.406347 37:0.498599 
1024 1:1 2:0.145286 3:0.2886 4:0.521514 5:0.000853969 6:0.882858 7:0.00522338 8:0.273426 9:0.000494554 10:0.00357412 11:0.467546 12:1 13:0.46337 14:0.302483 15:0.00201092 16:0.261762 17:0.225385 18:0.673966 19:0.710979 20:0.46538 21:0.196181 22:0.410634 23:0.990724 24:0.223506 25:0.638827 26:0.791167 27:0.386301 28:0.550577 29:0.986995 30:0.427003 31:0.166332 32:0.659619 33:0.993627 34:0.369672 35:0.412982 36:0.500269 37:0.46009 
1024 1:1 2:0.0333218 3:0.302903 4:0.522233 5:0.000182365 6:0.643481 7:0.00444543 8:0.295787 9:0.000391654 10:0.000140165 11:0.522054 12:0.999905 13:0.511698 14:0.308673 15:0.000410712 16:0.338263 17:0.365182 18:0.714278 19:0.734346 20:0.382462 21:0.11887 22:0.358654 23:0.999334 24:0.297863 25:0.671099 26:0.724354 27:0.453606 28:0.544013 29:1 30:0.337474 31:0.0536618 32:0.555921 33:0.999755 34:0.367431 35:0.29593 36:0.498697 37:0.587465 
1024 1:1 2:0.0993947 3:0.272738 4:0.549213 5:0.00107164 6:0.671553 7:0.00288953 8:0.279042 9:0.00526919 10:0.000719826 11:0.422385 12:0.999565 13:0.451573 14:0.358435 15:0.0029985 16:0.387052 17:0.255985 18:0.73155 19:0.733483 20:0.50281 21:0.16948 22:0.425578 23:1 24:0.238526 25:0.714981 26:0.717542 27:0.480144 28:0.582698 29:0.998763 30:0.35516 31:0.132818 32:0.610678 33:0.993244 34:0.468921 35:0.371491 36:0.409469 37:0.505805 
1024 1:1 2:0.079459 3:0.239338 4:0.559458 5:0.00094025 6:0.772625 7:0.00261169 8:0.291719 9:0.00465541 10:0.000634184 11:0.458376 12:0.999616 13:0.43359 14:0.352063 15:0.00264865 16:0.368865 17:0.319822 18:0.743078 19:0.729019 20:0.447467 21:0.17234 22:0.442321 23:1 24:0.275764 25:0.712187 26:0.688003 27:0.44905 28:0.571264 29:0.998906 30:0.367814 31:0.141889 32:0.620298 33:0.994025 34:0.466029 35:0.374192 36:0.415798 37:0.498475 
1024 1:1 2:0.104396 3:0.27473 4:0.524375 5:0.000401537 6:0.774934 7:0.00369527 8:0.314459 9:0.0174059 10:0.001196 11:0.539769 12:1 13:0.50158 14:0.34318 15:0.0115739 16:0.332508 17:0.308775 18:0.77605 19:0.749595 20:0.376139 21:0.175964 22:0.410676 23:0.98681 24:0.269967 25:0.668644 26:0.668915 27:0.324533 28:0.587773 29:0.988823 30:0.419354 31:0.225532 32:0.559455 33:0.990753 34:0.454028 35:0.42242 36:0.42478 37:0.449918 
1024 1:1 2:0.294495 3:0.298687 4:0.632345 5:0.00812521 6:0.648499 7:0.00297288 8:0.312639 9:0.00378403 10:0.00852097 11:0.433896 12:0.984974 13:0.457167 14:0.328613 15:0.00142498 16:0.315842 17:0.321345 18:0.721555 19:0.796956 20:0.424341 21:0.163603 22:0.45058 23:0.995592 24:0.246243 25:0.525619 26:0.726481 27:0.434531 28:0.640616 29:1 30:0.387325 31:0.286355 32:0.605043 33:0.998378 34:0.388918 35:0.360982 36:0.495356 37:0.499901 
1024 1:1 2:0.104148 3:0.322356 4:0.660811 5:0.00234861 6:0.600509 7:0.00213936 8:0.225417 9:0.00371672 10:0.00102771 11:0.324624 12:1 13:0.279902 14:0.318005 15:0.0013994 16:0.263046 17:0.161692 18:0.630618 19:0.76845 20:0.473501 21:0.163821 22:0.587433 23:0.987009 24:0.175873 25:0.496044 26:0.765942 27:0.385436 28:0.532623 29:0.986866 30:0.299577 31:0.231834 32:0.620738 33:0.991234 34:0.320089 35:0.322592 36:0.468893 37:0.64636 
1024 1:1 2:0.148426 3:0.270875 4:0.678896 5:0.00662597 6:0.343039 7:0.00183374 8:0.316086 9:0.00308364 10:0.0209146 11:0.402474 12:0.995908 13:0.437911 14:0.328713 15:0.00115884 16:0.322959 17:0.281249 18:0.707901 19:0.826135 20:0.421052 21:0.124842 22:0.448735 23:0.996399 24:0.291883 25:0.562373 26:0.685927 27:0.517302 28:0.552627 29:0.992719 30:0.394383 31:0.0591044 32:0.587537 33:1 34:0.385611 35:0.346975 36:0.462704 37:0.557463 
1024 1:1 2:0.169529 3:0.289923 4:0.57765 5:0.00191239 6:0.651815 7:0.00283396 8:0.344335 9:0.0242104 10:0.00513532 11:0.526081 12:0.998488 13:0.457315 14:0.310379 15:0.000848711 16:0.314829 17:0.294193 18:0.710406 19:0.789038 20:0.423929 21:0.109116 22:0.417779 23:1 24:0.266344 25:0.702782 26:0.700394 27:0.402251 28:0.593585 29:0.983859 30:0.435436 31:0.058245 32:0.562935 33:0.999021 34:0.354594 35:0.333001 36:0.559289 37:0.489479 
360.4099331163698 1:1 2:0.122052 3:0.340189 4:0.664458 5:0.000986808 6:0.463174 7:0.00383419 8:0.254007 9:0.000572125 10:0.00203618 11:0.467607 12:1 13:0.365707 14:0.263666 15:0.00323956 16:0.30185 17:0.281436 18:0.684347 19:0.824026 20:0.498148 21:0.266682 22:0.533651 23:0.984429 24:0.292005 25:0.545617 26:0.792034 27:0.374303 28:0.662855 29:0.990268 30:0.43338 31:0.204049 32:0.613382 33:0.990622 34:0.452265 35:0.463835 36:0.393678 37:0.445678 
1024 1:1 2:0.465164 3:0.415435 4:0.692801 5:0.00237336 6:0.806446 7:0.00630696 8:0.32052 9:0.00565403 10:0.00156834 11:0.563457 12:0.993475 13:0.425078 14:0.279991 15:0.00321785 16:0.311653 17:0.311112 18:0.65058 19:0.842125 20:0.229207 21:0.221074 22:0.584719 23:0.980314 24:0.413206 25:0.709972 26:0.710726 27:0.297127 28:0.665912 29:0.993366 30:0.558715 31:0.16194 32:0.476439 33:1 34:0.521414 35:0.496445 36:0.404262 37:0.324045 
1024 1:1 2:0.0898438 3:0.339097 4:0.563236 5:0.00148387 6:0.71271 7:0.00191709 8:0.294494 9:0.00267169 10:0.00603767 11:0.489415 12:1 13:0.546273 14:0.362398 15:0.000658535 16:0.359371 17:0.366568 18:0.722701 19:0.750888 20:0.330435 21:0.13023 22:0.426006 23:0.997916 24:0.335764 25:0.681323 26:0.702511 27:0.326833 28:0.523749 29:0.992414 30:0.341047 31:0.0747637 32:0.519738 33:0.999233 34:0.385668 35:0.319825 36:0.44899 37:0.602437 
1024 1:1 2:0.10273 3:0.339097 4:0.556062 5:0.00170617 6:0.71271 7:0.00191709 8:0.290689 9:0.0113369 10:0.0172997 11:0.486884 12:1 13:0.497514 14:0.364231 15:0.000757193 16:0.364178 17:0.277873 18:0.722104 19:0.75306 20:0.347138 21:0.134965 22:0.435795 23:0.997617 24:0.331638 25:0.652149 26:0.692719 27:0.326833 28:0.568798 29:0.991325 30:0.374238 31:0.139884 32:0.549825 33:0.999123 34:0.389007 35:0.342333 36:0.436797 37:0.589832 
1024 1:1 2:0.0989484 3:0.339097 4:0.56378 5:0.00164093 6:0.71271 7:0.00191709 8:0.284532 9:0.00593598 10:0.00109092 11:0.451202 12:1 13:0.502198 14:0.363208 15:0.00224271 16:0.366594 17:0.279057 18:0.704758 19:0.748614 20:0.372912 21:0.160249 22:0.436473 23:0.997704 24:0.272024 25:0.660987 26:0.700308 27:0.326833 28:0.60381 29:0.991645 30:0.352164 31:0.141984 32:0.563915 33:0.999155 34:0.401932 35:0.344239 36:0.424267 37:0.588948 
1024 1:1 2:0.157748 3:0.31887 4:0.560645 5:0.00657862 6:0.730565 7:0.00313959 8:0.295812 9:0.00480741 10:0.0021441 11:0.472337 12:1 13:0.519206 14:0.369253 15:0.000708148 16:0.358047 17:0.314978 18:0.713489 19:0.751417 20:0.325098 21:0.134177 22:0.41661 23:0.997765 24:0.303132 25:0.672224 26:0.695673 27:0.31908 28:0.610933 29:0.991867 30:0.364324 31:0.0747637 32:0.532964 33:0.999178 34:0.388378 35:0.330926 36:0.443592 37:0.594333 
1024 1:1 2:0.145824 3:0.335192 4:0.564814 5:0.00667273 6:0.750255 7:0.00286175 8:0.296633 9:0.0048761 10:0.00217477 11:0.472584 12:1 13:0.518013 14:0.364695 15:0.000718589 16:0.355907 17:0.318245 18:0.722375 19:0.751055 20:0.321259 21:0.134973 22:0.429445 23:0.997734 24:0.297761 25:0.668483 26:0.692723 27:0.290411 28:0.610503 29:0.991751 30:0.365397 31:0.0747637 32:0.52858 33:0.999166 34:0.388765 35:0.331012 36:0.446254 37:0.590624 
1024 1:1 2:0.221837 3:0.315745 4:0.597439 5:0.0133397 6:0.655683 7:0.00355635 8:0.334309 9:0.0035706 10:0.0026673 11:0.407829 12:1 13:0.552031 14:0.290698 15:0.000886255 16:0.331248 17:0.400145 18:0.642675 19:0.787458 20:0.38456 21:0.205899 22:0.43326 23:0.987514 24:0.276536 25:0.698439 26:0.739554 27:0.363132 28:0.66223 29:0.986535 30:0.46075 31:0.16194 32:0.606158 33:0.989788 34:0.529703 35:0.461181 36:0.394296 37:0.364162 
1024 1:1 2:0.0511026 3:0.255337 4:0.493465 5:0.00158381 6:0.469009 7:0.00358413 8:0.278367 9:0.000508024 10:0.00489288 11:0.552274 12:1 13:0.51987 14:0.363418 15:0.000180116 16:0.357729 17:0.384682 18:0.758799 19:0.68538 20:0.35882 21:0.13859 22:0.332222 23:0.98859 24:0.346082 25:0.731873 26:0.703256 27:0.446533 28:0.565151 29:0.995385 30:0.401064 31:0.118591 32:0.560034 33:0.996034 34:0.389951 35:0.397584 36:0.433844 37:0.534275 
1024 1:1 2:0.0506876 3:0.255337 4:0.499526 5:0.00110306 6:0.469009 7:0.00358413 8:0.275171 9:0.005416 10:0.000283349 11:0.552009 12:1 13:0.51018 14:0.361823 15:0.00328959 16:0.355823 17:0.363156 18:0.759543 19:0.688227 20:0.365296 21:0.144828 22:0.342334 23:0.988682 24:0.349186 25:0.731051 26:0.70544 27:0.446533 28:0.567161 29:0.995423 30:0.401966 31:0.118591 32:0.564055 33:0.996066 34:0.390135 35:0.404679 36:0.431614 37:0.529299 
1024 1:1 2:0.0503906 3:0.255337 4:0.4993 5:0.00109621 6:0.469009 7:0.00358413 8:0.276036 9:0.00538401 10:0.000281563 11:0.552523 12:1 13:0.50644 14:0.36274 15:0.00327014 16:0.355396 17:0.365479 18:0.760558 19:0.689253 20:0.364408 21:0.144284 22:0.341497 23:0.988749 24:0.34678 25:0.730615 26:0.706345 27:0.446533 28:0.566086 29:0.99545 30:0.403369 31:0.118591 32:0.566339 33:0.996089 34:0.389964 35:0.404745 36:0.4314 37:0.52967 
1024 1:1 2:0.0502989 3:0.255337 4:0.496662 5:0.00155787 6:0.469009 7:0.00358413 8:0.278626 9:0.000499369 10:0.00149023 11:0.550837 12:1 13:0.514873 14:0.367469 15:0.000176827 16:0.356734 17:0.372463 18:0.760611 19:0.688706 20:0.363488 21:0.137932 22:0.335686 23:0.988769 24:0.345725 25:0.733761 26:0.706602 27:0.446533 28:0.570509 29:0.995458 30:0.399258 31:0.118591 32:0.564846 33:0.996096 34:0.390223 35:0.400919 36:0.431469 37:0.533329 
1024 1:1 2:0.049929 3:0.255337 4:0.502127 5:0.00108557 6:0.469009 7:0.00358413 8:0.275963 9:0.0053343 10:0.000278789 11:0.542088 12:1 13:0.505903 14:0.363094 15:0.00323992 16:0.360351 17:0.364196 18:0.758952 19:0.69126 20:0.370688 21:0.146287 22:0.344818 23:0.988852 24:0.339105 25:0.729462 26:0.708343 27:0.446533 28:0.573922 29:0.995491 30:0.400418 31:0.118591 32:0.568212 33:0.996125 34:0.393 35:0.405018 36:0.429135 37:0.52883 
1024 1:1 2:0.0734521 3:0.296558 4:0.496746 5:0.00153561 6:0.577921 7:0.00530673 8:0.278159 9:0.000491939 10:0.0014695 11:0.542897 12:1 13:0.511848 14:0.367078 15:0.000174004 16:0.359673 17:0.382217 18:0.759256 19:0.690315 20:0.373136 21:0.137541 22:0.333054 23:0.988923 24:0.338019 25:0.735345 26:0.709089 27:0.460014 28:0.566551 29:0.99552 30:0.397851 31:0.118591 32:0.569542 33:0.99615 34:0.393052 35:0.398981 36:0.428867 37:0.535445 
1024 1:1 2:0.293687 3:0.298687 4:0.619305 5:0.00810271 6:0.648499 7:0.00297288 8:0.3096 9:0.00377352 10:0.0084975 11:0.404298 12:1 13:0.433784 14:0.318211 15:0.00142099 16:0.314974 17:0.313081 18:0.707834 19:0.78694 20:0.438849 21:0.161006 22:0.449193 23:0.964835 24:0.245485 25:0.509527 26:0.745504 27:0.434531 28:0.565962 29:0.975113 30:0.378323 31:0.182374 32:0.612343 33:0.975733 34:0.385913 35:0.348484 36:0.513587 37:0.494362 
1024 1:1 2:0.193257 3:0.298687 4:0.576511 5:0.00530786 6:0.648499 7:0.00297288 8:0.316871 9:0.00246787 10:0.00558264 11:0.500945 12:1 13:0.411901 14:0.340443 15:0.000924849 16:0.372842 17:0.299487 18:0.657694 19:0.746555 20:0.362448 21:0.149646 22:0.461688 23:0.976867 24:0.276581 25:0.627751 26:0.775655 27:0.434531 28:0.577858 29:0.983629 30:0.334046 31:0.0654063 32:0.634144 33:0.984036 34:0.418816 35:0.3347 36:0.457045 37:0.541342 
402.3648337364019 1:1 2:0.68 3:0.291854 4:0.436494 5:0.0118538 6:0.488271 7:0.00283396 8:0.403527 9:0.009238 10:0.00515829 11:0.538846 12:1 13:0.572982 14:0.248671 15:0.0176033 16:0.301136 17:0.472756 18:0.810905 19:0.588935 20:0.402436 21:0.172521 22:0.294499 23:0.941203 24:0.27797 25:0.724991 26:0.706264 27:0.312247 28:0.513555 29:0.943797 30:0.521865 31:0.617397 32:0.557415 33:0.925241 34:0.486556 35:0.35771 36:0.532013 37:0.353902 
728.8514742771209 1:1 2:0.572034 3:0.380911 4:0.779175 5:0.00245787 6:0.805049 7:0.00375083 8:0.303232 9:0.0323731 10:0.0164259 11:0.439788 12:1 13:0.477107 14:0.275227 15:0.015648 16:0.306464 17:0.362238 18:0.630063 19:0.852808 20:0.452761 21:0.298569 22:0.520314 23:0.952475 24:0.242244 25:0.575525 26:0.836036 27:0.355755 28:0.727029 29:0.964307 30:0.404745 31:0.524587 32:0.641624 33:0.975012 34:0.529517 35:0.480341 36:0.365225 37:0.379177 
1024 1:1 2:0.204617 3:0.285293 4:0.651842 5:0.00180753 6:0.527204 7:0.00361191 8:0.297335 9:0.00651969 10:0.00486192 11:0.453928 12:0.999284 13:0.429731 14:0.32249 15:0.000802177 16:0.34492 17:0.316864 18:0.65771 19:0.804849 20:0.371153 21:0.118089 22:0.480974 23:1 24:0.241679 25:0.561347 26:0.702923 27:0.417904 28:0.569822 29:0.995924 30:0.389598 31:0.157262 32:0.582313 33:0.998145 34:0.365217 35:0.340966 36:0.483093 37:0.561268 
368.233361106361 1:1 2:0.208577 3:0.371783 4:0.465992 5:0.00109455 6:0.935552 7:0.00297288 8:0.281666 9:0.00266699 10:0.00602716 11:0.394625 12:1 13:0.547012 14:0.202275 15:0.00511853 16:0.496836 17:0.419605 18:0.59459 19:0.794323 20:0.5532 21:0.312382 22:0.273452 23:0.982835 24:0.255505 25:0.669506 26:0.793689 27:0.133523 28:0.656501 29:0.976019 30:0.366194 31:0.231739 32:0.743328 33:0.988513 34:0.629257 35:0.397374 36:0.348622 37:0.378745 
1024 1:1 2:0.0795181 3:0.412938 4:0.63653 5:0.000364629 6:0.827219 7:0.00305623 8:0.304504 9:0.000962028 10:0.00222082 11:0.367041 12:1 13:0.38014 14:0.271073 15:0.00187915 16:0.403173 17:0.299565 18:0.64431 19:0.760062 20:0.501645 21:0.17786 22:0.518251 23:0.994215 24:0.170429 25:0.68153 26:0.717085 27:0.12178 28:0.581016 29:0.994386 30:0.318001 31:0.0837391 32:0.616666 33:0.992336 34:0.442532 35:0.311068 36:0.454356 37:0.543831 
611.8883421078509 1:1 2:0.613636 3:0.351272 4:0.545377 5:0.0039936 6:0.439845 7:0.00500111 8:0.270921 9:0.0094386 10:0.00262448 11:0.634199 12:0.995346 13:0.457621 14:0.342293 15:0.0269911 16:0.359495 17:0.397966 18:0.733641 19:0.770791 20:0.272982 21:0.240079 22:0.354021 23:1 24:0.396401 25:0.688585 26:0.700636 27:0.321191 28:0.597996 29:0.995583 30:0.450378 31:0.554091 32:0.48423 33:0.99799 34:0.527471 35:0.469979 36:0.366922 37:0.390238 
1024 1:1 2:0.430903 3:0.353784 4:0.549426 5:0.00187792 6:0.37361 7:0.00366748 8:0.28015 9:0.027192 10:0.0151789 11:0.561187 12:0.995544 13:0.500195 14:0.288181 15:0.00859508 16:0.371964 17:0.371407 18:0.730288 19:0.790521 20:0.44925 21:0.232423 22:0.356223 23:1 24:0.244897 25:0.694111 26:0.658694 27:0.260943 28:0.58324 29:0.995771 30:0.468995 31:0.403514 32:0.527266 33:0.998076 34:0.575268 35:0.459789 36:0.363175 37:0.353881 
96.83469146779818 1:1 2:0.394737 3:0.251605 4:0.695303 5:0.016387 6:0.731867 7:0.0027784 8:0.313811 9:0.043877 10:0.00304278 11:0.367409 12:1 13:0.414062 14:0.28369 15:0.00414328 16:0.319021 17:0.32958 18:0.530372 19:0.771519 20:0.425902 21:0.139043 22:0.526089 23:0.946245 24:0.210482 25:0.625998 26:0.823609 27:0.423163 28:0.569381 29:0.964194 30:0.369363 31:0.459945 32:0.576008 33:0.962758 34:0.419482 35:0.279406 36:0.497934 37:0.549588 
295.7692526716438 1:1 2:0.117146 3:0.290069 4:0.630303 5:0.00082796 6:0.507267 7:0.0043343 8:0.294282 9:0.00204428 10:0.00289011 11:0.465918 12:0.998634 13:0.442149 14:0.336746 15:0.000367446 16:0.30089 17:0.305647 18:0.734541 19:0.741897 20:0.406736 21:0.145465 22:0.443645 23:1 24:0.264119 25:0.681464 26:0.705361 27:0.333699 28:0.557006 29:0.994654 30:0.435882 31:0.114771 32:0.601843 33:0.999558 34:0.384641 35:0.390147 36:0.483545 37:0.488056 
1024 1:1 2:0.0646129 3:0.313737 4:0.606221 5:0.000907618 6:0.703121 7:0.00219493 8:0.292631 9:0.00223034 10:0.00314973 11:0.460161 12:0.998513 13:0.435697 14:0.337101 15:0.000402798 16:0.302733 17:0.338371 18:0.750031 19:0.736155 20:0.417487 21:0.133524 22:0.421307 23:1 24:0.244883 25:0.705693 26:0.691368 27:0.306849 28:0.55835 29:0.994177 30:0.418861 31:0.0821159 32:0.590554 33:0.999518 34:0.377699 35:0.376058 36:0.489433 37:0.50328 
1024 1:1 2:0.111615 3:0.290069 4:0.62356 5:0.000785767 6:0.507267 7:0.0043343 8:0.295136 9:0.00194573 10:0.0027526 11:0.445613 12:0.998699 13:0.455993 14:0.343092 15:0.000348721 16:0.309147 17:0.309232 18:0.723175 19:0.740959 20:0.411875 21:0.139152 22:0.428295 23:1 24:0.26519 25:0.677539 26:0.709945 27:0.333699 28:0.567028 29:0.994906 30:0.429752 31:0.119736 32:0.607477 33:0.999579 34:0.384193 35:0.393619 36:0.477491 37:0.49217 
1024 1:1 2:0.111561 3:0.290069 4:0.629772 5:0.000785361 6:0.507267 7:0.0043343 8:0.293293 9:0.00194478 10:0.00275128 11:0.441996 12:0.998699 13:0.451459 14:0.336749 15:0.000348541 16:0.310214 17:0.303737 18:0.718985 19:0.742335 20:0.415767 21:0.144112 22:0.438959 23:1 24:0.259616 25:0.675968 26:0.710731 27:0.333699 28:0.59701 29:0.994909 30:0.437119 31:0.126325 32:0.609838 33:0.999579 34:0.387804 35:0.396815 36:0.475532 37:0.487269 
1024 1:1 2:0.116541 3:0.287091 4:0.624781 5:0.000829079 6:0.507267 7:0.00430651 8:0.295248 9:0.00204689 10:0.00289376 11:0.470157 12:0.998633 13:0.445498 14:0.343665 15:0.000367943 16:0.299991 17:0.314475 18:0.734736 19:0.738282 20:0.400617 21:0.140362 22:0.431587 23:1 24:0.270556 25:0.685784 26:0.703952 27:0.336773 28:0.571912 29:0.994647 30:0.42702 31:0.115917 32:0.600495 33:0.999557 34:0.380662 35:0.386629 36:0.485555 37:0.493632 
1024 1:1 2:0.0629984 3:0.313737 4:0.617395 5:0.0008833 6:0.703121 7:0.00219493 8:0.294805 9:0.00217354 10:0.00307048 11:0.465566 12:0.99855 13:0.442351 14:0.33832 15:0.000392006 16:0.30058 17:0.344663 18:0.739284 19:0.741583 20:0.421702 21:0.137038 22:0.423736 23:1 24:0.250894 25:0.699805 26:0.695766 27:0.306849 28:0.574161 29:0.994323 30:0.42451 31:0.0859353 32:0.589884 33:0.99953 34:0.38164 35:0.378704 36:0.489473 37:0.496197 
1024 1:1 2:0.0598636 3:0.313737 4:0.622178 5:0.000836084 6:0.703121 7:0.00219493 8:0.293353 9:0.00206326 10:0.00291659 11:0.464272 12:0.998622 13:0.442315 14:0.3385 15:0.000371052 16:0.310704 17:0.321556 18:0.732106 19:0.738895 20:0.424534 21:0.135543 22:0.426736 23:1 24:0.259236 25:0.685655 26:0.704357 27:0.306849 28:0.568064 29:0.994605 30:0.425988 31:0.0859353 32:0.603575 33:0.999554 34:0.384957 35:0.386181 36:0.480633 37:0.495388 
1024 1:1 2:0.120373 3:0.287091 4:0.623841 5:0.000858491 6:0.507267 7:0.00430651 8:0.294486 9:0.0021156 10:0.00298962 11:0.460726 12:0.998588 13:0.440603 14:0.338194 15:0.000380996 16:0.298651 17:0.321407 18:0.741685 19:0.74224 20:0.413141 21:0.142552 22:0.43109 23:1 24:0.257568 25:0.68456 26:0.699533 27:0.336773 28:0.557896 29:0.994471 30:0.423872 31:0.0689392 32:0.593876 33:0.999543 34:0.382032 35:0.384094 36:0.486688 37:0.493456 
1024 1:1 2:0.0608941 3:0.313737 4:0.620926 5:0.000851606 6:0.703121 7:0.00219493 8:0.29596 9:0.00209951 10:0.00296718 11:0.465102 12:0.998598 13:0.445375 14:0.343665 15:0.00037794 16:0.301659 17:0.327475 18:0.742693 19:0.73977 20:0.407028 21:0.135469 22:0.425375 23:1 24:0.264577 25:0.68754 26:0.700002 27:0.306849 28:0.566441 29:0.994512 30:0.428132 31:0.0870811 32:0.594357 33:0.999546 34:0.380438 35:0.381649 36:0.48827 37:0.495845 
1024 1:1 2:0.049095 3:0.345078 4:0.516814 5:0.00037705 6:0.535586 7:0.00366748 8:0.263708 9:0.0015077 10:0.00689937 11:0.505116 12:0.999155 13:0.526707 14:0.353408 15:0.000167334 16:0.340593 17:0.387564 18:0.739795 19:0.739567 20:0.3473 21:0.114143 22:0.37212 23:0.997619 24:0.312166 25:0.690636 26:0.70688 27:0.3469 28:0.535111 29:0.999037 30:0.36688 31:0.0451638 32:0.568217 33:1 34:0.357055 35:0.329392 36:0.468509 37:0.599784 
1024 1:1 2:0.0478145 3:0.345078 4:0.52368 5:0.000580932 6:0.535586 7:0.00366748 8:0.264873 9:0.00121568 10:0.000259547 11:0.476819 12:0.999177 13:0.519689 14:0.351073 15:0.000353419 16:0.342468 17:0.372821 18:0.734967 19:0.74417 20:0.362969 21:0.121631 22:0.381883 23:0.997681 24:0.295339 25:0.687318 26:0.713395 27:0.3469 28:0.538555 29:0.999062 30:0.368465 31:0.0451638 32:0.571532 33:1 34:0.362903 35:0.335168 36:0.464907 37:0.59173 
1024 1:1 2:0.681818 3:0.358873 4:0.519449 5:0.019065 6:0.745067 7:0.00236164 8:0.338898 9:0.00554331 10:0.0311534 11:0.428741 12:1 13:0.534896 14:0.250723 15:0.0933607 16:0.355816 17:0.372145 18:0.622206 19:0.688796 20:0.406582 21:0.195175 22:0.439959 23:0.90992 24:0.214667 25:0.655721 26:0.830543 27:0.351663 28:0.669458 29:0.916732 30:0.457783 31:0.21417 32:0.672931 33:0.928954 34:0.454261 35:0.371012 36:0.533812 37:0.372602 
1024 1:1 2:0.0486068 3:0.345078 4:0.521493 5:0.000591642 6:0.535586 7:0.00366748 8:0.262546 9:0.00123653 10:0.000264201 11:0.498788 12:0.999163 13:0.518521 14:0.352438 15:0.000359757 16:0.340019 17:0.377797 18:0.73853 19:0.741719 20:0.353345 21:0.119334 22:0.379097 23:0.997643 24:0.307892 25:0.690371 26:0.709343 27:0.3469 28:0.538502 29:0.999047 30:0.369256 31:0.0451638 32:0.570114 33:1 34:0.358517 35:0.334081 36:0.466723 37:0.595423 
1024 1:1 2:0.201556 3:0.335927 4:0.549447 5:0.00119716 6:0.598124 7:0.00263948 8:0.294809 9:0.010279 10:0.00491635 11:0.549783 12:1 13:0.452085 14:0.343116 15:0.00221217 16:0.362349 17:0.260673 18:0.706231 19:0.736287 20:0.474134 21:0.300227 22:0.3729 23:0.981316 24:0.334145 25:0.690434 26:0.793765 27:0.352725 28:0.611477 29:0.978019 30:0.36795 31:0.201566 32:0.60404 33:0.987497 34:0.544065 35:0.524296 36:0.319817 37:0.371869 
1024 1:1 2:0.307105 3:0.215461 4:0.634688 5:0.0081177 6:0.489544 7:0.00372305 8:0.360351 9:0.0111075 10:0.00353472 11:0.518742 12:0.99583 13:0.43673 14:0.338965 15:0.00118154 16:0.362245 17:0.246711 18:0.729492 19:0.758762 20:0.46195 21:0.215036 22:0.447123 23:0.998165 24:0.256659 25:0.680313 26:0.724743 27:0.391987 28:0.604169 29:0.99258 30:0.366592 31:0.308794 32:0.546618 33:1 34:0.488465 35:0.460322 36:0.365415 37:0.444295 
1024 1:1 2:0.324143 3:0.239072 4:0.639777 5:0.00791633 6:0.499256 7:0.00402867 8:0.362128 9:0.0108332 10:0.00344721 11:0.519749 12:0.995932 13:0.453597 14:0.330618 15:0.00115175 16:0.370421 17:0.240094 18:0.715781 19:0.753995 20:0.476682 21:0.211489 22:0.421396 23:0.99821 24:0.258108 25:0.690258 26:0.72649 27:0.410502 28:0.605631 29:0.992762 30:0.359718 31:0.415927 32:0.542512 33:1 34:0.497849 35:0.448421 36:0.36606 37:0.445907 
625.0327185333208 1:1 2:0.214286 3:0.295752 4:0.770016 5:0.00283296 6:0.686482 7:0.00244499 8:0.195323 9:0.00165019 10:0.00564637 11:0.30995 12:1 13:0.396774 14:0.235911 15:0.109303 16:0.333186 17:0.273923 18:0.611616 19:0.856086 20:0.698523 21:0.460804 22:0.75289 23:0.992201 24:0.22714 25:0.546779 26:0.765437 27:0.255361 28:0.635381 29:0.990539 30:0.326183 31:0.388523 32:0.737032 33:0.998565 34:0.607498 35:0.48113 36:0.332695 37:0.333317 
1024 1:1 2:0.138817 3:0.290916 4:0.542384 5:0.00714367 6:0.808736 7:0.00350078 8:0.330446 9:0.00378473 10:0.00510501 11:0.494657 12:1 13:0.517508 14:0.308497 15:0.000552703 16:0.377936 17:0.356651 18:0.701236 19:0.741012 20:0.293415 21:0.10329 22:0.40781 23:0.984129 24:0.366879 25:0.689523 26:0.733471 27:0.34606 28:0.532984 29:0.981458 30:0.341569 31:0.052516 32:0.559183 33:0.989615 34:0.406253 35:0.274017 36:0.497761 37:0.569737 
1024 1:1 2:0.16428 3:0.30571 4:0.572731 5:0.000686418 6:0.697267 7:0.00361191 8:0.282795 9:0.00171367 10:0.0176194 11:0.494152 12:1 13:0.434637 14:0.30146 15:0.00464174 16:0.327303 17:0.223043 18:0.675331 19:0.76148 20:0.45757 21:0.171807 22:0.463409 23:0.997977 24:0.22657 25:0.62021 26:0.743017 27:0.404141 28:0.550207 29:0.999182 30:0.348019 31:0.0640695 32:0.590798 33:0.9933 34:0.404314 35:0.342449 36:0.453367 37:0.553267 
1024 1:1 2:0.105882 3:0.279588 4:0.567584 5:0.00226758 6:0.754655 7:0.0022505 8:0.302911 9:0.000865933 10:0.00200628 11:0.481683 12:1 13:0.476183 14:0.306196 15:0.0103244 16:0.34413 17:0.302579 18:0.665466 19:0.756544 20:0.440254 21:0.165469 22:0.458478 23:0.997908 24:0.196908 25:0.629395 26:0.736955 27:0.493562 28:0.584638 29:0.999154 30:0.336092 31:0.0761004 32:0.580456 33:0.993069 34:0.412601 35:0.317838 36:0.461867 37:0.559977 
1024 1:1 2:0.0966972 3:0.279588 4:0.608476 5:0.00135497 6:0.754655 7:0.0022505 8:0.288928 9:0.0082516 10:0.000904516 11:0.379249 12:1 13:0.414548 14:0.288899 15:0.00438329 16:0.320336 17:0.234295 18:0.667552 19:0.776669 20:0.505335 21:0.228521 22:0.521154 23:0.998089 24:0.182914 25:0.617604 26:0.757136 27:0.493562 28:0.587489 29:0.999227 30:0.33565 31:0.103122 32:0.61622 33:0.99367 34:0.445045 35:0.358786 36:0.430886 37:0.519171 
350.8680321785087 1:1 2:0.199638 3:0.313653 4:0.557937 5:0.0039743 6:0.700698 7:0.00408424 8:0.312559 9:0.00656278 10:0.00103198 11:0.427226 12:1 13:0.445602 14:0.30991 15:0.00140523 16:0.332166 17:0.258025 18:0.682536 19:0.765601 20:0.51947 21:0.25257 22:0.46663 23:0.976087 24:0.240559 25:0.552659 26:0.854709 27:0.417264 28:0.650859 29:0.988571 30:0.380576 31:0.216652 32:0.698405 33:0.990399 34:0.514368 35:0.432031 36:0.423865 37:0.375799 
786.0057840193456 1:1 2:0.14645 3:0.218703 4:0.4205 5:0.00389596 6:0.859472 7:0.00183374 8:0.232582 9:0.00612626 10:0.00170012 11:0.589066 12:1 13:0.632196 14:0.341602 15:0.0105191 16:0.303569 17:0.334011 18:0.803147 19:0.539457 20:0.411576 21:0.182164 22:0.380431 23:0.952036 24:0.229627 25:0.802775 26:0.701366 27:0.384784 28:0.529618 29:0.966953 30:0.376296 31:0.124415 32:0.599087 33:0.968616 34:0.340011 35:0.395878 36:0.475877 37:0.539412 
1024 1:1 2:0.0978756 3:0.246583 4:0.519914 5:0.00331968 6:0.728513 7:0.00238942 8:0.259181 9:0.00232974 10:0.00174389 11:0.494851 12:1 13:0.532522 14:0.331473 15:0.000571909 16:0.244495 17:0.306663 18:0.710109 19:0.772555 20:0.408546 21:0.104923 22:0.394584 23:0.993624 24:0.244867 25:0.655692 26:0.681304 27:0.450314 28:0.552465 29:0.999263 30:0.404354 31:0.101595 32:0.555909 33:0.995977 34:0.279855 35:0.323256 36:0.536724 37:0.607508 
1024 1:1 2:0.0842066 3:0.303571 4:0.519776 5:0.00327406 6:0.783563 7:0.0020838 8:0.258359 9:0.00229777 10:0.0017201 11:0.493067 12:1 13:0.531058 14:0.330886 15:0.00056381 16:0.243105 17:0.310012 18:0.712768 19:0.774651 20:0.404984 21:0.10614 22:0.402584 23:0.99371 24:0.251829 25:0.655927 26:0.68163 27:0.303443 28:0.556642 29:0.999273 30:0.406469 31:0.132531 32:0.554898 33:0.996031 34:0.280051 35:0.323124 36:0.53898 37:0.604723 
1024 1:1 2:0.111111 3:0.283456 4:0.53073 5:0.00311226 6:0.688192 7:0.00288953 8:0.2594 9:0.0021844 10:0.00163573 11:0.461153 12:1 13:0.515775 14:0.323158 15:0.000535089 16:0.256723 17:0.280815 18:0.701584 19:0.782699 20:0.441325 21:0.11769 22:0.413579 23:0.994015 24:0.17985 25:0.641347 26:0.696926 27:0.455885 28:0.553496 29:0.999308 30:0.406313 31:0.194691 32:0.578316 33:0.996224 34:0.298073 35:0.334753 36:0.519718 37:0.596213 
1024 1:1 2:0.0680581 3:0.303571 4:0.482935 5:0.00263346 6:0.783563 7:0.0020838 8:0.24262 9:0.00184888 10:0.00138605 11:0.545887 12:1 13:0.545213 14:0.337181 15:0.000450092 16:0.241911 17:0.357064 18:0.735467 19:0.747592 20:0.397827 21:0.0971151 22:0.355408 23:0.994917 24:0.252549 25:0.687504 26:0.682012 27:0.303443 28:0.521669 29:0.999413 30:0.387003 31:0.0455457 32:0.569193 33:0.996793 34:0.261232 35:0.309295 36:0.532579 37:0.647266 
1024 1:1 2:0.0911475 3:0.259857 4:0.507428 5:0.000324678 6:0.387797 7:0.00386197 8:0.267882 9:0.000868712 10:0.00252094 11:0.459395 12:1 13:0.552711 14:0.377885 15:0.0034327 16:0.279983 17:0.423818 18:0.688702 19:0.696517 20:0.36407 21:0.143917 22:0.367292 23:0.998426 24:0.259555 25:0.733211 26:0.735461 27:0.347588 28:0.55705 29:0.997878 30:0.474644 31:0.120023 32:0.580274 33:0.999614 34:0.334014 35:0.434338 36:0.479491 37:0.501102 
1024 1:1 2:0.21657 3:0.36107 4:0.527711 5:0.00512294 6:0.583233 7:0.00413981 8:0.317235 9:0.00803692 10:0.00223332 11:0.536859 12:0.999339 13:0.500746 14:0.304061 15:0.000738519 16:0.357993 17:0.344371 18:0.746594 19:0.732788 20:0.385956 21:0.236255 22:0.384603 23:0.98953 24:0.303729 25:0.659546 26:0.710497 27:0.36231 28:0.610031 29:0.994354 30:0.386342 31:0.178745 32:0.579266 33:1 34:0.483485 35:0.39283 36:0.429743 37:0.443272 
1024 1:1 2:0.0872883 3:0.4027 4:0.541359 5:0.00248796 6:0.677635 7:0.00338964 8:0.292866 9:0.00393372 10:0.000533486 11:0.503324 12:1 13:0.44343 14:0.315891 15:0.00110415 16:0.293356 17:0.285204 18:0.725888 19:0.71501 20:0.41971 21:0.122386 22:0.408443 23:0.99542 24:0.234957 25:0.645396 26:0.745289 27:0.36538 28:0.563849 29:0.997222 30:0.334022 31:0.0508928 32:0.572542 33:0.999157 34:0.33985 35:0.29183 36:0.519422 37:0.596617 
1024 1:1 2:0.131958 3:0.284486 4:0.526152 5:0.00618666 6:0.470292 7:0.00313959 8:0.316911 9:0.00239163 10:0.0171855 11:0.523324 12:0.997345 13:0.505952 14:0.317921 15:0.000587587 16:0.309381 17:0.344505 18:0.709192 19:0.752572 20:0.338361 21:0.109487 22:0.398037 23:1 24:0.310254 25:0.666416 26:0.722526 27:0.431507 28:0.52115 29:0.998488 30:0.404788 31:0.101117 32:0.55532 33:0.999312 34:0.35277 35:0.317943 36:0.536489 37:0.534695 
1024 1:1 2:0.172542 3:0.273552 4:0.503159 5:0.00589425 6:0.50587 7:0.00430651 8:0.310916 9:0.0022778 10:0.0163807 11:0.539796 12:0.997469 13:0.501893 14:0.325173 15:0.000558749 16:0.306249 17:0.349906 18:0.71973 19:0.753329 20:0.350184 21:0.107843 22:0.392625 23:1 24:0.3377 25:0.658487 26:0.724923 27:0.46433 28:0.516074 29:0.998559 30:0.399782 31:0.0997804 32:0.567637 33:0.999344 34:0.344104 35:0.319635 36:0.532013 37:0.547651 
1024 1:1 2:0.126393 3:0.287091 4:0.606924 5:0.0110901 6:0.507267 7:0.00430651 8:0.289168 9:0.0118533 10:0.00377256 11:0.468579 12:1 13:0.432543 14:0.338207 15:0.000401507 16:0.294212 17:0.325991 18:0.754899 19:0.733883 20:0.414449 21:0.137584 22:0.427427 23:0.994127 24:0.256451 25:0.697164 26:0.694557 27:0.336773 28:0.587788 29:0.989444 30:0.422318 31:0.070085 32:0.589243 33:0.995197 34:0.368302 35:0.380255 36:0.496618 37:0.500368 
1024 1:1 2:0.127105 3:0.290069 4:0.60744 5:0.011081 6:0.507267 7:0.0043343 8:0.290225 9:0.0118436 10:0.00376947 11:0.468811 12:1 13:0.432454 14:0.337931 15:0.000401156 16:0.293972 17:0.326575 18:0.755126 19:0.73413 20:0.414087 21:0.137471 22:0.428364 23:0.994132 24:0.257378 25:0.697479 26:0.694836 27:0.333699 28:0.58791 29:0.989453 30:0.423542 31:0.070085 32:0.589381 33:0.995201 34:0.368513 35:0.380433 36:0.496665 37:0.499896 
1024 1:1 2:0.155328 3:0.344901 4:0.449649 5:0.00154614 6:0.763512 7:0.00477884 8:0.291604 9:0.0168961 10:0.000678988 11:0.47417 12:1 13:0.546911 14:0.331654 15:0.00187812 16:0.357284 17:0.348015 18:0.720469 19:0.682693 20:0.440509 21:0.236327 22:0.40994 23:0.993496 24:0.260623 25:0.736232 26:0.785293 27:0.364576 28:0.586529 29:0.995908 30:0.426869 31:0.215507 32:0.647122 33:0.994148 34:0.51618 35:0.501358 36:0.364001 37:0.372945 
1024 1:1 2:0.0570042 3:0.321416 4:0.536232 5:0.00065602 6:0.673453 7:0.00261169 8:0.293427 9:0.00122143 10:0.00279993 11:0.505851 12:1 13:0.498012 14:0.371462 15:0.00029114 16:0.323265 17:0.32271 18:0.749143 19:0.720478 20:0.37874 21:0.16956 22:0.406179 23:0.996118 24:0.264002 25:0.718315 26:0.694962 27:0.467963 28:0.563618 29:0.995683 30:0.341461 31:0.0714218 32:0.544119 33:0.997857 34:0.419132 35:0.366207 36:0.41588 37:0.557377 
27.14966810107209 1:1 2:0.465659 3:0.424916 4:0.72155 5:0.00484224 6:0.386049 7:0.00313959 8:0.337472 9:0.00855507 10:0.0191724 11:0.375646 12:1 13:0.450398 14:0.274782 15:0.00214897 16:0.350614 17:0.290084 18:0.625527 19:0.841816 20:0.58794 21:0.32583 22:0.4439 23:0.976891 24:0.203424 25:0.609892 26:0.796053 27:0.320988 28:0.685597 29:0.986649 30:0.318057 31:0.481237 32:0.685602 33:0.980559 34:0.604613 35:0.349081 36:0.373726 37:0.425924 
1024 1:1 2:0.405355 3:0.309723 4:0.425513 5:0.0021576 6:0.666355 7:0.00602912 8:0.321804 9:0.00385197 10:0.00867265 11:0.600485 12:1 13:0.54641 14:0.293969 15:0.000957536 16:0.336432 17:0.375261 18:0.760293 19:0.782626 20:0.387573 21:0.115353 22:0.2923 23:0.973084 24:0.372249 25:0.725574 26:0.644741 27:0.386377 28:0.600563 29:0.979439 30:0.419279 31:0.145994 32:0.547716 33:0.979086 34:0.384682 35:0.34782 36:0.515536 37:0.494044 
1024 1:1 2:0.41982 3:0.346578 4:0.52107 5:0.0149434 6:0.641448 7:0.00647366 8:0.294654 9:0.0037139 10:0.00277394 11:0.477963 12:0.990986 13:0.563946 14:0.310024 15:0.000922557 16:0.318373 17:0.371738 18:0.694134 19:0.800948 20:0.364325 21:0.219704 22:0.351595 23:0.998558 24:0.323768 25:0.710714 26:0.695192 27:0.397 28:0.647072 29:0.997667 30:0.498128 31:0.22811 32:0.524118 33:1 34:0.465764 35:0.518616 36:0.386858 37:0.381717 
495.6312985539989 1:1 2:0.0392157 3:0.400607 4:0.486875 5:0.00255848 6:0.379131 7:0.00222272 8:0.250777 9:0.00744838 10:0.000358775 11:0.56527 12:0.997103 13:0.538628 14:0.340472 15:0.000488535 16:0.294986 17:0.355097 18:0.757619 19:0.741171 20:0.370516 21:0.127863 22:0.349623 23:0.997254 24:0.32872 25:0.703566 26:0.678449 27:0.286839 28:0.526223 29:0.999683 30:0.341099 31:0.0389573 32:0.55464 33:1 34:0.316661 35:0.320522 36:0.479708 37:0.63923 
1024 1:1 2:0.329114 3:0.261225 4:0.492931 5:0.00423841 6:0.406832 7:0.00505668 8:0.353142 9:0.00121432 10:0.00979741 11:0.495494 12:1 13:0.564814 14:0.348672 15:0.00188099 16:0.387118 17:0.429094 18:0.735428 19:0.679036 20:0.341224 21:0.203538 22:0.38259 23:0.989867 24:0.288974 25:0.717399 26:0.733851 27:0.40501 28:0.675327 29:0.997658 30:0.384965 31:0.331806 32:0.561015 33:0.998934 34:0.490495 35:0.395835 36:0.41005 37:0.456231 
1024 1:1 2:0.129657 3:0.395289 4:0.682565 5:0.00111645 6:0.786547 7:0.00725161 8:0.36486 9:0.00237309 10:0.000363873 11:0.492149 12:1 13:0.476881 14:0.321866 15:0.00469125 16:0.329724 17:0.330766 18:0.661254 19:0.806275 20:0.409816 21:0.294848 22:0.41585 23:0.993243 24:0.30735 25:0.689628 26:0.740034 27:0.264215 28:0.661573 29:0.993249 30:0.404005 31:0.141602 32:0.579676 33:0.994441 34:0.559441 35:0.520649 36:0.34889 37:0.32415 
1024 1:1 2:0.412214 3:0.368499 4:0.553373 5:0.0158421 6:0.390192 7:0.00300067 8:0.248791 9:0.015882 10:0.0118291 11:0.532934 12:1 13:0.538149 14:0.36681 15:0.00198805 16:0.340909 17:0.383104 18:0.767234 19:0.795124 20:0.382924 21:0.146382 22:0.271967 23:0.981656 24:0.36579 25:0.631751 26:0.700893 27:0.309948 28:0.608743 29:0.977744 30:0.522785 31:0.297145 32:0.525731 33:0.984246 34:0.333012 35:0.403213 36:0.49372 37:0.517797 
553.3391977449821 1:1 2:0.156873 3:0.273803 4:0.542555 5:0.00039658 6:0.690444 7:0.00561236 8:0.289557 9:0.0085892 10:0.00118307 11:0.578056 12:1 13:0.495461 14:0.315379 15:0.00120097 16:0.369852 17:0.341692 18:0.769952 19:0.707704 20:0.373453 21:0.226264 22:0.417569 23:0.99565 24:0.314352 25:0.684943 26:0.697135 27:0.339603 28:0.646933 29:0.999497 30:0.446299 31:0.20338 32:0.505719 33:0.99634 34:0.525912 35:0.487145 36:0.361758 37:0.380083 
1024 1:1 2:0.142254 3:0.273803 4:0.559887 5:0.000353524 6:0.690444 7:0.00561236 8:0.287699 9:0.00778462 10:0.00107081 11:0.571078 12:1 13:0.495701 14:0.317614 15:0.00108632 16:0.368846 17:0.331047 18:0.77185 19:0.722492 20:0.360863 21:0.22992 22:0.420319 23:0.996055 24:0.342133 25:0.670729 26:0.70048 27:0.339603 28:0.617482 29:0.999544 30:0.447393 31:0.20338 32:0.514444 33:0.996682 34:0.524902 35:0.499276 36:0.356436 37:0.374819 
1024 1:1 2:0.131398 3:0.290514 4:0.53428 5:0.00739869 6:0.472914 7:0.00494554 8:0.286356 9:0.00149607 10:0.0177229 11:0.551771 12:0.997651 13:0.481979 14:0.38524 15:0.000360713 16:0.325858 17:0.342579 18:0.730666 19:0.747847 20:0.348513 21:0.152796 22:0.357272 23:0.999409 24:0.372686 25:0.674095 26:0.708376 27:0.430044 28:0.581994 29:0.998089 30:0.446953 31:0.124415 32:0.560766 33:1 34:0.376959 35:0.412365 36:0.45341 37:0.509225 
1024 1:1 2:0.069353 3:0.310902 4:0.538265 5:0.000221102 6:0.759112 7:0.00400089 8:0.247915 9:0.00129583 10:0.00109895 11:0.548904 12:1 13:0.539616 14:0.460994 15:0.00480148 16:0.352775 17:0.359019 18:0.701468 19:0.747994 20:0.356232 21:0.14932 22:0.409365 23:0.985742 24:0.277862 25:0.657452 26:0.779869 27:0.444353 28:0.567959 29:0.989403 30:0.343471 31:0.104746 32:0.516883 33:0.991206 34:0.364037 35:0.427386 36:0.393374 37:0.579571 
1024 1:1 2:0.0568131 3:0.30328 4:0.525651 5:0.00204642 6:0.725966 7:0.00355635 8:0.246071 9:0.00550694 10:0.000322838 11:0.533832 12:1 13:0.542615 14:0.452825 15:0.000439601 16:0.358255 17:0.362716 18:0.698587 19:0.752374 20:0.369259 21:0.152512 22:0.400762 23:0.98686 24:0.276712 25:0.670124 26:0.755149 27:0.463833 28:0.568599 29:0.990234 30:0.351131 31:0.104746 32:0.527664 33:0.991896 34:0.367349 35:0.425716 36:0.39231 37:0.579032 
1024 1:1 2:0.0673781 3:0.315369 4:0.539554 5:0.00220824 6:0.72819 7:0.00391754 8:0.246737 9:0.00593217 10:0.000349208 11:0.548938 12:1 13:0.53768 14:0.457808 15:0.000475508 16:0.353671 17:0.357062 18:0.702975 19:0.748797 20:0.357706 21:0.152632 22:0.405744 23:0.985853 24:0.279318 25:0.659134 26:0.777445 27:0.479413 28:0.582225 29:0.989485 30:0.348148 31:0.111811 32:0.519438 33:0.991275 34:0.364077 35:0.427304 36:0.393395 37:0.579589 
1024 1:1 2:0.348795 3:0.295975 4:0.453775 5:0.00100996 6:0.698256 7:0.0053623 8:0.255371 9:0.00246939 10:0.013997 11:0.50748 12:1 13:0.521139 14:0.348462 15:0.0142873 16:0.397631 17:0.38449 18:0.714359 19:0.69174 20:0.480531 21:0.347502 22:0.220032 23:0.971067 24:0.333416 25:0.706017 26:0.785864 27:0.388099 28:0.61735 29:0.99415 30:0.356878 31:0.176454 32:0.693422 33:0.99574 34:0.602223 35:0.510545 36:0.256255 37:0.400005 
1024 1:1 2:0.182067 3:0.31403 4:0.546405 5:0.00188642 6:0.710781 7:0.00308402 8:0.304659 9:0.00109746 10:0.00761207 11:0.538171 12:0.997762 13:0.526283 14:0.326155 15:0.00863282 16:0.342738 17:0.272546 18:0.743267 19:0.668309 20:0.323003 21:0.123066 22:0.454428 23:0.998687 24:0.308418 25:0.786363 26:0.72 27:0.440548 28:0.564516 29:0.987257 30:0.355464 31:0.0656927 32:0.511416 33:1 34:0.365831 35:0.311795 36:0.501338 37:0.569335 
1024 1:1 2:0.20302 3:0.313065 4:0.516608 5:0.0019312 6:0.746416 7:0.00336186 8:0.28768 9:0.0011236 10:0.00778721 11:0.549225 12:0.997711 13:0.525339 14:0.346698 15:0.00883155 16:0.34633 17:0.265888 18:0.741057 19:0.655526 20:0.351221 21:0.127203 22:0.415879 23:0.998657 24:0.317769 25:0.784496 26:0.720888 27:0.448082 28:0.486629 29:0.986965 30:0.321605 31:0.0456412 32:0.534686 33:1 34:0.361691 35:0.312874 36:0.481714 37:0.596267 
1024 1:1 2:0.255281 3:0.306752 4:0.514071 5:0.00208914 6:0.701715 7:0.00391754 8:0.297515 9:0.00121583 10:0.00840491 11:0.540272 12:0.99753 13:0.533783 14:0.339701 15:0.00953248 16:0.346059 17:0.295437 18:0.748115 19:0.656709 20:0.351116 21:0.124535 22:0.394943 23:0.998551 24:0.303977 25:0.773286 26:0.722302 27:0.435029 28:0.567559 29:0.985934 30:0.320901 31:0.0693211 32:0.536085 33:1 34:0.361986 35:0.307222 36:0.48858 37:0.593635 
1024 1:1 2:0.477551 3:0.359897 4:0.525577 5:0.00722582 6:0.749115 7:0.00325072 8:0.269346 9:0.00279618 10:0.0158209 11:0.52632 12:1 13:0.530187 14:0.236813 15:0.0495864 16:0.434082 17:0.280571 18:0.699137 19:0.751926 20:0.403058 21:0.230057 22:0.436925 23:0.934605 24:0.290444 25:0.628539 26:0.931711 27:0.440718 28:0.635717 29:0.883635 30:0.358334 31:0.373245 32:0.579436 33:0.956676 34:0.606647 35:0.38127 36:0.340426 37:0.42993 
65.61484382891709 1:1 2:0.412941 3:0.359897 4:0.550078 5:0.0062382 6:0.749115 7:0.00325072 8:0.2777 9:0.0024117 10:0.013675 11:0.553087 12:1 13:0.497582 14:0.259691 15:0.0428659 16:0.462264 17:0.324302 18:0.71232 19:0.756845 20:0.39789 21:0.218191 22:0.37614 23:0.943463 24:0.312497 25:0.660644 26:0.867963 27:0.440718 28:0.667697 29:0.899397 30:0.347181 31:0.255419 32:0.524645 33:0.962544 34:0.601627 35:0.366374 36:0.349726 37:0.439825 
1024 1:1 2:0.434899 3:0.353185 4:0.51555 5:0.0047301 6:0.813506 7:0.00300067 8:0.304139 9:0.0167595 10:0.00310456 11:0.605649 12:1 13:0.570319 14:0.258034 15:0.0084838 16:0.407684 17:0.358162 18:0.749488 19:0.757484 20:0.254291 21:0.176525 22:0.382069 23:0.996774 24:0.393325 25:0.67447 26:0.655742 27:0.443452 28:0.544188 29:0.934772 30:0.400128 31:0.309271 32:0.40576 33:0.985753 34:0.546928 35:0.369482 36:0.36661 37:0.475279 
1024 1:1 2:0.261538 3:0.290951 4:0.640186 5:0.00603869 6:0.719998 7:0.00283396 8:0.248458 9:0.00352218 10:0.00594696 11:0.418182 12:1 13:0.445335 14:0.317196 15:0.00132548 16:0.431507 17:0.286893 18:0.636891 19:0.719154 20:0.410675 21:0.17245 22:0.470463 23:0.977417 24:0.284614 25:0.733589 26:0.787287 27:0.498766 28:0.569844 29:0.975092 30:0.373151 31:0.360737 32:0.654844 33:0.97582 34:0.457112 35:0.38483 36:0.383318 37:0.53597 
1024 1:1 2:0.141292 3:0.278691 4:0.554254 5:0.000911881 6:0.753429 7:0.00477884 8:0.32715 9:0.00566417 10:0.00252665 11:0.471029 12:1 13:0.468423 14:0.325803 15:0.00040469 16:0.373101 17:0.293532 18:0.71951 19:0.722427 20:0.35433 21:0.158493 22:0.48507 23:0.989482 24:0.280799 25:0.701194 26:0.737684 27:0.377457 28:0.547332 29:0.993088 30:0.37325 31:0.115822 32:0.601357 33:0.993226 34:0.435913 35:0.370776 36:0.443623 37:0.501104 
1024 1:1 2:0.144268 3:0.298732 4:0.532688 5:0.00220788 6:0.675677 7:0.00419538 8:0.307758 9:0.00128517 10:0.00071959 11:0.547408 12:1 13:0.475809 14:0.347587 15:0.00249311 16:0.377195 17:0.317018 18:0.782002 19:0.702639 20:0.375581 21:0.163455 22:0.379679 23:0.985473 24:0.344141 25:0.663683 26:0.71975 27:0.378521 28:0.60756 29:0.987013 30:0.398278 31:0.156975 32:0.566994 33:0.990432 34:0.470669 35:0.399447 36:0.413324 37:0.469889 
1024 1:1 2:0.197838 3:0.331434 4:0.50532 5:0.00186425 6:0.448026 7:0.00338964 8:0.274166 9:0.00108451 10:0.00500982 11:0.441622 12:0.998525 13:0.536287 14:0.307027 15:0.00939079 16:0.37741 17:0.395445 18:0.696136 19:0.730615 20:0.499175 21:0.234464 22:0.364809 23:0.998702 24:0.184435 25:0.737697 26:0.713576 27:0.395132 28:0.62613 29:1 30:0.415461 31:0.188867 32:0.606295 33:0.997134 34:0.508253 35:0.438203 36:0.366138 37:0.445328 
1024 1:1 2:0.239529 3:0.331434 4:0.519703 5:0.00227115 6:0.448026 7:0.00338964 8:0.293049 9:0.00132212 10:0.00607073 11:0.555779 12:0.998214 13:0.509947 14:0.325973 15:0.0113771 16:0.353628 17:0.407082 18:0.733663 19:0.727283 20:0.379174 21:0.187246 22:0.324971 23:0.998428 24:0.313512 25:0.71694 26:0.689717 27:0.395132 28:0.555018 29:1 30:0.465298 31:0.379452 32:0.535281 33:0.996529 34:0.427253 35:0.451904 36:0.416047 37:0.458312 
1024 1:1 2:0.466235 3:0.31225 4:0.492087 5:0.00323819 6:0.54927 7:0.0046677 8:0.246907 9:0.00188682 10:0.00859216 11:0.323378 12:1 13:0.563562 14:0.261722 15:0.016098 16:0.36094 17:0.383424 18:0.686313 19:0.61271 20:0.652595 21:0.323423 22:0.420037 23:0.937778 24:0.243268 25:0.812985 26:0.747173 27:0.378624 28:0.631937 29:0.985621 30:0.379855 31:0.248353 32:0.662867 33:0.985278 34:0.577554 35:0.463476 36:0.317162 37:0.402869 
1024 1:1 2:0.38872 3:0.377244 4:0.616025 5:0.00129539 6:0.599654 7:0.00472327 8:0.292342 9:0.00472528 10:0.00707445 11:0.488036 12:1 13:0.458384 14:0.3461 15:0.00600983 16:0.29535 17:0.335123 18:0.632173 19:0.803846 20:0.425034 21:0.175211 22:0.382496 23:0.987185 24:0.300538 25:0.639448 26:0.745637 27:0.360136 28:0.680814 29:0.955579 30:0.550833 31:0.152487 32:0.600571 33:0.998652 34:0.439995 35:0.506017 36:0.420573 37:0.382226 
1024 1:1 2:0.123186 3:0.351792 4:0.548894 5:0.000485596 6:0.612207 7:0.00369527 8:0.34905 9:0.00317487 10:0.0021334 11:0.498764 12:1 13:0.525882 14:0.314546 15:0.000949005 16:0.347572 17:0.335285 18:0.738777 19:0.759622 20:0.376238 21:0.180885 22:0.378502 23:0.996294 24:0.29665 25:0.652769 26:0.704097 27:0.38406 28:0.609795 29:0.998801 30:0.434247 31:0.190776 32:0.555858 33:0.998363 34:0.488428 35:0.408696 36:0.418199 37:0.435139 
1024 1:1 2:0.111608 3:0.351792 4:0.525187 5:0.00292947 6:0.612207 7:0.00369527 8:0.346184 9:0.00287242 10:0.000629416 11:0.527736 12:1 13:0.519645 14:0.307445 15:0.000857061 16:0.353357 17:0.330307 18:0.731511 19:0.761688 20:0.359098 21:0.179607 22:0.430946 23:0.996642 24:0.319761 25:0.664351 26:0.712745 27:0.38406 28:0.615366 29:0.998914 30:0.440265 31:0.190776 32:0.563404 33:0.998517 34:0.486405 35:0.409305 36:0.422998 37:0.430912 
1024 1:1 2:0.126306 3:0.351792 4:0.539716 5:0.0021942 6:0.612207 7:0.00369527 8:0.35036 9:0.00325637 10:0.000715133 11:0.502981 12:1 13:0.523664 14:0.308566 15:0.00899597 16:0.357186 17:0.344848 18:0.736705 19:0.757542 20:0.404842 21:0.186953 22:0.361566 23:0.9962 24:0.285978 25:0.652617 26:0.714952 27:0.38406 28:0.590842 29:0.998771 30:0.417823 31:0.190776 32:0.571849 33:0.998322 34:0.49482 35:0.406274 36:0.41001 37:0.440636 
1024 1:1 2:1 3:0.376091 4:0.470937 5:0.0279724 6:0.693295 7:0.00472327 8:0.374596 9:0.00814406 10:0.0136858 11:0.619487 12:0.986605 13:0.463699 14:0.295801 15:0.00308177 16:0.330709 17:0.389282 18:0.805899 19:0.74594 20:0.443703 21:0.21208 22:0.230931 23:1 24:0.342422 25:0.589913 26:0.680187 27:0.35537 28:0.763686 29:0.992373 30:0.545455 31:0.181705 32:0.586103 33:0.996529 34:0.56993 35:0.486834 36:0.386682 37:0.302939 
70.95428777406238 1:1 2:0.303147 3:0.278314 4:0.51773 5:0.00781931 6:0.696849 7:0.00508446 8:0.332674 9:0.0149215 10:0.00254847 11:0.484403 12:0.99774 13:0.355695 14:0.280706 15:0.000845802 16:0.319413 17:0.177428 18:0.7253 19:0.77984 20:0.508839 21:0.204562 22:0.470307 23:0.965525 24:0.303126 25:0.575613 26:0.767285 27:0.361644 28:0.599452 29:0.99142 30:0.437183 31:0.131767 32:0.621675 33:1 34:0.416235 35:0.450621 36:0.47108 37:0.405373 
1024 1:1 2:0.717663 3:0.331493 4:0.595073 5:0.00738829 6:0.735146 7:0.00477884 8:0.374883 9:0.00285943 10:0.00645679 11:0.431523 12:1 13:0.57701 14:0.271005 15:0.00879206 16:0.376315 17:0.4521 18:0.583983 19:0.870043 20:0.390913 21:0.225391 22:0.284239 23:0.979944 24:0.271794 25:0.671997 26:0.796727 27:0.293824 28:0.620225 29:0.994593 30:0.39451 31:0.299055 32:0.620179 33:0.997539 34:0.509676 35:0.334528 36:0.448898 37:0.453274 
1024 1:1 2:0.221562 3:0.272645 4:0.672794 5:0.00448157 6:0.736486 7:0.0024172 8:0.27104 9:0.0335898 10:0.0039305 11:0.390736 12:0.998841 13:0.392986 14:0.326054 15:0.00131627 16:0.305195 17:0.268491 18:0.617368 19:0.812626 20:0.422301 21:0.248948 22:0.552852 23:0.989805 24:0.241342 25:0.601366 26:0.745145 27:0.31424 28:0.639411 29:0.986806 30:0.34116 31:0.315764 32:0.657324 33:1 34:0.411287 35:0.409521 36:0.436802 37:0.495144 
1024 1:1 2:0.213563 3:0.384871 4:0.354238 5:0.00260918 6:0.930382 7:0.00527895 8:0.26846 9:0.00386219 10:0.00782379 11:0.62759 12:0.989778 13:0.571668 14:0.329315 15:0.000564477 16:0.331186 17:0.391885 18:0.790832 19:0.594771 20:0.302296 21:0.358297 22:0.289948 23:0.9991 24:0.420273 25:0.781981 26:0.601899 27:0.369254 28:0.706616 29:1 30:0.416667 31:0.152392 32:0.444418 33:0.996689 34:0.583822 35:0.555025 36:0.295603 37:0.325778 
441.5440282377427 1:1 2:0.494949 3:0.356444 4:0.242119 5:0.00895186 6:0.761678 7:0.00544565 8:0.272766 9:0.0175097 10:0.00193796 11:0.430817 12:1 13:0.546353 14:0.279615 15:0.00263887 16:0.319792 17:0.524658 18:0.548067 19:0.506858 20:0.521272 21:0.183656 22:0.216428 23:0.955518 24:0.285846 25:0.670302 26:0.849014 27:0.315237 28:0.655407 29:0.942762 30:0.535413 31:0.100449 32:0.759766 33:0.980652 34:0.373818 35:0.407079 36:0.561197 37:0.388556 
1024 1:1 2:0.390496 3:0.277952 4:0.44247 5:0.0128481 6:0.388672 7:0.00350078 8:0.342274 9:0.025812 10:0.0047887 11:0.603148 12:1 13:0.502003 14:0.321839 15:0.00160842 16:0.321476 17:0.328314 18:0.772713 19:0.644938 20:0.394259 21:0.254577 22:0.308416 23:0.96029 24:0.363518 25:0.68786 26:0.761273 27:0.431145 28:0.755186 29:0.985948 30:0.475085 31:0.541106 32:0.529088 33:0.965288 34:0.556557 35:0.54884 36:0.346292 37:0.300748 
1024 1:1 2:0.450758 3:0.311656 4:0.530891 5:0.00895566 6:0.785045 7:0.00330629 8:0.24389 9:0.050002 10:0.00879905 11:0.466642 12:1 13:0.489617 14:0.370583 15:0.00197275 16:0.296433 17:0.325455 18:0.73619 19:0.705272 20:0.52414 21:0.382445 22:0.374702 23:0.972693 24:0.22057 25:0.625825 26:0.785384 27:0.386859 28:0.654977 29:0.98773 30:0.409206 31:0.226487 32:0.65726 33:0.977665 34:0.491914 35:0.542148 36:0.337723 37:0.387844 
1024 1:1 2:0.37702 3:0.256009 4:0.548363 5:0.00634581 6:0.711902 7:0.00388975 8:0.243858 9:0.0355238 10:0.00624725 11:0.498294 12:1 13:0.459676 14:0.421705 15:0.00139363 16:0.29758 17:0.303882 18:0.767113 19:0.646202 20:0.49606 21:0.303294 22:0.382512 23:0.980593 24:0.241573 25:0.640106 26:0.793777 27:0.41634 28:0.60704 29:0.99128 30:0.402326 31:0.52917 32:0.657847 33:0.984127 34:0.456918 35:0.517241 36:0.345153 37:0.442859 
658.8975295363218 1:1 2:0.522222 3:0.264541 4:0.521394 5:0.00875494 6:0.754674 7:0.00391754 8:0.253177 9:0.0488885 10:0.0086028 11:0.460369 12:1 13:0.482977 14:0.375154 15:0.00192821 16:0.286679 17:0.317719 18:0.765302 19:0.699825 20:0.550488 21:0.356533 22:0.37524 23:0.9733 24:0.215002 25:0.648841 26:0.784425 27:0.385832 28:0.68883 29:0.988003 30:0.428668 31:0.401795 32:0.665714 33:0.978162 34:0.482577 35:0.535791 36:0.353635 37:0.385467 
1024 1:1 2:0.474033 3:0.427039 4:0.467668 5:0.00782803 6:0.695348 7:0.00397311 8:0.279225 9:0.0137857 10:0.00255131 11:0.538856 12:1 13:0.494535 14:0.401675 15:0.00522558 16:0.332629 17:0.350973 18:0.680303 19:0.674986 20:0.356315 21:0.228245 22:0.286768 23:0.957522 24:0.386194 25:0.724101 26:0.813815 27:0.438279 28:0.593455 29:0.959201 30:0.431516 31:0.288265 32:0.66537 33:0.966777 34:0.434426 35:0.538582 36:0.381373 37:0.401137 
1024 1:1 2:0.246523 3:0.364144 4:0.520743 5:0.00519913 6:0.735032 7:0.00541787 8:0.306992 9:0.00259275 10:0.00390051 11:0.52732 12:1 13:0.540821 14:0.311421 15:0.000638536 16:0.387562 17:0.393006 18:0.739421 19:0.707863 20:0.318645 21:0.33882 22:0.341861 23:0.981788 24:0.343745 25:0.714273 26:0.723931 27:0.393758 28:0.637275 29:0.988543 30:0.365208 31:0.147331 32:0.536198 33:0.987338 34:0.616008 35:0.510413 36:0.29932 37:0.333482 
1024 1:1 2:0.239362 3:0.364144 4:0.511157 5:0.00504613 6:0.735032 7:0.00541787 8:0.312677 9:0.00251617 10:0.00378654 11:0.519575 12:1 13:0.543997 14:0.30661 15:0.000619136 16:0.388802 17:0.403845 18:0.735873 19:0.705207 20:0.315569 21:0.339519 22:0.347712 23:0.982317 24:0.335224 25:0.71897 26:0.72651 27:0.393758 28:0.67241 29:0.988876 30:0.365228 31:0.19937 32:0.540455 33:0.987706 34:0.622342 35:0.50569 36:0.299643 37:0.331222 
1024 1:1 2:0.310194 3:0.382475 4:0.588732 5:0.00773219 6:0.831096 7:0.00591798 8:0.319007 9:0.00198145 10:0.00788517 11:0.44298 12:1 13:0.530349 14:0.343678 15:0.00074001 16:0.397032 17:0.394004 18:0.671478 19:0.759872 20:0.442975 21:0.208263 22:0.402891 23:0.997669 24:0.273946 25:0.729914 26:0.75291 27:0.309537 28:0.599699 29:0.999057 30:0.403923 31:0.139406 32:0.607894 33:0.99142 34:0.561189 35:0.475459 36:0.329614 37:0.392957 
1024 1:1 2:0.514388 3:0.290008 4:0.549102 5:0.0106424 6:0.3868 7:0.00397311 8:0.260169 9:0.00495994 10:0.00277058 11:0.633239 12:0.968897 13:0.377818 14:0.336306 15:0.0113759 16:0.4375 17:0.329039 18:0.792149 19:0.782575 20:0.364791 21:0.121046 22:0.34719 23:0.965426 24:0.448991 25:0.620509 26:0.656694 27:0.409338 28:0.585002 29:0.99767 30:0.499563 31:0.266686 32:0.489589 33:1 34:0.438764 35:0.441547 36:0.391724 37:0.48603 
512.0254860909164 1:1 2:0.559524 3:0.245814 4:0.519823 5:0.0141208 6:0.50684 7:0.00261169 8:0.27009 9:0.0372356 10:0.00460223 11:0.516096 12:1 13:0.434429 14:0.325141 15:0.00626675 16:0.299167 17:0.241618 18:0.773791 19:0.660097 20:0.433801 21:0.149298 22:0.422494 23:0.89503 24:0.363846 25:0.634057 26:0.770618 27:0.370393 28:0.609764 29:0.965267 30:0.597972 31:0.559439 32:0.623856 33:0.964877 34:0.378504 35:0.505896 36:0.509482 37:0.341792 
952.339917778457 1:1 2:0.568149 3:0.23703 4:0.494978 5:0.00762389 6:0.737018 7:0.00366748 8:0.270383 9:0.00295115 10:0.0166858 11:0.597284 12:1 13:0.468632 14:0.398872 15:0.0318206 16:0.260039 17:0.297102 18:0.756024 19:0.706648 20:0.48735 21:0.303294 22:0.301977 23:0.968966 24:0.346795 25:0.627049 26:0.751143 27:0.32105 28:0.647042 29:0.986055 30:0.460988 31:0.641936 32:0.651157 33:0.974617 34:0.452344 35:0.527601 36:0.38972 37:0.383311 
1024 1:1 2:0.234794 3:0.355367 4:0.514012 5:0.00524842 6:0.730138 7:0.00511225 8:0.300753 9:0.00261741 10:0.00393723 11:0.523931 12:1 13:0.536907 14:0.313235 15:0.000644785 16:0.391192 17:0.395532 18:0.739568 19:0.704791 20:0.31658 21:0.339002 22:0.345571 23:0.981617 24:0.345423 25:0.712068 26:0.724948 27:0.402919 28:0.650732 29:0.988436 30:0.363714 31:0.159553 32:0.535532 33:0.98722 34:0.616183 35:0.511626 36:0.295658 37:0.336421 
1024 1:1 2:0.228963 3:0.364144 4:0.483936 5:0.00482398 6:0.735032 7:0.00541787 8:0.328898 9:0.00240497 10:0.00362104 11:0.50569 12:1 13:0.569592 14:0.284146 15:0.000590967 16:0.396824 17:0.458571 18:0.732346 19:0.691188 20:0.293835 21:0.32017 22:0.332792 23:0.983085 24:0.343898 25:0.735434 26:0.715109 27:0.393758 28:0.722666 29:0.989359 30:0.349348 31:0.204526 32:0.535743 33:0.988241 34:0.62335 35:0.478391 36:0.31494 37:0.340443 
1024 1:1 2:0.159602 3:0.281232 4:0.533652 5:0.0018256 6:0.518395 7:0.00697377 8:0.298596 9:0.000399411 10:0.00638812 11:0.563745 12:0.99046 13:0.507043 14:0.353242 15:0.00131371 16:0.36487 17:0.388603 18:0.734843 19:0.732889 20:0.319643 21:0.208584 22:0.346897 23:0.990842 24:0.363996 25:0.693948 26:0.730557 27:0.4368 28:0.585096 29:1 30:0.433934 31:0.164232 32:0.509979 33:0.999625 34:0.477379 35:0.476422 36:0.374667 37:0.428205 
1024 1:1 2:0.390555 3:0.3632 4:0.558147 5:0.00449125 6:0.419565 7:0.00566793 8:0.332864 9:0.00128814 10:0.0103742 11:0.465889 12:0.991292 13:0.542772 14:0.377446 15:0.0171597 16:0.317165 17:0.359636 18:0.639476 19:0.770528 20:0.379983 21:0.218497 22:0.416599 23:1 24:0.281323 25:0.676925 26:0.811542 27:0.365247 28:0.642915 29:0.993802 30:0.414972 31:0.346987 32:0.610393 33:0.995487 34:0.475637 35:0.473891 36:0.402319 37:0.399494 
1024 1:1 2:0.347447 3:0.36263 4:0.643848 5:0.0210525 6:0.843944 7:0.00516782 8:0.258037 9:0.0648618 10:0.0014277 11:0.465703 12:1 13:0.480037 14:0.308506 15:0.00194406 16:0.307867 17:0.358327 18:0.621425 19:0.805218 20:0.446043 21:0.324157 22:0.331952 23:0.968598 24:0.291511 25:0.602876 26:0.810408 27:0.327212 28:0.676789 29:0.979439 30:0.410281 31:0.184474 32:0.670157 33:0.983489 34:0.506725 35:0.492253 36:0.371377 37:0.383849 
1024 1:1 2:0.299484 3:0.283195 4:0.544907 5:0.00608605 6:0.708481 7:0.00161147 8:0.30812 9:0.0143262 10:0.0280467 11:0.500547 12:1 13:0.42667 14:0.228206 15:0.00270097 16:0.395667 17:0.344423 18:0.708315 19:0.73679 20:0.431619 21:0.0849468 22:0.331049 23:0.917241 24:0.237948 25:0.617263 26:0.753424 27:0.329488 28:0.438152 29:0.943103 30:0.358926 31:0.0499379 32:0.587134 33:0.966494 34:0.333451 35:0.225778 36:0.535064 37:0.654158 
1024 1:1 2:0.483111 3:0.31928 4:0.542952 5:0.00133711 6:0.456893 7:0.00569571 8:0.396759 9:0.00323355 10:0.00546369 11:0.561404 12:0.988208 13:0.388161 14:0.277222 15:0.0298461 16:0.454617 17:0.255579 18:0.764686 19:0.766187 20:0.479548 21:0.187958 22:0.392042 23:0.990566 24:0.318498 25:0.557125 26:0.741927 27:0.371555 28:0.627916 29:1 30:0.340641 31:0.218276 32:0.594728 33:0.998611 34:0.572526 35:0.343521 36:0.396722 37:0.438741 
1024 1:1 2:0.181928 3:0.290387 4:0.568342 5:0.00318108 6:0.736799 7:0.00555679 8:0.303109 9:0.00690879 10:0.000684085 11:0.545513 12:1 13:0.485726 14:0.307344 15:0.00429324 16:0.336717 17:0.332282 18:0.719913 19:0.72961 20:0.462906 21:0.343926 22:0.386593 23:0.989081 24:0.268783 25:0.702709 26:0.788682 27:0.232987 28:0.702678 29:0.99058 30:0.444864 31:0.216461 32:0.547978 33:0.992498 34:0.590543 35:0.542963 36:0.315828 37:0.306886 
1024 1:1 2:0.124662 3:0.290387 4:0.546682 5:0.00104683 6:0.736799 7:0.00555679 8:0.306544 9:0.00558626 10:0.000945304 11:0.600123 12:1 13:0.499536 14:0.322572 15:0.000300055 16:0.362427 17:0.339625 18:0.803132 19:0.752328 20:0.330302 21:0.3325 22:0.400015 23:0.99202 24:0.361846 25:0.680426 26:0.626353 27:0.232987 28:0.69215 29:0.993142 30:0.406767 31:0.175021 32:0.49426 33:0.993392 34:0.624616 35:0.512224 36:0.302307 37:0.318697 
755.727325125708 1:1 2:0.236994 3:0.300164 4:0.637379 5:0.00079438 6:0.807244 7:0.00455657 8:0.313105 9:0.00598208 10:0.00782421 11:0.396847 12:0.999343 13:0.358399 14:0.358515 15:0.00149716 16:0.308056 17:0.292167 18:0.666599 19:0.795077 20:0.506417 21:0.205527 22:0.538559 23:1 24:0.204351 25:0.594927 26:0.727043 27:0.376822 28:0.5981 29:0.964451 30:0.274163 31:0.113626 32:0.598403 33:0.988932 34:0.41111 35:0.388087 36:0.421821 37:0.535885 
1024 1:1 2:0.312667 3:0.261543 4:0.529183 5:0.00184258 6:0.6391 7:0.00541787 8:0.315631 9:0.00107186 10:0.0161462 11:0.52179 12:1 13:0.503822 14:0.34655 15:0.00589809 16:0.33776 17:0.371945 18:0.662225 19:0.714654 20:0.397052 21:0.175439 22:0.327814 23:0.978182 24:0.329 25:0.689331 26:0.775207 27:0.357577 28:0.639327 29:0.981315 30:0.460212 31:0.162609 32:0.572535 33:0.976381 34:0.472182 35:0.460845 36:0.417171 37:0.399077 
1024 1:1 2:0.145756 3:0.321458 4:0.439128 5:0.0383571 6:0.308468 7:0.00219493 8:0.3237 9:0.00123983 10:0.00856565 11:0.460319 12:1 13:0.54392 14:0.306302 15:0.0311514 16:0.360502 17:0.367418 18:0.66149 19:0.69171 20:0.45174 21:0.174504 22:0.307113 23:0.997046 24:0.276166 25:0.722702 26:0.787952 27:0.391781 28:0.601679 29:0.966552 30:0.366127 31:0.0861262 32:0.651737 33:0.978256 34:0.460651 35:0.357637 36:0.412632 37:0.52549 
814.7961778051445 1:1 2:0.557003 3:0.344823 4:0.493792 5:0.00381271 6:0.89698 7:0.00475106 8:0.313189 9:0.00675149 10:0.0378966 11:0.547228 12:0.997036 13:0.539276 14:0.276277 15:0.00169207 16:0.29637 17:0.372289 18:0.714879 19:0.748827 20:0.429508 21:0.443445 22:0.248908 23:0.984348 24:0.341813 25:0.707836 26:0.701213 27:0.364061 28:0.680226 29:1 30:0.389455 31:0.522486 32:0.532759 33:0.978877 34:0.565243 35:0.50989 36:0.358392 37:0.317775 
1024 1:1 2:0.553903 3:0.309239 4:0.520532 5:0.00214795 6:0.746844 7:0.00413981 8:0.221616 9:0.00512751 10:0.0086349 11:0.460865 12:0.993233 13:0.431591 14:0.395862 15:0.0451543 16:0.294071 17:0.263442 18:0.665542 19:0.77248 20:0.506075 21:0.168748 22:0.348495 23:0.997022 24:0.237114 25:0.593945 26:0.739173 27:0.343317 28:0.545533 29:0.992775 30:0.469706 31:0.142653 32:0.659154 33:1 34:0.310926 35:0.454111 36:0.475279 37:0.51029 
1024 1:1 2:0.472695 3:0.316302 4:0.573772 5:0.00632858 6:0.588878 7:0.00488998 8:0.300802 9:0.0130258 10:0.0458245 11:0.518479 12:1 13:0.494706 14:0.369451 15:0.00138981 16:0.381247 17:0.314466 18:0.70873 19:0.784173 20:0.284423 21:0.15544 22:0.428128 23:0.952688 24:0.388859 25:0.601497 26:0.747015 27:0.394943 28:0.653853 29:0.963472 30:0.463371 31:0.278239 32:0.565027 33:0.96359 34:0.457377 35:0.44393 36:0.413218 37:0.437592 
49.65858306715246 1:1 2:0.337702 3:0.277828 4:0.559235 5:0.0026876 6:0.731041 7:0.00405646 8:0.281034 9:0.00478046 10:0.01254 11:0.500765 12:0.994739 13:0.439619 14:0.340106 15:0.00119275 16:0.404914 17:0.273875 18:0.737204 19:0.780176 20:0.459259 21:0.255009 22:0.468135 23:0.992593 24:0.247223 25:0.645723 26:0.70961 27:0.579254 28:0.542355 29:0.997004 30:0.345472 31:0.521341 32:0.619019 33:1 34:0.530361 35:0.428969 36:0.322145 37:0.484084 
355.7407012484719 1:1 2:0.513889 3:0.289124 4:0.445346 5:0.00820623 6:0.406252 7:0.00308402 8:0.312985 9:0.0192785 10:0.00716767 11:0.513563 12:1 13:0.506089 14:0.332874 15:0.00241827 16:0.35069 17:0.336111 18:0.761352 19:0.677705 20:0.35244 21:0.333551 22:0.339054 23:0.985162 24:0.375306 25:0.647334 26:0.829737 27:0.467298 28:0.709842 29:0.990999 30:0.397657 31:0.68605 32:0.652014 33:0.969964 34:0.619286 35:0.56769 36:0.286671 37:0.284935 
1024 1:1 2:0.505543 3:0.309251 4:0.438279 5:0.0118273 6:0.685075 7:0.00211158 8:0.323162 9:0.0277367 10:0.00514678 11:0.531738 12:0.987879 13:0.576862 14:0.34044 15:0.0668248 16:0.385503 17:0.475209 18:0.788657 19:0.627338 20:0.44666 21:0.286895 22:0.286471 23:0.994667 24:0.315259 25:0.686305 26:0.692298 27:0.401425 28:0.658949 29:0.987059 30:0.379277 31:0.431872 32:0.519849 33:1 34:0.59199 35:0.493488 36:0.30753 37:0.36732 
1024 1:1 2:0.0556079 3:0.363209 4:0.504501 5:0.00385841 6:0.708167 7:0.00327851 8:0.254165 9:0.00192168 10:0.000344085 11:0.557265 12:1 13:0.517552 14:0.374535 15:0.000717297 16:0.327981 17:0.367141 18:0.718089 19:0.703533 20:0.311561 21:0.105255 22:0.380668 23:0.990951 24:0.333438 25:0.67176 26:0.756706 27:0.529189 28:0.527576 29:0.99939 30:0.324285 31:0.0578631 32:0.543858 33:0.999722 34:0.342178 35:0.305153 36:0.4285 37:0.689432 
1024 1:1 2:0.803846 3:0.313323 4:0.48061 5:0.00909462 6:0.676124 7:0.00580685 8:0.351605 9:0.00798117 10:0.00296411 11:0.567384 12:0.994749 13:0.541334 14:0.38962 15:0.00403616 16:0.369713 17:0.433431 18:0.798755 19:0.741737 20:0.400155 21:0.210729 22:0.253533 23:1 24:0.312168 25:0.670081 26:0.637176 27:0.348762 28:0.770776 29:0.995016 30:0.489717 31:0.604411 32:0.519113 33:0.997732 34:0.510351 35:0.551816 36:0.341289 37:0.353495 
682.1682289968594 1:1 2:0.170577 3:0.361264 4:0.534056 5:0.00206343 6:0.681531 7:0.00397311 8:0.285859 9:0.00161518 10:0.00460407 11:0.442513 12:1 13:0.52176 14:0.333 15:0.000600831 16:0.368701 17:0.284333 18:0.657439 19:0.771209 20:0.468203 21:0.294511 22:0.444104 23:0.982816 24:0.258647 25:0.635645 26:0.779984 27:0.43469 28:0.602426 29:0.97838 30:0.357206 31:0.157166 32:0.635088 33:0.988054 34:0.497929 35:0.438402 36:0.369866 37:0.451776 
1024 1:1 2:0.238554 3:0.369549 4:0.408286 5:0.0145568 6:0.69914 7:0.00458435 8:0.267358 9:0.0150259 10:0.00110003 11:0.585326 12:1 13:0.577336 14:0.342441 15:0.00226133 16:0.349954 17:0.462687 18:0.759083 19:0.670085 20:0.29024 21:0.176251 22:0.294941 23:0.979171 24:0.387786 25:0.747471 26:0.679695 27:0.33859 28:0.563822 29:0.988769 30:0.427455 31:0.223718 32:0.562516 33:0.991482 34:0.407472 35:0.446674 36:0.411668 37:0.490423 
1024 1:1 2:0.311517 3:0.369549 4:0.381857 5:0.0190318 6:0.69914 7:0.00458435 8:0.272792 9:0.0196374 10:0.00144321 11:0.575738 12:1 13:0.577934 14:0.315076 15:0.00296228 16:0.348055 17:0.458049 18:0.745192 19:0.697552 20:0.295515 21:0.175621 22:0.302177 23:0.972796 24:0.44291 25:0.75157 26:0.653046 27:0.33859 28:0.565007 29:0.985331 30:0.445595 31:0.353098 32:0.525223 33:0.988875 34:0.405577 35:0.441596 36:0.434548 37:0.470292 
695.9150552902881 1:1 2:0.3 3:0.344841 4:0.606573 5:0.0023634 6:0.320213 7:0.00408424 8:0.299766 9:0.0183951 10:0.00156185 11:0.515438 12:1 13:0.408369 14:0.291201 15:0.00967176 16:0.362398 17:0.29669 18:0.692398 19:0.790025 20:0.46984 21:0.350997 22:0.461029 23:0.996732 24:0.279563 25:0.56434 26:0.852537 27:0.39666 28:0.694317 29:0.985464 30:0.33032 31:0.534995 32:0.705098 33:0.987974 34:0.636141 35:0.428433 36:0.314525 37:0.379663 
1024 1:1 2:0.0678149 3:0.363451 4:0.638787 5:0.000757755 6:0.893796 7:0.00408424 8:0.27991 9:0.00252115 10:0.0017671 11:0.460541 12:1 13:0.483349 14:0.336354 15:0.000214528 16:0.335557 17:0.297954 18:0.714247 19:0.806136 20:0.392176 21:0.178693 22:0.4621 23:0.992618 24:0.266874 25:0.59688 26:0.729026 27:0.322124 28:0.581005 29:0.994925 30:0.396925 31:0.130431 32:0.579515 33:0.995924 34:0.430679 35:0.437324 36:0.396217 37:0.493791 
1024 1:1 2:0.296845 3:0.345131 4:0.549494 5:0.00480112 6:0.861011 7:0.00705712 8:0.274499 9:0.0040174 10:0.00722931 11:0.43751 12:1 13:0.478884 14:0.300998 15:0.000588068 16:0.327485 17:0.33046 18:0.659748 19:0.794238 20:0.446535 21:0.339674 22:0.52494 23:0.996259 24:0.274447 25:0.684556 26:0.819718 27:0.323602 28:0.655161 29:0.998487 30:0.427609 31:0.177027 32:0.701665 33:0.995181 34:0.539243 35:0.548506 36:0.320954 37:0.350251 
1024 1:1 2:0.30093 3:0.347431 4:0.552374 5:0.00477283 6:0.861011 7:0.00719604 8:0.274747 9:0.0039938 10:0.00718717 11:0.433396 12:1 13:0.478448 14:0.302261 15:0.000584482 16:0.327555 17:0.325932 18:0.659719 19:0.794639 20:0.451041 21:0.339514 22:0.525366 23:0.996281 24:0.272128 25:0.685732 26:0.819951 27:0.325327 28:0.656193 29:0.998496 30:0.426242 31:0.177027 32:0.703938 33:0.995209 34:0.540531 35:0.548001 36:0.320227 37:0.350267 
406.5264779374758 1:1 2:0.770588 3:0.3095 4:0.40209 5:0.0069441 6:0.848781 7:0.0036397 8:0.323089 9:0.0122372 10:0.068514 11:0.551588 12:0.991963 13:0.475457 14:0.2295 15:0.00308177 16:0.300644 17:0.404988 18:0.718769 19:0.738308 20:0.351519 21:0.391888 22:0.112313 23:0.971709 24:0.35641 25:0.651002 26:0.791942 27:0.35785 28:0.630412 29:1 30:0.375 31:0.75117 32:0.657418 33:0.961821 34:0.546369 35:0.466682 36:0.390206 37:0.345314 
1024 1:1 2:0.508532 3:0.309239 4:0.496359 5:0.00196645 6:0.746844 7:0.00413981 8:0.216984 9:0.00470356 10:0.00792505 11:0.460088 12:0.993788 13:0.439142 14:0.398813 15:0.0414491 16:0.313465 17:0.258227 18:0.647818 19:0.777863 20:0.549443 21:0.176259 22:0.332183 23:0.997267 24:0.262271 25:0.597067 26:0.756001 27:0.343317 28:0.550515 29:0.993367 30:0.457474 31:0.111716 32:0.693009 33:1 34:0.327783 35:0.456592 36:0.449103 37:0.52097 
1024 1:1 2:0.439961 3:0.309239 4:0.506066 5:0.00344974 6:0.746844 7:0.00413981 8:0.241622 9:0.00816826 10:0.0297651 11:0.567385 12:0.994626 13:0.480621 14:0.35004 15:0.00153099 16:0.266093 17:0.373171 18:0.706635 19:0.74891 20:0.401955 21:0.106249 22:0.307336 23:0.997635 24:0.277582 25:0.642427 26:0.732571 27:0.343317 28:0.658474 29:0.994263 30:0.49814 31:0.280531 32:0.57326 33:1 34:0.266496 35:0.421828 36:0.534622 37:0.520815 
1024 1:1 2:0.225361 3:0.361518 4:0.6778 5:0.00422547 6:0.360363 7:0.00347299 8:0.266206 9:0.00622177 10:0.00137716 11:0.413654 12:0.99918 13:0.495954 14:0.366329 15:0.0104444 16:0.350727 17:0.305637 18:0.628969 19:0.803921 20:0.431338 21:0.167696 22:0.4794 23:0.985568 24:0.244345 25:0.604535 26:0.798398 27:0.377287 28:0.534995 29:0.997665 30:0.477587 31:0.278621 32:0.602004 33:1 34:0.421596 35:0.467169 36:0.401137 37:0.466296 
1024 1:1 2:0.082754 3:0.284642 4:0.53652 5:0.00193545 6:0.577541 7:0.00341743 8:0.275921 9:0.000892417 10:0.00363044 11:0.462746 12:1 13:0.46191 14:0.356911 15:0.000326184 16:0.347237 17:0.354012 18:0.726403 19:0.740552 20:0.410448 21:0.130847 22:0.389245 23:0.99677 24:0.227153 25:0.677572 26:0.724667 27:0.455289 28:0.578562 29:0.993468 30:0.376257 31:0.0652153 32:0.60632 33:0.99683 34:0.380479 35:0.350767 36:0.462917 37:0.558758 
471.1324299637885 1:1 2:0.568475 3:0.297324 4:0.485747 5:0.00147251 6:0.550619 7:0.00611247 8:0.328377 9:0.00714194 10:0.00398842 11:0.544685 12:1 13:0.569066 14:0.339778 15:0.00952588 16:0.397521 17:0.498794 18:0.727922 19:0.668693 20:0.361505 21:0.246537 22:0.35637 23:0.962759 24:0.239176 25:0.784478 26:0.704387 27:0.407694 28:0.677913 29:0.973225 30:0.363597 31:0.141507 32:0.474912 33:0.968017 34:0.557452 35:0.441534 36:0.351065 37:0.406863 
1024 1:1 2:0.0727347 3:0.354567 4:0.545292 5:0.000301237 6:0.593411 7:0.00655701 8:0.335343 9:0.000813958 10:0.00141236 11:0.474186 12:1 13:0.423006 14:0.278993 15:0.000133688 16:0.311512 17:0.359556 18:0.708158 19:0.766015 20:0.407264 21:0.140305 22:0.342449 23:0.992602 24:0.318837 25:0.615883 26:0.71657 27:0.396584 28:0.611226 29:0.996211 30:0.393568 31:0.0859353 32:0.639761 33:0.996914 34:0.392522 35:0.356092 36:0.510729 37:0.482668 
50.4808548068382 1:1 2:0.436923 3:0.322231 4:0.650577 5:0.0164183 6:0.383901 7:0.00394532 8:0.330033 9:0.00209676 10:0.00714184 11:0.538957 12:1 13:0.421666 14:0.268932 15:0.00972488 16:0.293002 17:0.317587 18:0.712712 19:0.746133 20:0.352673 21:0.194975 22:0.464968 23:0.955647 24:0.319756 25:0.61774 26:0.759175 27:0.231128 28:0.576181 29:0.966119 30:0.551761 31:0.68605 32:0.537595 33:0.965537 34:0.384004 35:0.45582 36:0.512909 37:0.384386 
1024 1:1 2:0.205128 3:0.277839 4:0.549402 5:0.00132184 6:0.604966 7:0.00244499 8:0.28137 9:0.0112983 10:0.00902082 11:0.503443 12:0.994698 13:0.442689 14:0.344769 15:0.00366474 16:0.398161 17:0.263744 18:0.738435 19:0.778187 20:0.456979 21:0.24788 22:0.45824 23:0.992535 24:0.263772 25:0.642312 26:0.70707 27:0.601323 28:0.607177 29:0.996981 30:0.352653 31:0.356058 32:0.614686 33:1 34:0.519244 35:0.434564 36:0.324986 37:0.486781 
1024 1:1 2:0.343164 3:0.323521 4:0.555373 5:0.0126996 6:0.748697 7:0.00355635 8:0.3173 9:0.00741183 10:0.0103796 11:0.521953 12:0.995121 13:0.529017 14:0.371109 15:0.00138727 16:0.35094 17:0.346756 18:0.708294 19:0.753349 20:0.35521 21:0.264195 22:0.370342 23:1 24:0.342256 25:0.72818 26:0.680087 27:0.368439 28:0.692446 29:0.987846 30:0.392773 31:0.218562 32:0.519098 33:0.987358 34:0.515487 35:0.529225 36:0.346625 37:0.365288 
1024 1:1 2:0.15293 3:0.326764 4:0.577866 5:0.00163524 6:0.385802 7:0.00297288 8:0.297194 9:0.0257771 10:0.00108721 11:0.457296 12:1 13:0.480875 14:0.326167 15:0.0143105 16:0.367798 17:0.314631 18:0.705856 19:0.711304 20:0.484886 21:0.24013 22:0.445724 23:0.980553 24:0.23708 25:0.684984 26:0.779615 27:0.429568 28:0.596212 29:0.985196 30:0.43495 31:0.197174 32:0.602352 33:0.97979 34:0.49478 35:0.473832 36:0.396205 37:0.38625 
1024 1:1 2:0.690114 3:0.30769 4:0.603438 5:0.011816 6:0.77367 7:0.00672372 8:0.369262 9:0.019781 10:0.00440427 11:0.467806 12:1 13:0.48779 14:0.328169 15:0.00147755 16:0.286061 17:0.318554 18:0.722168 19:0.803099 20:0.361877 21:0.274361 22:0.394313 23:0.988582 24:0.330738 25:0.636435 26:0.714023 27:0.375934 28:0.57931 29:0.992612 30:0.379351 31:0.563353 32:0.597489 33:0.996638 34:0.518488 35:0.457152 36:0.378303 37:0.399731 
560.7775595673036 1:1 2:0.597656 3:0.28154 4:0.58824 5:0.0138987 6:0.455467 7:0.00283396 8:0.270517 9:0.00811202 10:0.150166 11:0.48892 12:0.991994 13:0.534205 14:0.365761 15:0.0030696 16:0.454189 17:0.422089 18:0.744481 19:0.76228 20:0.454094 21:0.188287 22:0.248974 23:0.990607 24:0.229497 25:0.73673 26:0.655693 27:0.342846 28:0.738398 29:0.965811 30:0.424465 31:0.696267 32:0.55412 33:1 34:0.481494 35:0.440433 36:0.36043 37:0.478723 
1024 1:1 2:0.170616 3:0.281612 4:0.522131 5:0.0219372 6:0.461844 7:0.00166704 8:0.234932 9:0.00391109 10:0.00218519 11:0.365391 12:1 13:0.413509 14:0.322313 15:0.00447778 16:0.294915 17:0.347923 18:0.636744 19:0.698101 20:0.528448 21:0.102314 22:0.372909 23:0.956736 24:0.201363 25:0.608209 26:0.811582 27:0.640399 28:0.50291 29:0.941065 30:0.372788 31:0.0993985 32:0.653765 33:0.971505 34:0.300715 35:0.297954 36:0.569397 37:0.572311 
90.99557694093311 1:1 2:0.286667 3:0.261155 4:0.613029 5:0.00125706 6:0.375548 7:0.00358413 8:0.28763 9:0.00304657 10:0.00515061 11:0.371847 12:1 13:0.300512 14:0.261387 15:0.0257934 16:0.249258 17:0.202982 18:0.705022 19:0.755668 20:0.494549 21:0.135522 22:0.503249 23:0.96086 24:0.185676 25:0.430265 26:0.771474 27:0.381164 28:0.515749 29:0.975537 30:0.35116 31:0.400745 32:0.652976 33:0.979046 34:0.315384 35:0.303827 36:0.56174 37:0.559514 
1024 1:1 2:0.24665 3:0.344725 4:0.54125 5:0.00210883 6:0.349387 7:0.00375083 8:0.266877 9:0.00376654 10:0.00706472 11:0.468899 12:0.993352 13:0.475888 14:0.339648 15:0.000935893 16:0.32439 17:0.315878 18:0.732337 19:0.721897 20:0.480407 21:0.179942 22:0.398056 23:0.995612 24:0.233267 25:0.716303 26:0.683963 27:0.330975 28:0.569404 29:0.998817 30:0.480474 31:0.191827 32:0.591254 33:1 34:0.399753 35:0.433324 36:0.461744 37:0.45257 
1024 1:1 2:0.326316 3:0.354227 4:0.663022 5:0.00202232 6:0.343913 7:0.00516782 8:0.334241 9:0.00361499 10:0.00678278 11:0.499452 12:0.991223 13:0.514909 14:0.376182 15:0.000897501 16:0.369598 17:0.364171 18:0.721043 19:0.777585 20:0.353955 21:0.179635 22:0.381963 23:0.99017 24:0.316128 25:0.691097 26:0.641474 27:0.328723 28:0.582162 29:0.997728 30:0.444446 31:0.187721 32:0.495149 33:1 34:0.444293 35:0.427086 36:0.418563 37:0.462993 
560.5013090478648 1:1 2:0.509249 3:0.245212 4:0.562151 5:0.00382116 6:0.732371 7:0.0043343 8:0.295714 9:0.00222725 10:0.00757881 11:0.44406 12:1 13:0.449344 14:0.307958 15:0.0103199 16:0.258154 17:0.35399 18:0.62128 19:0.732684 20:0.360654 21:0.0945015 22:0.395329 23:0.955556 24:0.344174 25:0.615077 26:0.801355 27:0.467539 28:0.518471 29:0.913303 30:0.371419 31:0.206722 32:0.626802 33:0.965359 34:0.322699 35:0.276544 36:0.546834 37:0.598231 
79.19868046897521 1:1 2:0.323251 3:0.3194 4:0.601524 5:0.0184994 6:0.302728 7:0.00316737 8:0.261295 9:0.0176974 10:0.00217893 11:0.33864 12:0.99484 13:0.386078 14:0.291956 15:0.00596298 16:0.289256 17:0.299981 18:0.573321 19:0.783594 20:0.593452 21:0.248405 22:0.516814 23:0.997729 24:0.179152 25:0.619367 26:0.807214 27:0.377573 28:0.535109 29:1 30:0.437328 31:0.415163 32:0.695511 33:0.996657 34:0.401865 35:0.452131 36:0.440392 37:0.456193 
1024 1:1 2:0.200214 3:0.361518 4:0.661758 5:0.00184055 6:0.360363 7:0.00347299 8:0.270796 9:0.00329654 10:0.0136443 11:0.427449 12:0.999272 13:0.487219 14:0.358642 15:0.000816829 16:0.353724 17:0.337361 18:0.648043 19:0.809076 20:0.375709 21:0.173999 22:0.472978 23:0.987179 24:0.282976 25:0.632804 26:0.791739 27:0.377287 28:0.656783 29:0.997926 30:0.493659 31:0.282632 32:0.58789 33:1 34:0.423589 35:0.47122 36:0.403266 37:0.457328 
373.3147434166898 1:1 2:0.804706 3:0.251847 4:0.505363 5:0.00413703 6:0.595045 7:0.00633474 8:0.325386 9:0.00977361 10:0.00271797 11:0.464133 12:0.995181 13:0.566664 14:0.381899 15:0.011161 16:0.363208 17:0.459893 18:0.702944 19:0.781249 20:0.410785 21:0.151905 22:0.291571 23:1 24:0.253793 25:0.735638 26:0.662289 27:0.425623 28:0.582469 29:0.990854 30:0.442485 31:0.468729 32:0.592464 33:0.995838 34:0.427411 35:0.448529 36:0.423667 37:0.452528 
1024 1:1 2:0.263546 3:0.306088 4:0.595733 5:0.0112014 6:0.764462 7:0.00463992 8:0.314402 9:0.00324734 10:0.00120272 11:0.44528 12:0.997847 13:0.453737 14:0.32061 15:0.00163772 16:0.260041 17:0.275682 18:0.712381 19:0.827414 20:0.513796 21:0.2183 22:0.376745 23:1 24:0.276869 25:0.667515 26:0.732681 27:0.324806 28:0.599784 29:0.997957 30:0.48638 31:0.142748 32:0.579433 33:0.99907 34:0.409411 35:0.477053 36:0.480702 37:0.373375 
1024 1:1 2:0.296099 3:0.306088 4:0.556722 5:0.00415442 6:0.764462 7:0.00463992 8:0.311059 9:0.00118979 10:0.00410461 11:0.50583 12:0.997581 13:0.501367 14:0.318868 15:0.00839822 16:0.277138 17:0.332355 18:0.715024 19:0.818485 20:0.479203 21:0.203722 22:0.339323 23:1 24:0.263387 25:0.658014 26:0.706114 27:0.324806 28:0.58294 29:0.997704 30:0.488462 31:0.178554 32:0.550816 33:0.998955 34:0.397426 35:0.442247 36:0.506211 37:0.392226 
1024 1:1 2:0.241558 3:0.323934 4:0.551396 5:0.0105295 6:0.637228 7:0.00602912 8:0.338298 9:0.0177449 10:0.000841971 11:0.493708 12:0.998481 13:0.523664 14:0.316515 15:0.00114649 16:0.362961 17:0.368897 18:0.704112 19:0.749964 20:0.347862 21:0.124367 22:0.405951 23:1 24:0.292241 25:0.705204 26:0.690059 27:0.390715 28:0.592938 29:0.997118 30:0.406213 31:0.0922372 32:0.548123 33:0.999344 34:0.435362 35:0.359233 36:0.477419 37:0.473194 
1024 1:1 2:0.0875439 3:0.34133 4:0.624894 5:0.00186321 6:0.473361 7:0.00300067 8:0.222499 9:0.00389934 10:0.00123581 11:0.513979 12:1 13:0.455406 14:0.364212 15:0.000398947 16:0.355772 17:0.284597 18:0.709227 19:0.750379 20:0.348824 21:0.172856 22:0.469988 23:0.987676 24:0.295546 25:0.66345 26:0.721258 27:0.587095 28:0.607237 29:0.97849 30:0.414344 31:0.133868 32:0.541312 33:0.99045 34:0.409099 35:0.43293 36:0.391124 37:0.527822 
1024 1:1 2:0.156647 3:0.286029 4:0.576898 5:0.000547694 6:0.737617 7:0.00422316 8:0.324626 9:0.00138963 10:0.00317545 11:0.480449 12:0.999531 13:0.51914 14:0.345559 15:0.00323571 16:0.362261 17:0.343713 18:0.699664 19:0.770303 20:0.314476 21:0.202086 22:0.395333 23:0.990928 24:0.359855 25:0.667207 26:0.721665 27:0.325665 28:0.633696 29:0.998666 30:0.409786 31:0.138833 32:0.639484 33:1 34:0.492898 35:0.485546 36:0.370974 37:0.406307 
1024 1:1 2:0.115344 3:0.370532 4:0.561226 5:0.00617208 6:0.822325 7:0.00305623 8:0.306175 9:0.00505701 10:0.000791865 11:0.565335 12:1 13:0.425314 14:0.336197 15:0.00107826 16:0.355242 17:0.257311 18:0.726427 19:0.70725 20:0.41674 21:0.177767 22:0.424876 23:0.980699 24:0.271068 25:0.721521 26:0.711078 27:0.34875 28:0.606539 29:0.980317 30:0.370513 31:0.103122 32:0.565326 33:0.988263 34:0.430907 35:0.371437 36:0.422742 37:0.53092 
1024 1:1 2:0.171141 3:0.26835 4:0.549119 5:0.00113232 6:0.678889 7:0.00472327 8:0.334677 9:0.000657097 10:0.00232073 11:0.49451 12:1 13:0.476051 14:0.318413 15:0.00209706 16:0.360706 17:0.341678 18:0.682973 19:0.747767 20:0.408889 21:0.125049 22:0.369031 23:0.983887 24:0.311636 25:0.623191 26:0.776022 27:0.532982 28:0.596008 29:0.985013 30:0.347953 31:0.0711353 32:0.593934 33:0.991104 34:0.414831 35:0.309801 36:0.452295 37:0.577533 
1024 1:1 2:0.588737 3:0.284421 4:0.451009 5:0.0121323 6:0.444758 7:0.00319515 8:0.419528 9:0.0248876 10:0.0397331 11:0.652958 12:1 13:0.555378 14:0.261742 15:0.00267764 16:0.296389 17:0.426014 18:0.769413 19:0.754842 20:0.347469 21:0.228596 22:0.25802 23:0.954872 24:0.303819 25:0.712375 26:0.635992 27:0.292574 28:0.600717 29:0.970136 30:0.425047 31:0.678316 32:0.453092 33:0.969801 34:0.518189 35:0.46859 36:0.474933 37:0.271828 
1024 1:1 2:0.375637 3:0.286793 4:0.551049 5:0.000945951 6:0.65344 7:0.00614025 8:0.275242 9:0.0318468 10:0.0303016 11:0.48222 12:0.997681 13:0.474809 14:0.382081 15:0.00176622 16:0.343629 17:0.38566 18:0.716611 19:0.755543 20:0.388105 21:0.168717 22:0.369282 23:1 24:0.286779 25:0.674822 26:0.728775 27:0.517285 28:0.63165 29:0.995598 30:0.40766 31:0.133868 32:0.627081 33:0.998998 34:0.408837 35:0.447156 36:0.392981 37:0.510915 
1024 1:1 2:0.275087 3:0.354219 4:0.561539 5:0.0432182 6:0.311518 7:0.00147255 8:0.404707 9:0.0144009 10:0.00400926 11:0.439334 12:1 13:0.3463 14:0.256382 15:0.00545932 16:0.397727 17:0.299224 18:0.621879 19:0.753189 20:0.485519 21:0.0813231 22:0.338709 23:0.916811 24:0.291167 25:0.622532 26:0.761124 27:0.410643 28:0.585704 29:0.969722 30:0.270597 31:0.166523 32:0.614441 33:0.978567 34:0.404667 35:0.195398 36:0.528745 37:0.616848 
382.1402968544633 1:1 2:0.693086 3:0.301573 4:0.60092 5:0.00294801 6:0.763778 7:0.0038064 8:0.301863 9:0.0351507 10:0.011764 11:0.525136 12:1 13:0.495358 14:0.377004 15:0.00532026 16:0.400554 17:0.301882 18:0.734121 19:0.718793 20:0.308665 21:0.225888 22:0.411441 23:0.894595 24:0.3552 25:0.64174 26:0.857478 27:0.541015 28:0.575071 29:0.93442 30:0.27838 31:0.402654 32:0.48913 33:0.9433 34:0.484593 35:0.455108 36:0.344587 37:0.479001 
